digraph Tree {
node [shape=box, style="filled, rounded", color="black", fontname=helvetica] ;
edge [fontname=helvetica] ;
0 [label="curr_outstd_ratio <= 0.31\ngini = 0.5\nsamples = 47850\nvalue = [37939, 37977]\nclass = o", fillcolor="#399de500"] ;
1 [label="DELINQUENT.ACCTS.IN.LAST.SIX.MONTHS <= 0.5\ngini = 0.49\nsamples = 6892\nvalue = [6237, 4663]\nclass = l", fillcolor="#e5813940"] ;
0 -> 1 [labeldistance=2.5, labelangle=45, headlabel="True"] ;
2 [label="PRI.OVERDUE.ACCTS <= 0.5\ngini = 0.48\nsamples = 4885\nvalue = [4689, 2983]\nclass = l", fillcolor="#e581395d"] ;
1 -> 2 ;
3 [label="avg_credit_hist_mnth <= 95.5\ngini = 0.46\nsamples = 3728\nvalue = [3773, 2081]\nclass = l", fillcolor="#e5813972"] ;
2 -> 3 ;
4 [label="PERFORM_CNS.SCORE <= 695.5\ngini = 0.46\nsamples = 3504\nvalue = [3485, 2023]\nclass = l", fillcolor="#e581396b"] ;
3 -> 4 ;
5 [label="disbursed_amount <= 55500.0\ngini = 0.49\nsamples = 1756\nvalue = [1590, 1186]\nclass = l", fillcolor="#e5813941"] ;
4 -> 5 ;
6 [label="PRI.CURRENT.BALANCE <= 90161.0\ngini = 0.47\nsamples = 1023\nvalue = [997, 630]\nclass = l", fillcolor="#e581395e"] ;
5 -> 6 ;
7 [label="Employment.Type_Salaried <= 0.5\ngini = 0.42\nsamples = 18\nvalue = [10, 23]\nclass = o", fillcolor="#399de590"] ;
6 -> 7 ;
8 [label="PRI.SANCTIONED.AMOUNT <= 94000.0\ngini = 0.48\nsamples = 13\nvalue = [10, 15]\nclass = o", fillcolor="#399de555"] ;
7 -> 8 ;
9 [label="gini = 0.34\nsamples = 7\nvalue = [3, 11]\nclass = o", fillcolor="#399de5b9"] ;
8 -> 9 ;
10 [label="gini = 0.46\nsamples = 6\nvalue = [7, 4]\nclass = l", fillcolor="#e581396d"] ;
8 -> 10 ;
11 [label="gini = 0.0\nsamples = 5\nvalue = [0, 8]\nclass = o", fillcolor="#399de5ff"] ;
7 -> 11 ;
12 [label="disbursed_amount <= 43564.5\ngini = 0.47\nsamples = 1005\nvalue = [987, 607]\nclass = l", fillcolor="#e5813962"] ;
6 -> 12 ;
13 [label="PRIMARY.INSTAL.AMT <= 2620.5\ngini = 0.43\nsamples = 320\nvalue = [342, 154]\nclass = l", fillcolor="#e581398c"] ;
12 -> 13 ;
14 [label="PRIMARY.INSTAL.AMT <= 2299.5\ngini = 0.49\nsamples = 149\nvalue = [129, 93]\nclass = l", fillcolor="#e5813947"] ;
13 -> 14 ;
15 [label="inst_curr_disb_ratio <= 0.37\ngini = 0.48\nsamples = 144\nvalue = [128, 86]\nclass = l", fillcolor="#e5813954"] ;
14 -> 15 ;
16 [label="NEW.ACCTS.IN.LAST.SIX.MONTHS <= 1.5\ngini = 0.5\nsamples = 64\nvalue = [43, 47]\nclass = o", fillcolor="#399de516"] ;
15 -> 16 ;
17 [label="inst_curr_disb_ratio <= 0.26\ngini = 0.49\nsamples = 55\nvalue = [31, 43]\nclass = o", fillcolor="#399de547"] ;
16 -> 17 ;
18 [label="asset_to_loan_pct <= 1.56\ngini = 0.5\nsamples = 38\nvalue = [25, 26]\nclass = o", fillcolor="#399de50a"] ;
17 -> 18 ;
19 [label="cred_hist_desc_Medium Risk <= 0.5\ngini = 0.35\nsamples = 17\nvalue = [5, 17]\nclass = o", fillcolor="#399de5b4"] ;
18 -> 19 ;
20 [label="avg_acct_age_mnth <= 28.5\ngini = 0.24\nsamples = 11\nvalue = [2, 12]\nclass = o", fillcolor="#399de5d4"] ;
19 -> 20 ;
21 [label="gini = 0.48\nsamples = 5\nvalue = [2, 3]\nclass = o", fillcolor="#399de555"] ;
20 -> 21 ;
22 [label="gini = 0.0\nsamples = 6\nvalue = [0, 9]\nclass = o", fillcolor="#399de5ff"] ;
20 -> 22 ;
23 [label="gini = 0.47\nsamples = 6\nvalue = [3, 5]\nclass = o", fillcolor="#399de566"] ;
19 -> 23 ;
24 [label="Age_when_applying <= 40.28\ngini = 0.43\nsamples = 21\nvalue = [20, 9]\nclass = l", fillcolor="#e581398c"] ;
18 -> 24 ;
25 [label="asset_to_loan_pct <= 1.84\ngini = 0.5\nsamples = 12\nvalue = [9, 9]\nclass = l", fillcolor="#e5813900"] ;
24 -> 25 ;
26 [label="gini = 0.38\nsamples = 6\nvalue = [2, 6]\nclass = o", fillcolor="#399de5aa"] ;
25 -> 26 ;
27 [label="gini = 0.42\nsamples = 6\nvalue = [7, 3]\nclass = l", fillcolor="#e5813992"] ;
25 -> 27 ;
28 [label="gini = 0.0\nsamples = 9\nvalue = [11, 0]\nclass = l", fillcolor="#e58139ff"] ;
24 -> 28 ;
29 [label="curr_outstd_ratio <= 0.14\ngini = 0.39\nsamples = 17\nvalue = [6, 17]\nclass = o", fillcolor="#399de5a5"] ;
17 -> 29 ;
30 [label="gini = 0.41\nsamples = 6\nvalue = [5, 2]\nclass = l", fillcolor="#e5813999"] ;
29 -> 30 ;
31 [label="PRI.DISBURSED.AMOUNT <= 237000.0\ngini = 0.12\nsamples = 11\nvalue = [1, 15]\nclass = o", fillcolor="#399de5ee"] ;
29 -> 31 ;
32 [label="gini = 0.32\nsamples = 5\nvalue = [1, 4]\nclass = o", fillcolor="#399de5bf"] ;
31 -> 32 ;
33 [label="gini = 0.0\nsamples = 6\nvalue = [0, 11]\nclass = o", fillcolor="#399de5ff"] ;
31 -> 33 ;
34 [label="gini = 0.38\nsamples = 9\nvalue = [12, 4]\nclass = l", fillcolor="#e58139aa"] ;
16 -> 34 ;
35 [label="Age_when_applying <= 39.21\ngini = 0.43\nsamples = 80\nvalue = [85, 39]\nclass = l", fillcolor="#e581398a"] ;
15 -> 35 ;
36 [label="avg_credit_hist_mnth <= 8.5\ngini = 0.39\nsamples = 56\nvalue = [65, 24]\nclass = l", fillcolor="#e58139a1"] ;
35 -> 36 ;
37 [label="curr_outstd_ratio <= 0.23\ngini = 0.12\nsamples = 22\nvalue = [29, 2]\nclass = l", fillcolor="#e58139ed"] ;
36 -> 37 ;
38 [label="PRI.DISBURSED.AMOUNT <= 235000.0\ngini = 0.2\nsamples = 14\nvalue = [16, 2]\nclass = l", fillcolor="#e58139df"] ;
37 -> 38 ;
39 [label="gini = 0.44\nsamples = 6\nvalue = [4, 2]\nclass = l", fillcolor="#e581397f"] ;
38 -> 39 ;
40 [label="gini = 0.0\nsamples = 8\nvalue = [12, 0]\nclass = l", fillcolor="#e58139ff"] ;
38 -> 40 ;
41 [label="gini = 0.0\nsamples = 8\nvalue = [13, 0]\nclass = l", fillcolor="#e58139ff"] ;
37 -> 41 ;
42 [label="avg_acct_age_mnth <= 9.5\ngini = 0.47\nsamples = 34\nvalue = [36, 22]\nclass = l", fillcolor="#e5813963"] ;
36 -> 42 ;
43 [label="asset_to_loan_pct <= 1.65\ngini = 0.44\nsamples = 11\nvalue = [6, 12]\nclass = o", fillcolor="#399de57f"] ;
42 -> 43 ;
44 [label="gini = 0.28\nsamples = 6\nvalue = [2, 10]\nclass = o", fillcolor="#399de5cc"] ;
43 -> 44 ;
45 [label="gini = 0.44\nsamples = 5\nvalue = [4, 2]\nclass = l", fillcolor="#e581397f"] ;
43 -> 45 ;
46 [label="instalment_health <= 35398.83\ngini = 0.38\nsamples = 23\nvalue = [30, 10]\nclass = l", fillcolor="#e58139aa"] ;
42 -> 46 ;
47 [label="disbursed_amount <= 38866.5\ngini = 0.1\nsamples = 13\nvalue = [18, 1]\nclass = l", fillcolor="#e58139f1"] ;
46 -> 47 ;
48 [label="gini = 0.32\nsamples = 5\nvalue = [4, 1]\nclass = l", fillcolor="#e58139bf"] ;
47 -> 48 ;
49 [label="gini = 0.0\nsamples = 8\nvalue = [14, 0]\nclass = l", fillcolor="#e58139ff"] ;
47 -> 49 ;
50 [label="instalment_health <= 58940.14\ngini = 0.49\nsamples = 10\nvalue = [12, 9]\nclass = l", fillcolor="#e5813940"] ;
46 -> 50 ;
51 [label="gini = 0.48\nsamples = 5\nvalue = [4, 6]\nclass = o", fillcolor="#399de555"] ;
50 -> 51 ;
52 [label="gini = 0.4\nsamples = 5\nvalue = [8, 3]\nclass = l", fillcolor="#e581399f"] ;
50 -> 52 ;
53 [label="PRI.CURRENT.BALANCE <= 332466.5\ngini = 0.49\nsamples = 24\nvalue = [20, 15]\nclass = l", fillcolor="#e5813940"] ;
35 -> 53 ;
54 [label="asset_to_loan_pct <= 1.58\ngini = 0.3\nsamples = 10\nvalue = [13, 3]\nclass = l", fillcolor="#e58139c4"] ;
53 -> 54 ;
55 [label="gini = 0.49\nsamples = 5\nvalue = [4, 3]\nclass = l", fillcolor="#e5813940"] ;
54 -> 55 ;
56 [label="gini = 0.0\nsamples = 5\nvalue = [9, 0]\nclass = l", fillcolor="#e58139ff"] ;
54 -> 56 ;
57 [label="ltv <= 68.42\ngini = 0.47\nsamples = 14\nvalue = [7, 12]\nclass = o", fillcolor="#399de56a"] ;
53 -> 57 ;
58 [label="gini = 0.36\nsamples = 9\nvalue = [3, 10]\nclass = o", fillcolor="#399de5b3"] ;
57 -> 58 ;
59 [label="gini = 0.44\nsamples = 5\nvalue = [4, 2]\nclass = l", fillcolor="#e581397f"] ;
57 -> 59 ;
60 [label="gini = 0.22\nsamples = 5\nvalue = [1, 7]\nclass = o", fillcolor="#399de5db"] ;
14 -> 60 ;
61 [label="total_outstanding <= 751202.0\ngini = 0.35\nsamples = 171\nvalue = [213, 61]\nclass = l", fillcolor="#e58139b6"] ;
13 -> 61 ;
62 [label="PRI.DISBURSED.AMOUNT <= 543750.0\ngini = 0.25\nsamples = 120\nvalue = [159, 28]\nclass = l", fillcolor="#e58139d2"] ;
61 -> 62 ;
63 [label="Age_when_applying <= 39.34\ngini = 0.32\nsamples = 90\nvalue = [107, 27]\nclass = l", fillcolor="#e58139bf"] ;
62 -> 63 ;
64 [label="NEW.ACCTS.IN.LAST.SIX.MONTHS <= 3.5\ngini = 0.24\nsamples = 58\nvalue = [80, 13]\nclass = l", fillcolor="#e58139d6"] ;
63 -> 64 ;
65 [label="avg_credit_hist_mnth <= 47.5\ngini = 0.19\nsamples = 52\nvalue = [75, 9]\nclass = l", fillcolor="#e58139e0"] ;
64 -> 65 ;
66 [label="PERFORM_CNS.SCORE <= 641.0\ngini = 0.1\nsamples = 44\nvalue = [69, 4]\nclass = l", fillcolor="#e58139f0"] ;
65 -> 66 ;
67 [label="disbursed_amount <= 34392.0\ngini = 0.17\nsamples = 29\nvalue = [40, 4]\nclass = l", fillcolor="#e58139e6"] ;
66 -> 67 ;
68 [label="gini = 0.43\nsamples = 10\nvalue = [9, 4]\nclass = l", fillcolor="#e581398e"] ;
67 -> 68 ;
69 [label="gini = 0.0\nsamples = 19\nvalue = [31, 0]\nclass = l", fillcolor="#e58139ff"] ;
67 -> 69 ;
70 [label="gini = 0.0\nsamples = 15\nvalue = [29, 0]\nclass = l", fillcolor="#e58139ff"] ;
66 -> 70 ;
71 [label="gini = 0.5\nsamples = 8\nvalue = [6, 5]\nclass = l", fillcolor="#e581392a"] ;
65 -> 71 ;
72 [label="gini = 0.49\nsamples = 6\nvalue = [5, 4]\nclass = l", fillcolor="#e5813933"] ;
64 -> 72 ;
73 [label="asset_cost <= 64667.0\ngini = 0.45\nsamples = 32\nvalue = [27, 14]\nclass = l", fillcolor="#e581397b"] ;
63 -> 73 ;
74 [label="Age_when_applying <= 42.62\ngini = 0.36\nsamples = 21\nvalue = [19, 6]\nclass = l", fillcolor="#e58139ae"] ;
73 -> 74 ;
75 [label="gini = 0.48\nsamples = 5\nvalue = [2, 3]\nclass = o", fillcolor="#399de555"] ;
74 -> 75 ;
76 [label="ltv <= 73.68\ngini = 0.26\nsamples = 16\nvalue = [17, 3]\nclass = l", fillcolor="#e58139d2"] ;
74 -> 76 ;
77 [label="gini = 0.0\nsamples = 10\nvalue = [13, 0]\nclass = l", fillcolor="#e58139ff"] ;
76 -> 77 ;
78 [label="gini = 0.49\nsamples = 6\nvalue = [4, 3]\nclass = l", fillcolor="#e5813940"] ;
76 -> 78 ;
79 [label="curr_outstd_ratio <= 0.16\ngini = 0.5\nsamples = 11\nvalue = [8, 8]\nclass = l", fillcolor="#e5813900"] ;
73 -> 79 ;
80 [label="gini = 0.41\nsamples = 5\nvalue = [5, 2]\nclass = l", fillcolor="#e5813999"] ;
79 -> 80 ;
81 [label="gini = 0.44\nsamples = 6\nvalue = [3, 6]\nclass = o", fillcolor="#399de57f"] ;
79 -> 81 ;
82 [label="Age_when_applying <= 46.3\ngini = 0.04\nsamples = 30\nvalue = [52, 1]\nclass = l", fillcolor="#e58139fa"] ;
62 -> 82 ;
83 [label="gini = 0.0\nsamples = 25\nvalue = [46, 0]\nclass = l", fillcolor="#e58139ff"] ;
82 -> 83 ;
84 [label="gini = 0.24\nsamples = 5\nvalue = [6, 1]\nclass = l", fillcolor="#e58139d4"] ;
82 -> 84 ;
85 [label="asset_cost <= 62960.5\ngini = 0.47\nsamples = 51\nvalue = [54, 33]\nclass = l", fillcolor="#e5813963"] ;
61 -> 85 ;
86 [label="PRI.CURRENT.BALANCE <= 1416792.5\ngini = 0.49\nsamples = 24\nvalue = [15, 21]\nclass = o", fillcolor="#399de549"] ;
85 -> 86 ;
87 [label="PRI.ACTIVE.ACCTS <= 4.5\ngini = 0.36\nsamples = 17\nvalue = [6, 19]\nclass = o", fillcolor="#399de5ae"] ;
86 -> 87 ;
88 [label="avg_acct_age_mnth <= 13.0\ngini = 0.2\nsamples = 11\nvalue = [2, 16]\nclass = o", fillcolor="#399de5df"] ;
87 -> 88 ;
89 [label="gini = 0.0\nsamples = 6\nvalue = [0, 10]\nclass = o", fillcolor="#399de5ff"] ;
88 -> 89 ;
90 [label="gini = 0.38\nsamples = 5\nvalue = [2, 6]\nclass = o", fillcolor="#399de5aa"] ;
88 -> 90 ;
91 [label="gini = 0.49\nsamples = 6\nvalue = [4, 3]\nclass = l", fillcolor="#e5813940"] ;
87 -> 91 ;
92 [label="gini = 0.3\nsamples = 7\nvalue = [9, 2]\nclass = l", fillcolor="#e58139c6"] ;
86 -> 92 ;
93 [label="PRI.NO.OF.ACCTS <= 13.5\ngini = 0.36\nsamples = 27\nvalue = [39, 12]\nclass = l", fillcolor="#e58139b1"] ;
85 -> 93 ;
94 [label="Age_when_applying <= 36.99\ngini = 0.41\nsamples = 20\nvalue = [27, 11]\nclass = l", fillcolor="#e5813997"] ;
93 -> 94 ;
95 [label="PRI.DISBURSED.AMOUNT <= 1857214.5\ngini = 0.48\nsamples = 10\nvalue = [12, 8]\nclass = l", fillcolor="#e5813955"] ;
94 -> 95 ;
96 [label="gini = 0.47\nsamples = 5\nvalue = [3, 5]\nclass = o", fillcolor="#399de566"] ;
95 -> 96 ;
97 [label="gini = 0.38\nsamples = 5\nvalue = [9, 3]\nclass = l", fillcolor="#e58139aa"] ;
95 -> 97 ;
98 [label="ltv <= 60.97\ngini = 0.28\nsamples = 10\nvalue = [15, 3]\nclass = l", fillcolor="#e58139cc"] ;
94 -> 98 ;
99 [label="gini = 0.47\nsamples = 5\nvalue = [5, 3]\nclass = l", fillcolor="#e5813966"] ;
98 -> 99 ;
100 [label="gini = 0.0\nsamples = 5\nvalue = [10, 0]\nclass = l", fillcolor="#e58139ff"] ;
98 -> 100 ;
101 [label="gini = 0.14\nsamples = 7\nvalue = [12, 1]\nclass = l", fillcolor="#e58139ea"] ;
93 -> 101 ;
102 [label="cred_hist_desc_Medium Risk <= 0.5\ngini = 0.48\nsamples = 685\nvalue = [645, 453]\nclass = l", fillcolor="#e581394c"] ;
12 -> 102 ;
103 [label="asset_to_loan_pct <= 1.71\ngini = 0.49\nsamples = 526\nvalue = [478, 359]\nclass = l", fillcolor="#e581393f"] ;
102 -> 103 ;
104 [label="NEW.ACCTS.IN.LAST.SIX.MONTHS <= 5.5\ngini = 0.49\nsamples = 503\nvalue = [465, 329]\nclass = l", fillcolor="#e581394b"] ;
103 -> 104 ;
105 [label="PRI.CURRENT.BALANCE <= 201524.0\ngini = 0.49\nsamples = 486\nvalue = [438, 326]\nclass = l", fillcolor="#e5813941"] ;
104 -> 105 ;
106 [label="disbursed_amount <= 52753.0\ngini = 0.44\nsamples = 155\nvalue = [156, 76]\nclass = l", fillcolor="#e5813983"] ;
105 -> 106 ;
107 [label="PRI.SANCTIONED.AMOUNT <= 201306.0\ngini = 0.48\nsamples = 118\nvalue = [102, 65]\nclass = l", fillcolor="#e581395d"] ;
106 -> 107 ;
108 [label="asset_cost <= 67579.5\ngini = 0.5\nsamples = 78\nvalue = [56, 54]\nclass = l", fillcolor="#e5813909"] ;
107 -> 108 ;
109 [label="disbursed_amount <= 45369.0\ngini = 0.47\nsamples = 43\nvalue = [24, 40]\nclass = o", fillcolor="#399de566"] ;
108 -> 109 ;
110 [label="gini = 0.2\nsamples = 6\nvalue = [8, 1]\nclass = l", fillcolor="#e58139df"] ;
109 -> 110 ;
111 [label="avg_acct_age_mnth <= 1.5\ngini = 0.41\nsamples = 37\nvalue = [16, 39]\nclass = o", fillcolor="#399de596"] ;
109 -> 111 ;
112 [label="gini = 0.49\nsamples = 7\nvalue = [5, 4]\nclass = l", fillcolor="#e5813933"] ;
111 -> 112 ;
113 [label="Age_when_applying <= 33.85\ngini = 0.36\nsamples = 30\nvalue = [11, 35]\nclass = o", fillcolor="#399de5af"] ;
111 -> 113 ;
114 [label="PRI.DISBURSED.AMOUNT <= 165242.0\ngini = 0.49\nsamples = 15\nvalue = [10, 14]\nclass = o", fillcolor="#399de549"] ;
113 -> 114 ;
115 [label="PRI.DISBURSED.AMOUNT <= 137000.0\ngini = 0.48\nsamples = 10\nvalue = [9, 6]\nclass = l", fillcolor="#e5813955"] ;
114 -> 115 ;
116 [label="gini = 0.44\nsamples = 5\nvalue = [2, 4]\nclass = o", fillcolor="#399de57f"] ;
115 -> 116 ;
117 [label="gini = 0.35\nsamples = 5\nvalue = [7, 2]\nclass = l", fillcolor="#e58139b6"] ;
115 -> 117 ;
118 [label="gini = 0.2\nsamples = 5\nvalue = [1, 8]\nclass = o", fillcolor="#399de5df"] ;
114 -> 118 ;
119 [label="instalment_health <= 9715.77\ngini = 0.09\nsamples = 15\nvalue = [1, 21]\nclass = o", fillcolor="#399de5f3"] ;
113 -> 119 ;
120 [label="gini = 0.0\nsamples = 10\nvalue = [0, 14]\nclass = o", fillcolor="#399de5ff"] ;
119 -> 120 ;
121 [label="gini = 0.22\nsamples = 5\nvalue = [1, 7]\nclass = o", fillcolor="#399de5db"] ;
119 -> 121 ;
122 [label="Age_when_applying <= 34.49\ngini = 0.42\nsamples = 35\nvalue = [32, 14]\nclass = l", fillcolor="#e581398f"] ;
108 -> 122 ;
123 [label="instalment_health <= 8363.39\ngini = 0.5\nsamples = 17\nvalue = [9, 10]\nclass = o", fillcolor="#399de519"] ;
122 -> 123 ;
124 [label="ltv <= 68.41\ngini = 0.32\nsamples = 10\nvalue = [8, 2]\nclass = l", fillcolor="#e58139bf"] ;
123 -> 124 ;
125 [label="gini = 0.0\nsamples = 5\nvalue = [5, 0]\nclass = l", fillcolor="#e58139ff"] ;
124 -> 125 ;
126 [label="gini = 0.48\nsamples = 5\nvalue = [3, 2]\nclass = l", fillcolor="#e5813955"] ;
124 -> 126 ;
127 [label="gini = 0.2\nsamples = 7\nvalue = [1, 8]\nclass = o", fillcolor="#399de5df"] ;
123 -> 127 ;
128 [label="avg_credit_hist_mnth <= 12.5\ngini = 0.25\nsamples = 18\nvalue = [23, 4]\nclass = l", fillcolor="#e58139d3"] ;
122 -> 128 ;
129 [label="gini = 0.41\nsamples = 9\nvalue = [10, 4]\nclass = l", fillcolor="#e5813999"] ;
128 -> 129 ;
130 [label="gini = 0.0\nsamples = 9\nvalue = [13, 0]\nclass = l", fillcolor="#e58139ff"] ;
128 -> 130 ;
131 [label="ltv <= 81.0\ngini = 0.31\nsamples = 40\nvalue = [46, 11]\nclass = l", fillcolor="#e58139c2"] ;
107 -> 131 ;
132 [label="curr_outstd_ratio <= 0.23\ngini = 0.4\nsamples = 28\nvalue = [28, 11]\nclass = l", fillcolor="#e581399b"] ;
131 -> 132 ;
133 [label="PRI.CURRENT.BALANCE <= 186414.5\ngini = 0.28\nsamples = 16\nvalue = [20, 4]\nclass = l", fillcolor="#e58139cc"] ;
132 -> 133 ;
134 [label="gini = 0.0\nsamples = 9\nvalue = [16, 0]\nclass = l", fillcolor="#e58139ff"] ;
133 -> 134 ;
135 [label="gini = 0.5\nsamples = 7\nvalue = [4, 4]\nclass = l", fillcolor="#e5813900"] ;
133 -> 135 ;
136 [label="PRI.SANCTIONED.AMOUNT <= 240960.0\ngini = 0.5\nsamples = 12\nvalue = [8, 7]\nclass = l", fillcolor="#e5813920"] ;
132 -> 136 ;
137 [label="gini = 0.41\nsamples = 5\nvalue = [2, 5]\nclass = o", fillcolor="#399de599"] ;
136 -> 137 ;
138 [label="gini = 0.38\nsamples = 7\nvalue = [6, 2]\nclass = l", fillcolor="#e58139aa"] ;
136 -> 138 ;
139 [label="gini = 0.0\nsamples = 12\nvalue = [18, 0]\nclass = l", fillcolor="#e58139ff"] ;
131 -> 139 ;
140 [label="inst_curr_disb_ratio <= 0.15\ngini = 0.28\nsamples = 37\nvalue = [54, 11]\nclass = l", fillcolor="#e58139cb"] ;
106 -> 140 ;
141 [label="gini = 0.0\nsamples = 13\nvalue = [24, 0]\nclass = l", fillcolor="#e58139ff"] ;
140 -> 141 ;
142 [label="avg_credit_hist_mnth <= 17.5\ngini = 0.39\nsamples = 24\nvalue = [30, 11]\nclass = l", fillcolor="#e58139a1"] ;
140 -> 142 ;
143 [label="PRI.SANCTIONED.AMOUNT <= 153425.5\ngini = 0.17\nsamples = 19\nvalue = [29, 3]\nclass = l", fillcolor="#e58139e5"] ;
142 -> 143 ;
144 [label="gini = 0.38\nsamples = 8\nvalue = [9, 3]\nclass = l", fillcolor="#e58139aa"] ;
143 -> 144 ;
145 [label="gini = 0.0\nsamples = 11\nvalue = [20, 0]\nclass = l", fillcolor="#e58139ff"] ;
143 -> 145 ;
146 [label="gini = 0.2\nsamples = 5\nvalue = [1, 8]\nclass = o", fillcolor="#399de5df"] ;
142 -> 146 ;
147 [label="avg_credit_hist_mnth <= 23.5\ngini = 0.5\nsamples = 331\nvalue = [282, 250]\nclass = l", fillcolor="#e581391d"] ;
105 -> 147 ;
148 [label="cred_hist_desc_Low Risk <= 0.5\ngini = 0.48\nsamples = 147\nvalue = [140, 93]\nclass = l", fillcolor="#e5813956"] ;
147 -> 148 ;
149 [label="Aadhar_flag <= 0.5\ngini = 0.5\nsamples = 58\nvalue = [43, 46]\nclass = o", fillcolor="#399de511"] ;
148 -> 149 ;
150 [label="gini = 0.0\nsamples = 5\nvalue = [0, 6]\nclass = o", fillcolor="#399de5ff"] ;
149 -> 150 ;
151 [label="disbursed_amount <= 49518.0\ngini = 0.5\nsamples = 53\nvalue = [43, 40]\nclass = l", fillcolor="#e5813912"] ;
149 -> 151 ;
152 [label="ltv <= 75.19\ngini = 0.33\nsamples = 22\nvalue = [7, 27]\nclass = o", fillcolor="#399de5bd"] ;
151 -> 152 ;
153 [label="gini = 0.5\nsamples = 9\nvalue = [6, 7]\nclass = o", fillcolor="#399de524"] ;
152 -> 153 ;
154 [label="curr_outstd_ratio <= 0.09\ngini = 0.09\nsamples = 13\nvalue = [1, 20]\nclass = o", fillcolor="#399de5f2"] ;
152 -> 154 ;
155 [label="gini = 0.0\nsamples = 8\nvalue = [0, 15]\nclass = o", fillcolor="#399de5ff"] ;
154 -> 155 ;
156 [label="gini = 0.28\nsamples = 5\nvalue = [1, 5]\nclass = o", fillcolor="#399de5cc"] ;
154 -> 156 ;
157 [label="PRI.DISBURSED.AMOUNT <= 869628.0\ngini = 0.39\nsamples = 31\nvalue = [36, 13]\nclass = l", fillcolor="#e58139a3"] ;
151 -> 157 ;
158 [label="PRI.SANCTIONED.AMOUNT <= 334000.0\ngini = 0.47\nsamples = 21\nvalue = [20, 12]\nclass = l", fillcolor="#e5813966"] ;
157 -> 158 ;
159 [label="gini = 0.26\nsamples = 9\nvalue = [11, 2]\nclass = l", fillcolor="#e58139d1"] ;
158 -> 159 ;
160 [label="asset_to_loan_pct <= 1.32\ngini = 0.5\nsamples = 12\nvalue = [9, 10]\nclass = o", fillcolor="#399de519"] ;
158 -> 160 ;
161 [label="gini = 0.47\nsamples = 6\nvalue = [3, 5]\nclass = o", fillcolor="#399de566"] ;
160 -> 161 ;
162 [label="gini = 0.5\nsamples = 6\nvalue = [6, 5]\nclass = l", fillcolor="#e581392a"] ;
160 -> 162 ;
163 [label="ltv <= 79.97\ngini = 0.11\nsamples = 10\nvalue = [16, 1]\nclass = l", fillcolor="#e58139ef"] ;
157 -> 163 ;
164 [label="gini = 0.24\nsamples = 5\nvalue = [6, 1]\nclass = l", fillcolor="#e58139d4"] ;
163 -> 164 ;
165 [label="gini = 0.0\nsamples = 5\nvalue = [10, 0]\nclass = l", fillcolor="#e58139ff"] ;
163 -> 165 ;
166 [label="instalment_health <= 63009.09\ngini = 0.44\nsamples = 89\nvalue = [97, 47]\nclass = l", fillcolor="#e5813983"] ;
148 -> 166 ;
167 [label="PRIMARY.INSTAL.AMT <= 1907.5\ngini = 0.37\nsamples = 56\nvalue = [72, 23]\nclass = l", fillcolor="#e58139ae"] ;
166 -> 167 ;
168 [label="Age_when_applying <= 36.19\ngini = 0.48\nsamples = 25\nvalue = [24, 16]\nclass = l", fillcolor="#e5813955"] ;
167 -> 168 ;
169 [label="instalment_health <= 32225.32\ngini = 0.29\nsamples = 14\nvalue = [19, 4]\nclass = l", fillcolor="#e58139c9"] ;
168 -> 169 ;
170 [label="gini = 0.5\nsamples = 5\nvalue = [4, 4]\nclass = l", fillcolor="#e5813900"] ;
169 -> 170 ;
171 [label="gini = 0.0\nsamples = 9\nvalue = [15, 0]\nclass = l", fillcolor="#e58139ff"] ;
169 -> 171 ;
172 [label="PRI.DISBURSED.AMOUNT <= 425894.5\ngini = 0.42\nsamples = 11\nvalue = [5, 12]\nclass = o", fillcolor="#399de595"] ;
168 -> 172 ;
173 [label="gini = 0.35\nsamples = 6\nvalue = [2, 7]\nclass = o", fillcolor="#399de5b6"] ;
172 -> 173 ;
174 [label="gini = 0.47\nsamples = 5\nvalue = [3, 5]\nclass = o", fillcolor="#399de566"] ;
172 -> 174 ;
175 [label="PRI.ACTIVE.ACCTS <= 1.5\ngini = 0.22\nsamples = 31\nvalue = [48, 7]\nclass = l", fillcolor="#e58139da"] ;
167 -> 175 ;
176 [label="avg_credit_hist_mnth <= 12.5\ngini = 0.43\nsamples = 12\nvalue = [11, 5]\nclass = l", fillcolor="#e581398b"] ;
175 -> 176 ;
177 [label="gini = 0.0\nsamples = 6\nvalue = [7, 0]\nclass = l", fillcolor="#e58139ff"] ;
176 -> 177 ;
178 [label="gini = 0.49\nsamples = 6\nvalue = [4, 5]\nclass = o", fillcolor="#399de533"] ;
176 -> 178 ;
179 [label="PRI.NO.OF.ACCTS <= 8.5\ngini = 0.1\nsamples = 19\nvalue = [37, 2]\nclass = l", fillcolor="#e58139f1"] ;
175 -> 179 ;
180 [label="gini = 0.0\nsamples = 14\nvalue = [29, 0]\nclass = l", fillcolor="#e58139ff"] ;
179 -> 180 ;
181 [label="gini = 0.32\nsamples = 5\nvalue = [8, 2]\nclass = l", fillcolor="#e58139bf"] ;
179 -> 181 ;
182 [label="inst_curr_disb_ratio <= 2.94\ngini = 0.5\nsamples = 33\nvalue = [25, 24]\nclass = l", fillcolor="#e581390a"] ;
166 -> 182 ;
183 [label="Employment.Type_Self employed <= 0.5\ngini = 0.48\nsamples = 24\nvalue = [14, 21]\nclass = o", fillcolor="#399de555"] ;
182 -> 183 ;
184 [label="gini = 0.35\nsamples = 7\nvalue = [7, 2]\nclass = l", fillcolor="#e58139b6"] ;
183 -> 184 ;
185 [label="PRI.DISBURSED.AMOUNT <= 1126295.0\ngini = 0.39\nsamples = 17\nvalue = [7, 19]\nclass = o", fillcolor="#399de5a1"] ;
183 -> 185 ;
186 [label="gini = 0.14\nsamples = 8\nvalue = [1, 12]\nclass = o", fillcolor="#399de5ea"] ;
185 -> 186 ;
187 [label="gini = 0.5\nsamples = 9\nvalue = [6, 7]\nclass = o", fillcolor="#399de524"] ;
185 -> 187 ;
188 [label="gini = 0.34\nsamples = 9\nvalue = [11, 3]\nclass = l", fillcolor="#e58139b9"] ;
182 -> 188 ;
189 [label="Age_when_applying <= 46.3\ngini = 0.5\nsamples = 184\nvalue = [142, 157]\nclass = o", fillcolor="#399de518"] ;
147 -> 189 ;
190 [label="cred_hist_desc_High Risk <= 0.5\ngini = 0.49\nsamples = 140\nvalue = [96, 135]\nclass = o", fillcolor="#399de54a"] ;
189 -> 190 ;
191 [label="asset_cost <= 59527.5\ngini = 0.5\nsamples = 121\nvalue = [91, 107]\nclass = o", fillcolor="#399de526"] ;
190 -> 191 ;
192 [label="gini = 0.0\nsamples = 8\nvalue = [0, 13]\nclass = o", fillcolor="#399de5ff"] ;
191 -> 192 ;
193 [label="PRIMARY.INSTAL.AMT <= 1124.5\ngini = 0.5\nsamples = 113\nvalue = [91, 94]\nclass = o", fillcolor="#399de508"] ;
191 -> 193 ;
194 [label="Employment.Type_Salaried <= 0.5\ngini = 0.44\nsamples = 36\nvalue = [40, 20]\nclass = l", fillcolor="#e581397f"] ;
193 -> 194 ;
195 [label="avg_acct_age_mnth <= 27.0\ngini = 0.38\nsamples = 26\nvalue = [33, 11]\nclass = l", fillcolor="#e58139aa"] ;
194 -> 195 ;
196 [label="age_outstd_ratio <= 0.0\ngini = 0.16\nsamples = 21\nvalue = [32, 3]\nclass = l", fillcolor="#e58139e7"] ;
195 -> 196 ;
197 [label="disbursed_amount <= 48299.0\ngini = 0.07\nsamples = 16\nvalue = [28, 1]\nclass = l", fillcolor="#e58139f6"] ;
196 -> 197 ;
198 [label="gini = 0.2\nsamples = 5\nvalue = [8, 1]\nclass = l", fillcolor="#e58139df"] ;
197 -> 198 ;
199 [label="gini = 0.0\nsamples = 11\nvalue = [20, 0]\nclass = l", fillcolor="#e58139ff"] ;
197 -> 199 ;
200 [label="gini = 0.44\nsamples = 5\nvalue = [4, 2]\nclass = l", fillcolor="#e581397f"] ;
196 -> 200 ;
201 [label="gini = 0.2\nsamples = 5\nvalue = [1, 8]\nclass = o", fillcolor="#399de5df"] ;
195 -> 201 ;
202 [label="asset_to_loan_pct <= 1.4\ngini = 0.49\nsamples = 10\nvalue = [7, 9]\nclass = o", fillcolor="#399de539"] ;
194 -> 202 ;
203 [label="gini = 0.42\nsamples = 5\nvalue = [3, 7]\nclass = o", fillcolor="#399de592"] ;
202 -> 203 ;
204 [label="gini = 0.44\nsamples = 5\nvalue = [4, 2]\nclass = l", fillcolor="#e581397f"] ;
202 -> 204 ;
205 [label="PRIMARY.INSTAL.AMT <= 3876.5\ngini = 0.48\nsamples = 77\nvalue = [51, 74]\nclass = o", fillcolor="#399de54f"] ;
193 -> 205 ;
206 [label="gini = 0.0\nsamples = 6\nvalue = [0, 9]\nclass = o", fillcolor="#399de5ff"] ;
205 -> 206 ;
207 [label="PRI.ACTIVE.ACCTS <= 7.5\ngini = 0.49\nsamples = 71\nvalue = [51, 65]\nclass = o", fillcolor="#399de537"] ;
205 -> 207 ;
208 [label="PRI.SANCTIONED.AMOUNT <= 895819.0\ngini = 0.5\nsamples = 61\nvalue = [42, 50]\nclass = o", fillcolor="#399de529"] ;
207 -> 208 ;
209 [label="avg_acct_age_mnth <= 19.5\ngini = 0.5\nsamples = 38\nvalue = [30, 25]\nclass = l", fillcolor="#e581392a"] ;
208 -> 209 ;
210 [label="avg_acct_age_mnth <= 13.5\ngini = 0.49\nsamples = 24\nvalue = [14, 19]\nclass = o", fillcolor="#399de543"] ;
209 -> 210 ;
211 [label="gini = 0.22\nsamples = 8\nvalue = [7, 1]\nclass = l", fillcolor="#e58139db"] ;
210 -> 211 ;
212 [label="curr_outstd_ratio <= 0.17\ngini = 0.4\nsamples = 16\nvalue = [7, 18]\nclass = o", fillcolor="#399de59c"] ;
210 -> 212 ;
213 [label="PRI.DISBURSED.AMOUNT <= 571525.0\ngini = 0.29\nsamples = 11\nvalue = [3, 14]\nclass = o", fillcolor="#399de5c8"] ;
212 -> 213 ;
214 [label="gini = 0.0\nsamples = 6\nvalue = [0, 11]\nclass = o", fillcolor="#399de5ff"] ;
213 -> 214 ;
215 [label="gini = 0.5\nsamples = 5\nvalue = [3, 3]\nclass = l", fillcolor="#e5813900"] ;
213 -> 215 ;
216 [label="gini = 0.5\nsamples = 5\nvalue = [4, 4]\nclass = l", fillcolor="#e5813900"] ;
212 -> 216 ;
217 [label="Age_when_applying <= 39.12\ngini = 0.4\nsamples = 14\nvalue = [16, 6]\nclass = l", fillcolor="#e581399f"] ;
209 -> 217 ;
218 [label="gini = 0.22\nsamples = 9\nvalue = [14, 2]\nclass = l", fillcolor="#e58139db"] ;
217 -> 218 ;
219 [label="gini = 0.44\nsamples = 5\nvalue = [2, 4]\nclass = o", fillcolor="#399de57f"] ;
217 -> 219 ;
220 [label="Age_when_applying <= 33.02\ngini = 0.44\nsamples = 23\nvalue = [12, 25]\nclass = o", fillcolor="#399de585"] ;
208 -> 220 ;
221 [label="gini = 0.5\nsamples = 8\nvalue = [6, 6]\nclass = l", fillcolor="#e5813900"] ;
220 -> 221 ;
222 [label="PRI.NO.OF.ACCTS <= 5.5\ngini = 0.36\nsamples = 15\nvalue = [6, 19]\nclass = o", fillcolor="#399de5ae"] ;
220 -> 222 ;
223 [label="gini = 0.0\nsamples = 7\nvalue = [0, 11]\nclass = o", fillcolor="#399de5ff"] ;
222 -> 223 ;
224 [label="gini = 0.49\nsamples = 8\nvalue = [6, 8]\nclass = o", fillcolor="#399de540"] ;
222 -> 224 ;
225 [label="ltv <= 77.18\ngini = 0.47\nsamples = 10\nvalue = [9, 15]\nclass = o", fillcolor="#399de566"] ;
207 -> 225 ;
226 [label="gini = 0.21\nsamples = 5\nvalue = [2, 15]\nclass = o", fillcolor="#399de5dd"] ;
225 -> 226 ;
227 [label="gini = 0.0\nsamples = 5\nvalue = [7, 0]\nclass = l", fillcolor="#e58139ff"] ;
225 -> 227 ;
228 [label="avg_credit_hist_mnth <= 39.0\ngini = 0.26\nsamples = 19\nvalue = [5, 28]\nclass = o", fillcolor="#399de5d1"] ;
190 -> 228 ;
229 [label="PRI.SANCTIONED.AMOUNT <= 675095.5\ngini = 0.09\nsamples = 11\nvalue = [1, 20]\nclass = o", fillcolor="#399de5f2"] ;
228 -> 229 ;
230 [label="gini = 0.2\nsamples = 5\nvalue = [1, 8]\nclass = o", fillcolor="#399de5df"] ;
229 -> 230 ;
231 [label="gini = 0.0\nsamples = 6\nvalue = [0, 12]\nclass = o", fillcolor="#399de5ff"] ;
229 -> 231 ;
232 [label="gini = 0.44\nsamples = 8\nvalue = [4, 8]\nclass = o", fillcolor="#399de57f"] ;
228 -> 232 ;
233 [label="curr_outstd_ratio <= 0.14\ngini = 0.44\nsamples = 44\nvalue = [46, 22]\nclass = l", fillcolor="#e5813985"] ;
189 -> 233 ;
234 [label="age_outstd_ratio <= 0.0\ngini = 0.36\nsamples = 34\nvalue = [42, 13]\nclass = l", fillcolor="#e58139b0"] ;
233 -> 234 ;
235 [label="gini = 0.5\nsamples = 6\nvalue = [5, 6]\nclass = o", fillcolor="#399de52a"] ;
234 -> 235 ;
236 [label="ltv <= 86.99\ngini = 0.27\nsamples = 28\nvalue = [37, 7]\nclass = l", fillcolor="#e58139cf"] ;
234 -> 236 ;
237 [label="avg_acct_age_mnth <= 14.5\ngini = 0.11\nsamples = 23\nvalue = [32, 2]\nclass = l", fillcolor="#e58139ef"] ;
236 -> 237 ;
238 [label="gini = 0.28\nsamples = 5\nvalue = [5, 1]\nclass = l", fillcolor="#e58139cc"] ;
237 -> 238 ;
239 [label="total_outstanding <= 636580.0\ngini = 0.07\nsamples = 18\nvalue = [27, 1]\nclass = l", fillcolor="#e58139f6"] ;
237 -> 239 ;
240 [label="gini = 0.0\nsamples = 13\nvalue = [22, 0]\nclass = l", fillcolor="#e58139ff"] ;
239 -> 240 ;
241 [label="gini = 0.28\nsamples = 5\nvalue = [5, 1]\nclass = l", fillcolor="#e58139cc"] ;
239 -> 241 ;
242 [label="gini = 0.5\nsamples = 5\nvalue = [5, 5]\nclass = l", fillcolor="#e5813900"] ;
236 -> 242 ;
243 [label="disbursed_amount <= 50853.0\ngini = 0.43\nsamples = 10\nvalue = [4, 9]\nclass = o", fillcolor="#399de58e"] ;
233 -> 243 ;
244 [label="gini = 0.49\nsamples = 5\nvalue = [3, 4]\nclass = o", fillcolor="#399de540"] ;
243 -> 244 ;
245 [label="gini = 0.28\nsamples = 5\nvalue = [1, 5]\nclass = o", fillcolor="#399de5cc"] ;
243 -> 245 ;
246 [label="instalment_health <= 31408.68\ngini = 0.18\nsamples = 17\nvalue = [27, 3]\nclass = l", fillcolor="#e58139e3"] ;
104 -> 246 ;
247 [label="gini = 0.0\nsamples = 12\nvalue = [23, 0]\nclass = l", fillcolor="#e58139ff"] ;
246 -> 247 ;
248 [label="gini = 0.49\nsamples = 5\nvalue = [4, 3]\nclass = l", fillcolor="#e5813940"] ;
246 -> 248 ;
249 [label="PRI.CURRENT.BALANCE <= 402130.0\ngini = 0.42\nsamples = 23\nvalue = [13, 30]\nclass = o", fillcolor="#399de591"] ;
103 -> 249 ;
250 [label="ltv <= 54.33\ngini = 0.32\nsamples = 16\nvalue = [6, 24]\nclass = o", fillcolor="#399de5bf"] ;
249 -> 250 ;
251 [label="gini = 0.0\nsamples = 9\nvalue = [0, 19]\nclass = o", fillcolor="#399de5ff"] ;
250 -> 251 ;
252 [label="gini = 0.5\nsamples = 7\nvalue = [6, 5]\nclass = l", fillcolor="#e581392a"] ;
250 -> 252 ;
253 [label="gini = 0.5\nsamples = 7\nvalue = [7, 6]\nclass = l", fillcolor="#e5813924"] ;
249 -> 253 ;
254 [label="avg_credit_hist_mnth <= 6.5\ngini = 0.46\nsamples = 159\nvalue = [167, 94]\nclass = l", fillcolor="#e581396f"] ;
102 -> 254 ;
255 [label="avg_acct_age_mnth <= 3.5\ngini = 0.31\nsamples = 13\nvalue = [4, 17]\nclass = o", fillcolor="#399de5c3"] ;
254 -> 255 ;
256 [label="gini = 0.0\nsamples = 8\nvalue = [0, 14]\nclass = o", fillcolor="#399de5ff"] ;
255 -> 256 ;
257 [label="gini = 0.49\nsamples = 5\nvalue = [4, 3]\nclass = l", fillcolor="#e5813940"] ;
255 -> 257 ;
258 [label="ltv <= 88.82\ngini = 0.44\nsamples = 146\nvalue = [163, 77]\nclass = l", fillcolor="#e5813987"] ;
254 -> 258 ;
259 [label="asset_cost <= 68523.5\ngini = 0.42\nsamples = 139\nvalue = [159, 67]\nclass = l", fillcolor="#e5813994"] ;
258 -> 259 ;
260 [label="PRI.DISBURSED.AMOUNT <= 293803.5\ngini = 0.33\nsamples = 81\nvalue = [104, 28]\nclass = l", fillcolor="#e58139ba"] ;
259 -> 260 ;
261 [label="PRI.DISBURSED.AMOUNT <= 170315.0\ngini = 0.5\nsamples = 21\nvalue = [16, 17]\nclass = o", fillcolor="#399de50f"] ;
260 -> 261 ;
262 [label="gini = 0.18\nsamples = 7\nvalue = [9, 1]\nclass = l", fillcolor="#e58139e3"] ;
261 -> 262 ;
263 [label="PRI.DISBURSED.AMOUNT <= 202000.0\ngini = 0.42\nsamples = 14\nvalue = [7, 16]\nclass = o", fillcolor="#399de58f"] ;
261 -> 263 ;
264 [label="gini = 0.18\nsamples = 7\nvalue = [1, 9]\nclass = o", fillcolor="#399de5e3"] ;
263 -> 264 ;
265 [label="gini = 0.5\nsamples = 7\nvalue = [6, 7]\nclass = o", fillcolor="#399de524"] ;
263 -> 265 ;
266 [label="total_outstanding <= 322283.5\ngini = 0.2\nsamples = 60\nvalue = [88, 11]\nclass = l", fillcolor="#e58139df"] ;
260 -> 266 ;
267 [label="gini = 0.39\nsamples = 8\nvalue = [11, 4]\nclass = l", fillcolor="#e58139a2"] ;
266 -> 267 ;
268 [label="avg_credit_hist_mnth <= 50.0\ngini = 0.15\nsamples = 52\nvalue = [77, 7]\nclass = l", fillcolor="#e58139e8"] ;
266 -> 268 ;
269 [label="PRI.CURRENT.BALANCE <= 587349.5\ngini = 0.06\nsamples = 38\nvalue = [63, 2]\nclass = l", fillcolor="#e58139f7"] ;
268 -> 269 ;
270 [label="gini = 0.0\nsamples = 18\nvalue = [39, 0]\nclass = l", fillcolor="#e58139ff"] ;
269 -> 270 ;
271 [label="Age_when_applying <= 41.3\ngini = 0.14\nsamples = 20\nvalue = [24, 2]\nclass = l", fillcolor="#e58139ea"] ;
269 -> 271 ;
272 [label="gini = 0.0\nsamples = 11\nvalue = [16, 0]\nclass = l", fillcolor="#e58139ff"] ;
271 -> 272 ;
273 [label="gini = 0.32\nsamples = 9\nvalue = [8, 2]\nclass = l", fillcolor="#e58139bf"] ;
271 -> 273 ;
274 [label="PRI.ACTIVE.ACCTS <= 3.0\ngini = 0.39\nsamples = 14\nvalue = [14, 5]\nclass = l", fillcolor="#e58139a4"] ;
268 -> 274 ;
275 [label="gini = 0.3\nsamples = 7\nvalue = [9, 2]\nclass = l", fillcolor="#e58139c6"] ;
274 -> 275 ;
276 [label="gini = 0.47\nsamples = 7\nvalue = [5, 3]\nclass = l", fillcolor="#e5813966"] ;
274 -> 276 ;
277 [label="total_outstanding <= 181269.5\ngini = 0.49\nsamples = 58\nvalue = [55, 39]\nclass = l", fillcolor="#e581394a"] ;
259 -> 277 ;
278 [label="gini = 0.28\nsamples = 5\nvalue = [1, 5]\nclass = o", fillcolor="#399de5cc"] ;
277 -> 278 ;
279 [label="age_outstd_ratio <= 0.0\ngini = 0.47\nsamples = 53\nvalue = [54, 34]\nclass = l", fillcolor="#e581395e"] ;
277 -> 279 ;
280 [label="gini = 0.2\nsamples = 6\nvalue = [1, 8]\nclass = o", fillcolor="#399de5df"] ;
279 -> 280 ;
281 [label="asset_to_loan_pct <= 1.58\ngini = 0.44\nsamples = 47\nvalue = [53, 26]\nclass = l", fillcolor="#e5813982"] ;
279 -> 281 ;
282 [label="PERFORM_CNS.SCORE <= 585.5\ngini = 0.49\nsamples = 34\nvalue = [30, 24]\nclass = l", fillcolor="#e5813933"] ;
281 -> 282 ;
283 [label="gini = 0.2\nsamples = 6\nvalue = [1, 8]\nclass = o", fillcolor="#399de5df"] ;
282 -> 283 ;
284 [label="avg_credit_hist_mnth <= 18.5\ngini = 0.46\nsamples = 28\nvalue = [29, 16]\nclass = l", fillcolor="#e5813972"] ;
282 -> 284 ;
285 [label="gini = 0.46\nsamples = 8\nvalue = [5, 9]\nclass = o", fillcolor="#399de571"] ;
284 -> 285 ;
286 [label="avg_acct_age_mnth <= 22.0\ngini = 0.35\nsamples = 20\nvalue = [24, 7]\nclass = l", fillcolor="#e58139b5"] ;
284 -> 286 ;
287 [label="gini = 0.12\nsamples = 9\nvalue = [15, 1]\nclass = l", fillcolor="#e58139ee"] ;
286 -> 287 ;
288 [label="avg_credit_hist_mnth <= 49.0\ngini = 0.48\nsamples = 11\nvalue = [9, 6]\nclass = l", fillcolor="#e5813955"] ;
286 -> 288 ;
289 [label="gini = 0.41\nsamples = 6\nvalue = [2, 5]\nclass = o", fillcolor="#399de599"] ;
288 -> 289 ;
290 [label="gini = 0.22\nsamples = 5\nvalue = [7, 1]\nclass = l", fillcolor="#e58139db"] ;
288 -> 290 ;
291 [label="PRI.DISBURSED.AMOUNT <= 590000.0\ngini = 0.15\nsamples = 13\nvalue = [23, 2]\nclass = l", fillcolor="#e58139e9"] ;
281 -> 291 ;
292 [label="gini = 0.0\nsamples = 8\nvalue = [16, 0]\nclass = l", fillcolor="#e58139ff"] ;
291 -> 292 ;
293 [label="gini = 0.35\nsamples = 5\nvalue = [7, 2]\nclass = l", fillcolor="#e58139b6"] ;
291 -> 293 ;
294 [label="gini = 0.41\nsamples = 7\nvalue = [4, 10]\nclass = o", fillcolor="#399de599"] ;
258 -> 294 ;
295 [label="curr_outstd_ratio <= 0.31\ngini = 0.5\nsamples = 733\nvalue = [593, 556]\nclass = l", fillcolor="#e5813910"] ;
5 -> 295 ;
296 [label="age_outstd_ratio <= 0.0\ngini = 0.5\nsamples = 722\nvalue = [572, 555]\nclass = l", fillcolor="#e5813908"] ;
295 -> 296 ;
297 [label="PRI.ACTIVE.ACCTS <= 3.5\ngini = 0.44\nsamples = 93\nvalue = [94, 47]\nclass = l", fillcolor="#e581397f"] ;
296 -> 297 ;
298 [label="PRI.CURRENT.BALANCE <= 3017205.5\ngini = 0.49\nsamples = 44\nvalue = [38, 30]\nclass = l", fillcolor="#e5813936"] ;
297 -> 298 ;
299 [label="avg_acct_age_mnth <= 25.0\ngini = 0.46\nsamples = 39\nvalue = [37, 20]\nclass = l", fillcolor="#e5813975"] ;
298 -> 299 ;
300 [label="total_outstanding <= 1688610.5\ngini = 0.48\nsamples = 33\nvalue = [29, 20]\nclass = l", fillcolor="#e581394f"] ;
299 -> 300 ;
301 [label="PERFORM_CNS.SCORE <= 652.0\ngini = 0.3\nsamples = 14\nvalue = [18, 4]\nclass = l", fillcolor="#e58139c6"] ;
300 -> 301 ;
302 [label="gini = 0.12\nsamples = 9\nvalue = [14, 1]\nclass = l", fillcolor="#e58139ed"] ;
301 -> 302 ;
303 [label="gini = 0.49\nsamples = 5\nvalue = [4, 3]\nclass = l", fillcolor="#e5813940"] ;
301 -> 303 ;
304 [label="NEW.ACCTS.IN.LAST.SIX.MONTHS <= 0.5\ngini = 0.48\nsamples = 19\nvalue = [11, 16]\nclass = o", fillcolor="#399de550"] ;
300 -> 304 ;
305 [label="gini = 0.47\nsamples = 8\nvalue = [8, 5]\nclass = l", fillcolor="#e5813960"] ;
304 -> 305 ;
306 [label="asset_to_loan_pct <= 1.44\ngini = 0.34\nsamples = 11\nvalue = [3, 11]\nclass = o", fillcolor="#399de5b9"] ;
304 -> 306 ;
307 [label="gini = 0.49\nsamples = 6\nvalue = [3, 4]\nclass = o", fillcolor="#399de540"] ;
306 -> 307 ;
308 [label="gini = 0.0\nsamples = 5\nvalue = [0, 7]\nclass = o", fillcolor="#399de5ff"] ;
306 -> 308 ;
309 [label="gini = 0.0\nsamples = 6\nvalue = [8, 0]\nclass = l", fillcolor="#e58139ff"] ;
299 -> 309 ;
310 [label="gini = 0.17\nsamples = 5\nvalue = [1, 10]\nclass = o", fillcolor="#399de5e6"] ;
298 -> 310 ;
311 [label="PRI.DISBURSED.AMOUNT <= 3516050.5\ngini = 0.36\nsamples = 49\nvalue = [56, 17]\nclass = l", fillcolor="#e58139b2"] ;
297 -> 311 ;
312 [label="Age_when_applying <= 26.69\ngini = 0.26\nsamples = 29\nvalue = [39, 7]\nclass = l", fillcolor="#e58139d1"] ;
311 -> 312 ;
313 [label="PRI.NO.OF.ACCTS <= 7.5\ngini = 0.46\nsamples = 10\nvalue = [9, 5]\nclass = l", fillcolor="#e5813971"] ;
312 -> 313 ;
314 [label="gini = 0.49\nsamples = 5\nvalue = [5, 4]\nclass = l", fillcolor="#e5813933"] ;
313 -> 314 ;
315 [label="gini = 0.32\nsamples = 5\nvalue = [4, 1]\nclass = l", fillcolor="#e58139bf"] ;
313 -> 315 ;
316 [label="NEW.ACCTS.IN.LAST.SIX.MONTHS <= 2.5\ngini = 0.12\nsamples = 19\nvalue = [30, 2]\nclass = l", fillcolor="#e58139ee"] ;
312 -> 316 ;
317 [label="gini = 0.23\nsamples = 9\nvalue = [13, 2]\nclass = l", fillcolor="#e58139d8"] ;
316 -> 317 ;
318 [label="gini = 0.0\nsamples = 10\nvalue = [17, 0]\nclass = l", fillcolor="#e58139ff"] ;
316 -> 318 ;
319 [label="Age_when_applying <= 26.39\ngini = 0.47\nsamples = 20\nvalue = [17, 10]\nclass = l", fillcolor="#e5813969"] ;
311 -> 319 ;
320 [label="gini = 0.35\nsamples = 5\nvalue = [2, 7]\nclass = o", fillcolor="#399de5b6"] ;
319 -> 320 ;
321 [label="age_outstd_ratio <= 0.0\ngini = 0.28\nsamples = 15\nvalue = [15, 3]\nclass = l", fillcolor="#e58139cc"] ;
319 -> 321 ;
322 [label="gini = 0.0\nsamples = 9\nvalue = [10, 0]\nclass = l", fillcolor="#e58139ff"] ;
321 -> 322 ;
323 [label="gini = 0.47\nsamples = 6\nvalue = [5, 3]\nclass = l", fillcolor="#e5813966"] ;
321 -> 323 ;
324 [label="cred_hist_desc_Low Risk <= 0.5\ngini = 0.5\nsamples = 629\nvalue = [478, 508]\nclass = o", fillcolor="#399de50f"] ;
296 -> 324 ;
325 [label="asset_to_loan_pct <= 1.4\ngini = 0.48\nsamples = 300\nvalue = [190, 275]\nclass = o", fillcolor="#399de54f"] ;
324 -> 325 ;
326 [label="Age_when_applying <= 23.94\ngini = 0.49\nsamples = 233\nvalue = [162, 201]\nclass = o", fillcolor="#399de531"] ;
325 -> 326 ;
327 [label="age_outstd_ratio <= 0.0\ngini = 0.29\nsamples = 22\nvalue = [28, 6]\nclass = l", fillcolor="#e58139c8"] ;
326 -> 327 ;
328 [label="gini = 0.47\nsamples = 7\nvalue = [8, 5]\nclass = l", fillcolor="#e5813960"] ;
327 -> 328 ;
329 [label="asset_to_loan_pct <= 1.21\ngini = 0.09\nsamples = 15\nvalue = [20, 1]\nclass = l", fillcolor="#e58139f2"] ;
327 -> 329 ;
330 [label="gini = 0.28\nsamples = 5\nvalue = [5, 1]\nclass = l", fillcolor="#e58139cc"] ;
329 -> 330 ;
331 [label="gini = 0.0\nsamples = 10\nvalue = [15, 0]\nclass = l", fillcolor="#e58139ff"] ;
329 -> 331 ;
332 [label="total_outstanding <= 199720.5\ngini = 0.48\nsamples = 211\nvalue = [134, 195]\nclass = o", fillcolor="#399de550"] ;
326 -> 332 ;
333 [label="gini = 0.0\nsamples = 5\nvalue = [7, 0]\nclass = l", fillcolor="#e58139ff"] ;
332 -> 333 ;
334 [label="PRI.NO.OF.ACCTS <= 14.5\ngini = 0.48\nsamples = 206\nvalue = [127, 195]\nclass = o", fillcolor="#399de559"] ;
332 -> 334 ;
335 [label="asset_to_loan_pct <= 1.39\ngini = 0.46\nsamples = 189\nvalue = [109, 189]\nclass = o", fillcolor="#399de56c"] ;
334 -> 335 ;
336 [label="total_outstanding <= 268514.5\ngini = 0.45\nsamples = 182\nvalue = [100, 188]\nclass = o", fillcolor="#399de577"] ;
335 -> 336 ;
337 [label="asset_cost <= 78375.0\ngini = 0.31\nsamples = 36\nvalue = [11, 47]\nclass = o", fillcolor="#399de5c3"] ;
336 -> 337 ;
338 [label="PERFORM_CNS.SCORE <= 620.0\ngini = 0.22\nsamples = 28\nvalue = [6, 41]\nclass = o", fillcolor="#399de5da"] ;
337 -> 338 ;
339 [label="PRI.ACTIVE.ACCTS <= 1.5\ngini = 0.18\nsamples = 23\nvalue = [4, 37]\nclass = o", fillcolor="#399de5e3"] ;
338 -> 339 ;
340 [label="asset_cost <= 73353.0\ngini = 0.32\nsamples = 10\nvalue = [3, 12]\nclass = o", fillcolor="#399de5bf"] ;
339 -> 340 ;
341 [label="gini = 0.24\nsamples = 5\nvalue = [1, 6]\nclass = o", fillcolor="#399de5d4"] ;
340 -> 341 ;
342 [label="gini = 0.38\nsamples = 5\nvalue = [2, 6]\nclass = o", fillcolor="#399de5aa"] ;
340 -> 342 ;
343 [label="Employment.Type_Salaried <= 0.5\ngini = 0.07\nsamples = 13\nvalue = [1, 25]\nclass = o", fillcolor="#399de5f5"] ;
339 -> 343 ;
344 [label="gini = 0.0\nsamples = 8\nvalue = [0, 19]\nclass = o", fillcolor="#399de5ff"] ;
343 -> 344 ;
345 [label="gini = 0.24\nsamples = 5\nvalue = [1, 6]\nclass = o", fillcolor="#399de5d4"] ;
343 -> 345 ;
346 [label="gini = 0.44\nsamples = 5\nvalue = [2, 4]\nclass = o", fillcolor="#399de57f"] ;
338 -> 346 ;
347 [label="gini = 0.5\nsamples = 8\nvalue = [5, 6]\nclass = o", fillcolor="#399de52a"] ;
337 -> 347 ;
348 [label="curr_outstd_ratio <= 0.2\ngini = 0.47\nsamples = 146\nvalue = [89, 141]\nclass = o", fillcolor="#399de55e"] ;
336 -> 348 ;
349 [label="avg_credit_hist_mnth <= 31.0\ngini = 0.46\nsamples = 127\nvalue = [72, 132]\nclass = o", fillcolor="#399de574"] ;
348 -> 349 ;
350 [label="total_outstanding <= 329829.5\ngini = 0.5\nsamples = 80\nvalue = [56, 65]\nclass = o", fillcolor="#399de523"] ;
349 -> 350 ;
351 [label="gini = 0.2\nsamples = 5\nvalue = [8, 1]\nclass = l", fillcolor="#e58139df"] ;
350 -> 351 ;
352 [label="age_outstd_ratio <= 0.0\ngini = 0.49\nsamples = 75\nvalue = [48, 64]\nclass = o", fillcolor="#399de540"] ;
350 -> 352 ;
353 [label="asset_to_loan_pct <= 1.16\ngini = 0.5\nsamples = 70\nvalue = [48, 51]\nclass = o", fillcolor="#399de50f"] ;
352 -> 353 ;
354 [label="NO.OF_INQUIRIES <= 0.5\ngini = 0.13\nsamples = 10\nvalue = [1, 13]\nclass = o", fillcolor="#399de5eb"] ;
353 -> 354 ;
355 [label="gini = 0.28\nsamples = 5\nvalue = [1, 5]\nclass = o", fillcolor="#399de5cc"] ;
354 -> 355 ;
356 [label="gini = 0.0\nsamples = 5\nvalue = [0, 8]\nclass = o", fillcolor="#399de5ff"] ;
354 -> 356 ;
357 [label="total_outstanding <= 416112.5\ngini = 0.49\nsamples = 60\nvalue = [47, 38]\nclass = l", fillcolor="#e5813931"] ;
353 -> 357 ;
358 [label="gini = 0.0\nsamples = 6\nvalue = [7, 0]\nclass = l", fillcolor="#e58139ff"] ;
357 -> 358 ;
359 [label="PRI.DISBURSED.AMOUNT <= 505025.0\ngini = 0.5\nsamples = 54\nvalue = [40, 38]\nclass = l", fillcolor="#e581390d"] ;
357 -> 359 ;
360 [label="asset_cost <= 70643.5\ngini = 0.4\nsamples = 17\nvalue = [7, 18]\nclass = o", fillcolor="#399de59c"] ;
359 -> 360 ;
361 [label="gini = 0.44\nsamples = 5\nvalue = [6, 3]\nclass = l", fillcolor="#e581397f"] ;
360 -> 361 ;
362 [label="asset_cost <= 80071.5\ngini = 0.12\nsamples = 12\nvalue = [1, 15]\nclass = o", fillcolor="#399de5ee"] ;
360 -> 362 ;
363 [label="gini = 0.0\nsamples = 7\nvalue = [0, 11]\nclass = o", fillcolor="#399de5ff"] ;
362 -> 363 ;
364 [label="gini = 0.32\nsamples = 5\nvalue = [1, 4]\nclass = o", fillcolor="#399de5bf"] ;
362 -> 364 ;
365 [label="total_outstanding <= 646836.0\ngini = 0.47\nsamples = 37\nvalue = [33, 20]\nclass = l", fillcolor="#e5813964"] ;
359 -> 365 ;
366 [label="gini = 0.18\nsamples = 8\nvalue = [9, 1]\nclass = l", fillcolor="#e58139e3"] ;
365 -> 366 ;
367 [label="PRI.NO.OF.ACCTS <= 1.5\ngini = 0.49\nsamples = 29\nvalue = [24, 19]\nclass = l", fillcolor="#e5813935"] ;
365 -> 367 ;
368 [label="inst_curr_disb_ratio <= 1.1\ngini = 0.39\nsamples = 12\nvalue = [14, 5]\nclass = l", fillcolor="#e58139a4"] ;
367 -> 368 ;
369 [label="gini = 0.0\nsamples = 5\nvalue = [9, 0]\nclass = l", fillcolor="#e58139ff"] ;
368 -> 369 ;
370 [label="gini = 0.5\nsamples = 7\nvalue = [5, 5]\nclass = l", fillcolor="#e5813900"] ;
368 -> 370 ;
371 [label="PRI.CURRENT.BALANCE <= 922687.5\ngini = 0.49\nsamples = 17\nvalue = [10, 14]\nclass = o", fillcolor="#399de549"] ;
367 -> 371 ;
372 [label="gini = 0.26\nsamples = 10\nvalue = [2, 11]\nclass = o", fillcolor="#399de5d1"] ;
371 -> 372 ;
373 [label="gini = 0.4\nsamples = 7\nvalue = [8, 3]\nclass = l", fillcolor="#e581399f"] ;
371 -> 373 ;
374 [label="gini = 0.0\nsamples = 5\nvalue = [0, 13]\nclass = o", fillcolor="#399de5ff"] ;
352 -> 374 ;
375 [label="Age_when_applying <= 45.39\ngini = 0.31\nsamples = 47\nvalue = [16, 67]\nclass = o", fillcolor="#399de5c2"] ;
349 -> 375 ;
376 [label="asset_to_loan_pct <= 1.21\ngini = 0.38\nsamples = 36\nvalue = [15, 43]\nclass = o", fillcolor="#399de5a6"] ;
375 -> 376 ;
377 [label="curr_outstd_ratio <= 0.15\ngini = 0.49\nsamples = 19\nvalue = [12, 15]\nclass = o", fillcolor="#399de533"] ;
376 -> 377 ;
378 [label="PRI.CURRENT.BALANCE <= 654811.0\ngini = 0.5\nsamples = 13\nvalue = [10, 9]\nclass = l", fillcolor="#e5813919"] ;
377 -> 378 ;
379 [label="gini = 0.24\nsamples = 5\nvalue = [6, 1]\nclass = l", fillcolor="#e58139d4"] ;
378 -> 379 ;
380 [label="gini = 0.44\nsamples = 8\nvalue = [4, 8]\nclass = o", fillcolor="#399de57f"] ;
378 -> 380 ;
381 [label="gini = 0.38\nsamples = 6\nvalue = [2, 6]\nclass = o", fillcolor="#399de5aa"] ;
377 -> 381 ;
382 [label="avg_credit_hist_mnth <= 34.5\ngini = 0.17\nsamples = 17\nvalue = [3, 28]\nclass = o", fillcolor="#399de5e4"] ;
376 -> 382 ;
383 [label="gini = 0.0\nsamples = 5\nvalue = [0, 13]\nclass = o", fillcolor="#399de5ff"] ;
382 -> 383 ;
384 [label="curr_outstd_ratio <= 0.14\ngini = 0.28\nsamples = 12\nvalue = [3, 15]\nclass = o", fillcolor="#399de5cc"] ;
382 -> 384 ;
385 [label="gini = 0.2\nsamples = 7\nvalue = [1, 8]\nclass = o", fillcolor="#399de5df"] ;
384 -> 385 ;
386 [label="gini = 0.35\nsamples = 5\nvalue = [2, 7]\nclass = o", fillcolor="#399de5b6"] ;
384 -> 386 ;
387 [label="ltv <= 85.92\ngini = 0.08\nsamples = 11\nvalue = [1, 24]\nclass = o", fillcolor="#399de5f4"] ;
375 -> 387 ;
388 [label="gini = 0.18\nsamples = 5\nvalue = [1, 9]\nclass = o", fillcolor="#399de5e3"] ;
387 -> 388 ;
389 [label="gini = 0.0\nsamples = 6\nvalue = [0, 15]\nclass = o", fillcolor="#399de5ff"] ;
387 -> 389 ;
390 [label="curr_outstd_ratio <= 0.22\ngini = 0.45\nsamples = 19\nvalue = [17, 9]\nclass = l", fillcolor="#e5813978"] ;
348 -> 390 ;
391 [label="PRI.SANCTIONED.AMOUNT <= 248450.0\ngini = 0.32\nsamples = 11\nvalue = [12, 3]\nclass = l", fillcolor="#e58139bf"] ;
390 -> 391 ;
392 [label="gini = 0.41\nsamples = 5\nvalue = [5, 2]\nclass = l", fillcolor="#e5813999"] ;
391 -> 392 ;
393 [label="gini = 0.22\nsamples = 6\nvalue = [7, 1]\nclass = l", fillcolor="#e58139db"] ;
391 -> 393 ;
394 [label="gini = 0.5\nsamples = 8\nvalue = [5, 6]\nclass = o", fillcolor="#399de52a"] ;
390 -> 394 ;
395 [label="gini = 0.18\nsamples = 7\nvalue = [9, 1]\nclass = l", fillcolor="#e58139e3"] ;
335 -> 395 ;
396 [label="cred_hist_desc_High Risk <= 0.5\ngini = 0.38\nsamples = 17\nvalue = [18, 6]\nclass = l", fillcolor="#e58139aa"] ;
334 -> 396 ;
397 [label="gini = 0.34\nsamples = 9\nvalue = [11, 3]\nclass = l", fillcolor="#e58139b9"] ;
396 -> 397 ;
398 [label="gini = 0.42\nsamples = 8\nvalue = [7, 3]\nclass = l", fillcolor="#e5813992"] ;
396 -> 398 ;
399 [label="PRI.CURRENT.BALANCE <= 298883.5\ngini = 0.4\nsamples = 67\nvalue = [28, 74]\nclass = o", fillcolor="#399de59f"] ;
325 -> 399 ;
400 [label="asset_cost <= 91286.5\ngini = 0.29\nsamples = 28\nvalue = [8, 37]\nclass = o", fillcolor="#399de5c8"] ;
399 -> 400 ;
401 [label="gini = 0.44\nsamples = 5\nvalue = [3, 6]\nclass = o", fillcolor="#399de57f"] ;
400 -> 401 ;
402 [label="Age_when_applying <= 36.65\ngini = 0.24\nsamples = 23\nvalue = [5, 31]\nclass = o", fillcolor="#399de5d6"] ;
400 -> 402 ;
403 [label="PERFORM_CNS.SCORE <= 557.0\ngini = 0.14\nsamples = 17\nvalue = [2, 25]\nclass = o", fillcolor="#399de5eb"] ;
402 -> 403 ;
404 [label="gini = 0.32\nsamples = 8\nvalue = [2, 8]\nclass = o", fillcolor="#399de5bf"] ;
403 -> 404 ;
405 [label="gini = 0.0\nsamples = 9\nvalue = [0, 17]\nclass = o", fillcolor="#399de5ff"] ;
403 -> 405 ;
406 [label="gini = 0.44\nsamples = 6\nvalue = [3, 6]\nclass = o", fillcolor="#399de57f"] ;
402 -> 406 ;
407 [label="curr_outstd_ratio <= 0.14\ngini = 0.46\nsamples = 39\nvalue = [20, 37]\nclass = o", fillcolor="#399de575"] ;
399 -> 407 ;
408 [label="Aadhar_flag <= 0.5\ngini = 0.37\nsamples = 29\nvalue = [10, 31]\nclass = o", fillcolor="#399de5ad"] ;
407 -> 408 ;
409 [label="avg_acct_age_mnth <= 3.5\ngini = 0.46\nsamples = 12\nvalue = [5, 9]\nclass = o", fillcolor="#399de571"] ;
408 -> 409 ;
410 [label="gini = 0.44\nsamples = 5\nvalue = [4, 2]\nclass = l", fillcolor="#e581397f"] ;
409 -> 410 ;
411 [label="gini = 0.22\nsamples = 7\nvalue = [1, 7]\nclass = o", fillcolor="#399de5db"] ;
409 -> 411 ;
412 [label="cred_hist_desc_Medium Risk <= 0.5\ngini = 0.3\nsamples = 17\nvalue = [5, 22]\nclass = o", fillcolor="#399de5c5"] ;
408 -> 412 ;
413 [label="gini = 0.0\nsamples = 7\nvalue = [0, 16]\nclass = o", fillcolor="#399de5ff"] ;
412 -> 413 ;
414 [label="avg_credit_hist_mnth <= 19.5\ngini = 0.5\nsamples = 10\nvalue = [5, 6]\nclass = o", fillcolor="#399de52a"] ;
412 -> 414 ;
415 [label="gini = 0.48\nsamples = 5\nvalue = [3, 2]\nclass = l", fillcolor="#e5813955"] ;
414 -> 415 ;
416 [label="gini = 0.44\nsamples = 5\nvalue = [2, 4]\nclass = o", fillcolor="#399de57f"] ;
414 -> 416 ;
417 [label="disbursed_amount <= 76982.0\ngini = 0.47\nsamples = 10\nvalue = [10, 6]\nclass = l", fillcolor="#e5813966"] ;
407 -> 417 ;
418 [label="gini = 0.5\nsamples = 5\nvalue = [4, 4]\nclass = l", fillcolor="#e5813900"] ;
417 -> 418 ;
419 [label="gini = 0.38\nsamples = 5\nvalue = [6, 2]\nclass = l", fillcolor="#e58139aa"] ;
417 -> 419 ;
420 [label="PRI.DISBURSED.AMOUNT <= 776000.0\ngini = 0.49\nsamples = 329\nvalue = [288, 233]\nclass = l", fillcolor="#e5813931"] ;
324 -> 420 ;
421 [label="Age_when_applying <= 23.77\ngini = 0.5\nsamples = 250\nvalue = [204, 194]\nclass = l", fillcolor="#e581390c"] ;
420 -> 421 ;
422 [label="avg_credit_hist_mnth <= 14.0\ngini = 0.2\nsamples = 17\nvalue = [3, 23]\nclass = o", fillcolor="#399de5de"] ;
421 -> 422 ;
423 [label="gini = 0.0\nsamples = 8\nvalue = [0, 11]\nclass = o", fillcolor="#399de5ff"] ;
422 -> 423 ;
424 [label="gini = 0.32\nsamples = 9\nvalue = [3, 12]\nclass = o", fillcolor="#399de5bf"] ;
422 -> 424 ;
425 [label="inst_curr_disb_ratio <= 0.56\ngini = 0.5\nsamples = 233\nvalue = [201, 171]\nclass = l", fillcolor="#e5813926"] ;
421 -> 425 ;
426 [label="asset_to_loan_pct <= 1.14\ngini = 0.49\nsamples = 203\nvalue = [186, 133]\nclass = l", fillcolor="#e5813949"] ;
425 -> 426 ;
427 [label="asset_cost <= 72710.0\ngini = 0.26\nsamples = 13\nvalue = [22, 4]\nclass = l", fillcolor="#e58139d1"] ;
426 -> 427 ;
428 [label="gini = 0.0\nsamples = 8\nvalue = [20, 0]\nclass = l", fillcolor="#e58139ff"] ;
427 -> 428 ;
429 [label="gini = 0.44\nsamples = 5\nvalue = [2, 4]\nclass = o", fillcolor="#399de57f"] ;
427 -> 429 ;
430 [label="age_outstd_ratio <= 0.0\ngini = 0.49\nsamples = 190\nvalue = [164, 129]\nclass = l", fillcolor="#e5813936"] ;
426 -> 430 ;
431 [label="PRI.CURRENT.BALANCE <= 199986.0\ngini = 0.48\nsamples = 174\nvalue = [155, 109]\nclass = l", fillcolor="#e581394c"] ;
430 -> 431 ;
432 [label="asset_cost <= 72052.0\ngini = 0.32\nsamples = 36\nvalue = [45, 11]\nclass = l", fillcolor="#e58139c1"] ;
431 -> 432 ;
433 [label="inst_curr_disb_ratio <= 0.18\ngini = 0.08\nsamples = 12\nvalue = [22, 1]\nclass = l", fillcolor="#e58139f3"] ;
432 -> 433 ;
434 [label="gini = 0.0\nsamples = 7\nvalue = [16, 0]\nclass = l", fillcolor="#e58139ff"] ;
433 -> 434 ;
435 [label="gini = 0.24\nsamples = 5\nvalue = [6, 1]\nclass = l", fillcolor="#e58139d4"] ;
433 -> 435 ;
436 [label="asset_to_loan_pct <= 1.2\ngini = 0.42\nsamples = 24\nvalue = [23, 10]\nclass = l", fillcolor="#e5813990"] ;
432 -> 436 ;
437 [label="gini = 0.48\nsamples = 5\nvalue = [2, 3]\nclass = o", fillcolor="#399de555"] ;
436 -> 437 ;
438 [label="ltv <= 79.51\ngini = 0.38\nsamples = 19\nvalue = [21, 7]\nclass = l", fillcolor="#e58139aa"] ;
436 -> 438 ;
439 [label="instalment_health <= 6620.66\ngini = 0.48\nsamples = 14\nvalue = [11, 7]\nclass = l", fillcolor="#e581395d"] ;
438 -> 439 ;
440 [label="gini = 0.35\nsamples = 6\nvalue = [7, 2]\nclass = l", fillcolor="#e58139b6"] ;
439 -> 440 ;
441 [label="gini = 0.49\nsamples = 8\nvalue = [4, 5]\nclass = o", fillcolor="#399de533"] ;
439 -> 441 ;
442 [label="gini = 0.0\nsamples = 5\nvalue = [10, 0]\nclass = l", fillcolor="#e58139ff"] ;
438 -> 442 ;
443 [label="ltv <= 89.34\ngini = 0.5\nsamples = 138\nvalue = [110, 98]\nclass = l", fillcolor="#e581391c"] ;
431 -> 443 ;
444 [label="asset_cost <= 68262.0\ngini = 0.49\nsamples = 130\nvalue = [108, 86]\nclass = l", fillcolor="#e5813934"] ;
443 -> 444 ;
445 [label="asset_cost <= 65240.0\ngini = 0.43\nsamples = 14\nvalue = [6, 13]\nclass = o", fillcolor="#399de589"] ;
444 -> 445 ;
446 [label="gini = 0.28\nsamples = 5\nvalue = [5, 1]\nclass = l", fillcolor="#e58139cc"] ;
445 -> 446 ;
447 [label="gini = 0.14\nsamples = 9\nvalue = [1, 12]\nclass = o", fillcolor="#399de5ea"] ;
445 -> 447 ;
448 [label="PRIMARY.INSTAL.AMT <= 2040.5\ngini = 0.49\nsamples = 116\nvalue = [102, 73]\nclass = l", fillcolor="#e5813948"] ;
444 -> 448 ;
449 [label="PRIMARY.INSTAL.AMT <= 49.5\ngini = 0.49\nsamples = 38\nvalue = [26, 33]\nclass = o", fillcolor="#399de536"] ;
448 -> 449 ;
450 [label="avg_credit_hist_mnth <= 29.5\ngini = 0.5\nsamples = 32\nvalue = [25, 25]\nclass = l", fillcolor="#e5813900"] ;
449 -> 450 ;
451 [label="asset_cost <= 95999.0\ngini = 0.46\nsamples = 17\nvalue = [11, 20]\nclass = o", fillcolor="#399de573"] ;
450 -> 451 ;
452 [label="PRI.ACTIVE.ACCTS <= 2.5\ngini = 0.5\nsamples = 12\nvalue = [10, 12]\nclass = o", fillcolor="#399de52a"] ;
451 -> 452 ;
453 [label="gini = 0.44\nsamples = 7\nvalue = [4, 8]\nclass = o", fillcolor="#399de57f"] ;
452 -> 453 ;
454 [label="gini = 0.48\nsamples = 5\nvalue = [6, 4]\nclass = l", fillcolor="#e5813955"] ;
452 -> 454 ;
455 [label="gini = 0.2\nsamples = 5\nvalue = [1, 8]\nclass = o", fillcolor="#399de5df"] ;
451 -> 455 ;
456 [label="ltv <= 80.12\ngini = 0.39\nsamples = 15\nvalue = [14, 5]\nclass = l", fillcolor="#e58139a4"] ;
450 -> 456 ;
457 [label="asset_cost <= 89985.5\ngini = 0.15\nsamples = 10\nvalue = [11, 1]\nclass = l", fillcolor="#e58139e8"] ;
456 -> 457 ;
458 [label="gini = 0.0\nsamples = 5\nvalue = [7, 0]\nclass = l", fillcolor="#e58139ff"] ;
457 -> 458 ;
459 [label="gini = 0.32\nsamples = 5\nvalue = [4, 1]\nclass = l", fillcolor="#e58139bf"] ;
457 -> 459 ;
460 [label="gini = 0.49\nsamples = 5\nvalue = [3, 4]\nclass = o", fillcolor="#399de540"] ;
456 -> 460 ;
461 [label="gini = 0.2\nsamples = 6\nvalue = [1, 8]\nclass = o", fillcolor="#399de5df"] ;
449 -> 461 ;
462 [label="disbursed_amount <= 58036.0\ngini = 0.45\nsamples = 78\nvalue = [76, 40]\nclass = l", fillcolor="#e5813979"] ;
448 -> 462 ;
463 [label="gini = 0.44\nsamples = 8\nvalue = [4, 8]\nclass = o", fillcolor="#399de57f"] ;
462 -> 463 ;
464 [label="total_outstanding <= 518776.0\ngini = 0.43\nsamples = 70\nvalue = [72, 32]\nclass = l", fillcolor="#e581398e"] ;
462 -> 464 ;
465 [label="PRI.CURRENT.BALANCE <= 252107.0\ngini = 0.34\nsamples = 54\nvalue = [61, 17]\nclass = l", fillcolor="#e58139b8"] ;
464 -> 465 ;
466 [label="disbursed_amount <= 62613.0\ngini = 0.49\nsamples = 18\nvalue = [14, 11]\nclass = l", fillcolor="#e5813937"] ;
465 -> 466 ;
467 [label="gini = 0.26\nsamples = 9\nvalue = [11, 2]\nclass = l", fillcolor="#e58139d1"] ;
466 -> 467 ;
468 [label="gini = 0.38\nsamples = 9\nvalue = [3, 9]\nclass = o", fillcolor="#399de5aa"] ;
466 -> 468 ;
469 [label="instalment_health <= 10934.88\ngini = 0.2\nsamples = 36\nvalue = [47, 6]\nclass = l", fillcolor="#e58139de"] ;
465 -> 469 ;
470 [label="gini = 0.46\nsamples = 9\nvalue = [7, 4]\nclass = l", fillcolor="#e581396d"] ;
469 -> 470 ;
471 [label="Age_when_applying <= 26.22\ngini = 0.09\nsamples = 27\nvalue = [40, 2]\nclass = l", fillcolor="#e58139f2"] ;
469 -> 471 ;
472 [label="gini = 0.22\nsamples = 5\nvalue = [7, 1]\nclass = l", fillcolor="#e58139db"] ;
471 -> 472 ;
473 [label="asset_to_loan_pct <= 1.23\ngini = 0.06\nsamples = 22\nvalue = [33, 1]\nclass = l", fillcolor="#e58139f7"] ;
471 -> 473 ;
474 [label="gini = 0.24\nsamples = 6\nvalue = [6, 1]\nclass = l", fillcolor="#e58139d4"] ;
473 -> 474 ;
475 [label="gini = 0.0\nsamples = 16\nvalue = [27, 0]\nclass = l", fillcolor="#e58139ff"] ;
473 -> 475 ;
476 [label="avg_credit_hist_mnth <= 29.5\ngini = 0.49\nsamples = 16\nvalue = [11, 15]\nclass = o", fillcolor="#399de544"] ;
464 -> 476 ;
477 [label="gini = 0.28\nsamples = 7\nvalue = [2, 10]\nclass = o", fillcolor="#399de5cc"] ;
476 -> 477 ;
478 [label="gini = 0.46\nsamples = 9\nvalue = [9, 5]\nclass = l", fillcolor="#e5813971"] ;
476 -> 478 ;
479 [label="gini = 0.24\nsamples = 8\nvalue = [2, 12]\nclass = o", fillcolor="#399de5d4"] ;
443 -> 479 ;
480 [label="PRI.CURRENT.BALANCE <= 159077.5\ngini = 0.43\nsamples = 16\nvalue = [9, 20]\nclass = o", fillcolor="#399de58c"] ;
430 -> 480 ;
481 [label="gini = 0.18\nsamples = 6\nvalue = [1, 9]\nclass = o", fillcolor="#399de5e3"] ;
480 -> 481 ;
482 [label="asset_to_loan_pct <= 1.23\ngini = 0.49\nsamples = 10\nvalue = [8, 11]\nclass = o", fillcolor="#399de546"] ;
480 -> 482 ;
483 [label="gini = 0.49\nsamples = 5\nvalue = [4, 3]\nclass = l", fillcolor="#e5813940"] ;
482 -> 483 ;
484 [label="gini = 0.44\nsamples = 5\nvalue = [4, 8]\nclass = o", fillcolor="#399de57f"] ;
482 -> 484 ;
485 [label="curr_outstd_ratio <= 0.14\ngini = 0.41\nsamples = 30\nvalue = [15, 38]\nclass = o", fillcolor="#399de59a"] ;
425 -> 485 ;
486 [label="PRI.DISBURSED.AMOUNT <= 512221.5\ngini = 0.47\nsamples = 18\nvalue = [13, 21]\nclass = o", fillcolor="#399de561"] ;
485 -> 486 ;
487 [label="gini = 0.44\nsamples = 7\nvalue = [8, 4]\nclass = l", fillcolor="#e581397f"] ;
486 -> 487 ;
488 [label="NEW.ACCTS.IN.LAST.SIX.MONTHS <= 1.5\ngini = 0.35\nsamples = 11\nvalue = [5, 17]\nclass = o", fillcolor="#399de5b4"] ;
486 -> 488 ;
489 [label="gini = 0.47\nsamples = 5\nvalue = [5, 3]\nclass = l", fillcolor="#e5813966"] ;
488 -> 489 ;
490 [label="gini = 0.0\nsamples = 6\nvalue = [0, 14]\nclass = o", fillcolor="#399de5ff"] ;
488 -> 490 ;
491 [label="PRI.SANCTIONED.AMOUNT <= 337106.0\ngini = 0.19\nsamples = 12\nvalue = [2, 17]\nclass = o", fillcolor="#399de5e1"] ;
485 -> 491 ;
492 [label="gini = 0.44\nsamples = 5\nvalue = [2, 4]\nclass = o", fillcolor="#399de57f"] ;
491 -> 492 ;
493 [label="gini = 0.0\nsamples = 7\nvalue = [0, 13]\nclass = o", fillcolor="#399de5ff"] ;
491 -> 493 ;
494 [label="PRI.CURRENT.BALANCE <= 948453.5\ngini = 0.43\nsamples = 79\nvalue = [84, 39]\nclass = l", fillcolor="#e5813989"] ;
420 -> 494 ;
495 [label="PERFORM_CNS.SCORE <= 657.5\ngini = 0.15\nsamples = 36\nvalue = [56, 5]\nclass = l", fillcolor="#e58139e8"] ;
494 -> 495 ;
496 [label="avg_acct_age_mnth <= 15.0\ngini = 0.38\nsamples = 10\nvalue = [12, 4]\nclass = l", fillcolor="#e58139aa"] ;
495 -> 496 ;
497 [label="gini = 0.2\nsamples = 5\nvalue = [8, 1]\nclass = l", fillcolor="#e58139df"] ;
496 -> 497 ;
498 [label="gini = 0.49\nsamples = 5\nvalue = [4, 3]\nclass = l", fillcolor="#e5813940"] ;
496 -> 498 ;
499 [label="asset_cost <= 100895.0\ngini = 0.04\nsamples = 26\nvalue = [44, 1]\nclass = l", fillcolor="#e58139f9"] ;
495 -> 499 ;
500 [label="gini = 0.0\nsamples = 21\nvalue = [38, 0]\nclass = l", fillcolor="#e58139ff"] ;
499 -> 500 ;
501 [label="gini = 0.24\nsamples = 5\nvalue = [6, 1]\nclass = l", fillcolor="#e58139d4"] ;
499 -> 501 ;
502 [label="PRIMARY.INSTAL.AMT <= 215312.0\ngini = 0.5\nsamples = 43\nvalue = [28, 34]\nclass = o", fillcolor="#399de52d"] ;
494 -> 502 ;
503 [label="PERFORM_CNS.SCORE <= 668.5\ngini = 0.45\nsamples = 38\nvalue = [18, 34]\nclass = o", fillcolor="#399de578"] ;
502 -> 503 ;
504 [label="NEW.ACCTS.IN.LAST.SIX.MONTHS <= 0.5\ngini = 0.45\nsamples = 20\nvalue = [17, 9]\nclass = l", fillcolor="#e5813978"] ;
503 -> 504 ;
505 [label="gini = 0.0\nsamples = 8\nvalue = [10, 0]\nclass = l", fillcolor="#e58139ff"] ;
504 -> 505 ;
506 [label="Age_when_applying <= 39.32\ngini = 0.49\nsamples = 12\nvalue = [7, 9]\nclass = o", fillcolor="#399de539"] ;
504 -> 506 ;
507 [label="gini = 0.38\nsamples = 5\nvalue = [2, 6]\nclass = o", fillcolor="#399de5aa"] ;
506 -> 507 ;
508 [label="gini = 0.47\nsamples = 7\nvalue = [5, 3]\nclass = l", fillcolor="#e5813966"] ;
506 -> 508 ;
509 [label="PRI.SANCTIONED.AMOUNT <= 1359040.0\ngini = 0.07\nsamples = 18\nvalue = [1, 25]\nclass = o", fillcolor="#399de5f5"] ;
503 -> 509 ;
510 [label="gini = 0.0\nsamples = 11\nvalue = [0, 17]\nclass = o", fillcolor="#399de5ff"] ;
509 -> 510 ;
511 [label="gini = 0.2\nsamples = 7\nvalue = [1, 8]\nclass = o", fillcolor="#399de5df"] ;
509 -> 511 ;
512 [label="gini = 0.0\nsamples = 5\nvalue = [10, 0]\nclass = l", fillcolor="#e58139ff"] ;
502 -> 512 ;
513 [label="ltv <= 80.39\ngini = 0.09\nsamples = 11\nvalue = [21, 1]\nclass = l", fillcolor="#e58139f3"] ;
295 -> 513 ;
514 [label="gini = 0.0\nsamples = 6\nvalue = [13, 0]\nclass = l", fillcolor="#e58139ff"] ;
513 -> 514 ;
515 [label="gini = 0.2\nsamples = 5\nvalue = [8, 1]\nclass = l", fillcolor="#e58139df"] ;
513 -> 515 ;
516 [label="curr_outstd_ratio <= 0.05\ngini = 0.43\nsamples = 1748\nvalue = [1895, 837]\nclass = l", fillcolor="#e581398e"] ;
4 -> 516 ;
517 [label="disbursed_amount <= 71620.0\ngini = 0.34\nsamples = 366\nvalue = [434, 120]\nclass = l", fillcolor="#e58139b8"] ;
516 -> 517 ;
518 [label="avg_acct_age_mnth <= 3.5\ngini = 0.33\nsamples = 355\nvalue = [427, 111]\nclass = l", fillcolor="#e58139bd"] ;
517 -> 518 ;
519 [label="PERFORM_CNS.SCORE <= 737.5\ngini = 0.49\nsamples = 15\nvalue = [14, 11]\nclass = l", fillcolor="#e5813937"] ;
518 -> 519 ;
520 [label="gini = 0.34\nsamples = 8\nvalue = [11, 3]\nclass = l", fillcolor="#e58139b9"] ;
519 -> 520 ;
521 [label="gini = 0.4\nsamples = 7\nvalue = [3, 8]\nclass = o", fillcolor="#399de59f"] ;
519 -> 521 ;
522 [label="PRI.NO.OF.ACCTS <= 16.5\ngini = 0.31\nsamples = 340\nvalue = [413, 100]\nclass = l", fillcolor="#e58139c1"] ;
518 -> 522 ;
523 [label="total_outstanding <= 6694247.5\ngini = 0.32\nsamples = 316\nvalue = [383, 98]\nclass = l", fillcolor="#e58139be"] ;
522 -> 523 ;
524 [label="inst_curr_disb_ratio <= 2.43\ngini = 0.32\nsamples = 311\nvalue = [380, 93]\nclass = l", fillcolor="#e58139c1"] ;
523 -> 524 ;
525 [label="Employment.Type_Self employed <= 0.5\ngini = 0.37\nsamples = 229\nvalue = [254, 83]\nclass = l", fillcolor="#e58139ac"] ;
524 -> 525 ;
526 [label="Aadhar_flag <= 0.5\ngini = 0.28\nsamples = 117\nvalue = [148, 30]\nclass = l", fillcolor="#e58139cb"] ;
525 -> 526 ;
527 [label="gini = 0.49\nsamples = 7\nvalue = [7, 5]\nclass = l", fillcolor="#e5813949"] ;
526 -> 527 ;
528 [label="age_outstd_ratio <= 0.0\ngini = 0.26\nsamples = 110\nvalue = [141, 25]\nclass = l", fillcolor="#e58139d2"] ;
526 -> 528 ;
529 [label="Age_when_applying <= 28.11\ngini = 0.36\nsamples = 54\nvalue = [62, 19]\nclass = l", fillcolor="#e58139b1"] ;
528 -> 529 ;
530 [label="gini = 0.0\nsamples = 11\nvalue = [16, 0]\nclass = l", fillcolor="#e58139ff"] ;
529 -> 530 ;
531 [label="PRI.CURRENT.BALANCE <= 1510692.0\ngini = 0.41\nsamples = 43\nvalue = [46, 19]\nclass = l", fillcolor="#e5813996"] ;
529 -> 531 ;
532 [label="gini = 0.5\nsamples = 7\nvalue = [7, 7]\nclass = l", fillcolor="#e5813900"] ;
531 -> 532 ;
533 [label="PRI.NO.OF.ACCTS <= 7.5\ngini = 0.36\nsamples = 36\nvalue = [39, 12]\nclass = l", fillcolor="#e58139b1"] ;
531 -> 533 ;
534 [label="PERFORM_CNS.SCORE <= 742.5\ngini = 0.28\nsamples = 23\nvalue = [29, 6]\nclass = l", fillcolor="#e58139ca"] ;
533 -> 534 ;
535 [label="gini = 0.0\nsamples = 7\nvalue = [13, 0]\nclass = l", fillcolor="#e58139ff"] ;
534 -> 535 ;
536 [label="inst_curr_disb_ratio <= 0.9\ngini = 0.4\nsamples = 16\nvalue = [16, 6]\nclass = l", fillcolor="#e581399f"] ;
534 -> 536 ;
537 [label="gini = 0.0\nsamples = 5\nvalue = [6, 0]\nclass = l", fillcolor="#e58139ff"] ;
536 -> 537 ;
538 [label="PRI.DISBURSED.AMOUNT <= 2439294.0\ngini = 0.47\nsamples = 11\nvalue = [10, 6]\nclass = l", fillcolor="#e5813966"] ;
536 -> 538 ;
539 [label="gini = 0.32\nsamples = 6\nvalue = [8, 2]\nclass = l", fillcolor="#e58139bf"] ;
538 -> 539 ;
540 [label="gini = 0.44\nsamples = 5\nvalue = [2, 4]\nclass = o", fillcolor="#399de57f"] ;
538 -> 540 ;
541 [label="PRIMARY.INSTAL.AMT <= 36841.5\ngini = 0.47\nsamples = 13\nvalue = [10, 6]\nclass = l", fillcolor="#e5813966"] ;
533 -> 541 ;
542 [label="gini = 0.48\nsamples = 8\nvalue = [4, 6]\nclass = o", fillcolor="#399de555"] ;
541 -> 542 ;
543 [label="gini = 0.0\nsamples = 5\nvalue = [6, 0]\nclass = l", fillcolor="#e58139ff"] ;
541 -> 543 ;
544 [label="asset_cost <= 70406.5\ngini = 0.13\nsamples = 56\nvalue = [79, 6]\nclass = l", fillcolor="#e58139ec"] ;
528 -> 544 ;
545 [label="inst_curr_disb_ratio <= 1.73\ngini = 0.06\nsamples = 40\nvalue = [62, 2]\nclass = l", fillcolor="#e58139f7"] ;
544 -> 545 ;
546 [label="PERFORM_CNS.SCORE <= 715.5\ngini = 0.03\nsamples = 35\nvalue = [56, 1]\nclass = l", fillcolor="#e58139fa"] ;
545 -> 546 ;
547 [label="gini = 0.24\nsamples = 5\nvalue = [6, 1]\nclass = l", fillcolor="#e58139d4"] ;
546 -> 547 ;
548 [label="gini = 0.0\nsamples = 30\nvalue = [50, 0]\nclass = l", fillcolor="#e58139ff"] ;
546 -> 548 ;
549 [label="gini = 0.24\nsamples = 5\nvalue = [6, 1]\nclass = l", fillcolor="#e58139d4"] ;
545 -> 549 ;
550 [label="ltv <= 72.65\ngini = 0.31\nsamples = 16\nvalue = [17, 4]\nclass = l", fillcolor="#e58139c3"] ;
544 -> 550 ;
551 [label="gini = 0.0\nsamples = 8\nvalue = [11, 0]\nclass = l", fillcolor="#e58139ff"] ;
550 -> 551 ;
552 [label="gini = 0.48\nsamples = 8\nvalue = [6, 4]\nclass = l", fillcolor="#e5813955"] ;
550 -> 552 ;
553 [label="PAN_flag <= 0.5\ngini = 0.44\nsamples = 112\nvalue = [106, 53]\nclass = l", fillcolor="#e581397f"] ;
525 -> 553 ;
554 [label="ltv <= 89.04\ngini = 0.42\nsamples = 103\nvalue = [102, 44]\nclass = l", fillcolor="#e5813991"] ;
553 -> 554 ;
555 [label="age_outstd_ratio <= 0.0\ngini = 0.39\nsamples = 95\nvalue = [100, 37]\nclass = l", fillcolor="#e58139a1"] ;
554 -> 555 ;
556 [label="gini = 0.29\nsamples = 38\nvalue = [43, 9]\nclass = l", fillcolor="#e58139ca"] ;
555 -> 556 ;
557 [label="avg_credit_hist_mnth <= 31.5\ngini = 0.44\nsamples = 57\nvalue = [57, 28]\nclass = l", fillcolor="#e5813982"] ;
555 -> 557 ;
558 [label="asset_cost <= 67286.5\ngini = 0.36\nsamples = 32\nvalue = [35, 11]\nclass = l", fillcolor="#e58139af"] ;
557 -> 558 ;
559 [label="avg_credit_hist_mnth <= 21.5\ngini = 0.13\nsamples = 19\nvalue = [26, 2]\nclass = l", fillcolor="#e58139eb"] ;
558 -> 559 ;
560 [label="gini = 0.26\nsamples = 8\nvalue = [11, 2]\nclass = l", fillcolor="#e58139d1"] ;
559 -> 560 ;
561 [label="gini = 0.0\nsamples = 11\nvalue = [15, 0]\nclass = l", fillcolor="#e58139ff"] ;
559 -> 561 ;
562 [label="Age_when_applying <= 40.55\ngini = 0.5\nsamples = 13\nvalue = [9, 9]\nclass = l", fillcolor="#e5813900"] ;
558 -> 562 ;
563 [label="gini = 0.3\nsamples = 8\nvalue = [2, 9]\nclass = o", fillcolor="#399de5c6"] ;
562 -> 563 ;
564 [label="gini = 0.0\nsamples = 5\nvalue = [7, 0]\nclass = l", fillcolor="#e58139ff"] ;
562 -> 564 ;
565 [label="disbursed_amount <= 44321.5\ngini = 0.49\nsamples = 25\nvalue = [22, 17]\nclass = l", fillcolor="#e581393a"] ;
557 -> 565 ;
566 [label="gini = 0.3\nsamples = 5\nvalue = [2, 9]\nclass = o", fillcolor="#399de5c6"] ;
565 -> 566 ;
567 [label="PRI.ACTIVE.ACCTS <= 3.5\ngini = 0.41\nsamples = 20\nvalue = [20, 8]\nclass = l", fillcolor="#e5813999"] ;
565 -> 567 ;
568 [label="asset_to_loan_pct <= 1.3\ngini = 0.28\nsamples = 13\nvalue = [15, 3]\nclass = l", fillcolor="#e58139cc"] ;
567 -> 568 ;
569 [label="gini = 0.44\nsamples = 5\nvalue = [6, 3]\nclass = l", fillcolor="#e581397f"] ;
568 -> 569 ;
570 [label="gini = 0.0\nsamples = 8\nvalue = [9, 0]\nclass = l", fillcolor="#e58139ff"] ;
568 -> 570 ;
571 [label="gini = 0.5\nsamples = 7\nvalue = [5, 5]\nclass = l", fillcolor="#e5813900"] ;
567 -> 571 ;
572 [label="gini = 0.35\nsamples = 8\nvalue = [2, 7]\nclass = o", fillcolor="#399de5b6"] ;
554 -> 572 ;
573 [label="gini = 0.43\nsamples = 9\nvalue = [4, 9]\nclass = o", fillcolor="#399de58e"] ;
553 -> 573 ;
574 [label="curr_outstd_ratio <= 0.02\ngini = 0.14\nsamples = 82\nvalue = [126, 10]\nclass = l", fillcolor="#e58139eb"] ;
524 -> 574 ;
575 [label="PRIMARY.INSTAL.AMT <= 13772.5\ngini = 0.23\nsamples = 50\nvalue = [66, 10]\nclass = l", fillcolor="#e58139d8"] ;
574 -> 575 ;
576 [label="total_outstanding <= 2830502.0\ngini = 0.38\nsamples = 28\nvalue = [29, 10]\nclass = l", fillcolor="#e58139a7"] ;
575 -> 576 ;
577 [label="inst_curr_disb_ratio <= 3.52\ngini = 0.47\nsamples = 10\nvalue = [5, 8]\nclass = o", fillcolor="#399de560"] ;
576 -> 577 ;
578 [label="gini = 0.48\nsamples = 5\nvalue = [2, 3]\nclass = o", fillcolor="#399de555"] ;
577 -> 578 ;
579 [label="gini = 0.47\nsamples = 5\nvalue = [3, 5]\nclass = o", fillcolor="#399de566"] ;
577 -> 579 ;
580 [label="ltv <= 77.88\ngini = 0.14\nsamples = 18\nvalue = [24, 2]\nclass = l", fillcolor="#e58139ea"] ;
576 -> 580 ;
581 [label="gini = 0.26\nsamples = 9\nvalue = [11, 2]\nclass = l", fillcolor="#e58139d1"] ;
580 -> 581 ;
582 [label="gini = 0.0\nsamples = 9\nvalue = [13, 0]\nclass = l", fillcolor="#e58139ff"] ;
580 -> 582 ;
583 [label="gini = 0.0\nsamples = 22\nvalue = [37, 0]\nclass = l", fillcolor="#e58139ff"] ;
575 -> 583 ;
584 [label="gini = 0.0\nsamples = 32\nvalue = [60, 0]\nclass = l", fillcolor="#e58139ff"] ;
574 -> 584 ;
585 [label="gini = 0.47\nsamples = 5\nvalue = [3, 5]\nclass = o", fillcolor="#399de566"] ;
523 -> 585 ;
586 [label="PRI.DISBURSED.AMOUNT <= 2063878.5\ngini = 0.12\nsamples = 24\nvalue = [30, 2]\nclass = l", fillcolor="#e58139ee"] ;
522 -> 586 ;
587 [label="gini = 0.32\nsamples = 8\nvalue = [8, 2]\nclass = l", fillcolor="#e58139bf"] ;
586 -> 587 ;
588 [label="gini = 0.0\nsamples = 16\nvalue = [22, 0]\nclass = l", fillcolor="#e58139ff"] ;
586 -> 588 ;
589 [label="PRI.NO.OF.ACCTS <= 6.5\ngini = 0.49\nsamples = 11\nvalue = [7, 9]\nclass = o", fillcolor="#399de539"] ;
517 -> 589 ;
590 [label="gini = 0.0\nsamples = 5\nvalue = [6, 0]\nclass = l", fillcolor="#e58139ff"] ;
589 -> 590 ;
591 [label="gini = 0.18\nsamples = 6\nvalue = [1, 9]\nclass = o", fillcolor="#399de5e3"] ;
589 -> 591 ;
592 [label="NO.OF_INQUIRIES <= 0.5\ngini = 0.44\nsamples = 1382\nvalue = [1461, 717]\nclass = l", fillcolor="#e5813982"] ;
516 -> 592 ;
593 [label="PERFORM_CNS.SCORE <= 783.5\ngini = 0.42\nsamples = 1119\nvalue = [1239, 521]\nclass = l", fillcolor="#e5813994"] ;
592 -> 593 ;
594 [label="curr_outstd_ratio <= 0.05\ngini = 0.43\nsamples = 1018\nvalue = [1089, 493]\nclass = l", fillcolor="#e581398c"] ;
593 -> 594 ;
595 [label="total_outstanding <= 1013481.5\ngini = 0.42\nsamples = 10\nvalue = [6, 14]\nclass = o", fillcolor="#399de592"] ;
594 -> 595 ;
596 [label="gini = 0.17\nsamples = 5\nvalue = [1, 10]\nclass = o", fillcolor="#399de5e6"] ;
595 -> 596 ;
597 [label="gini = 0.49\nsamples = 5\nvalue = [5, 4]\nclass = l", fillcolor="#e5813933"] ;
595 -> 597 ;
598 [label="Age_when_applying <= 22.24\ngini = 0.43\nsamples = 1008\nvalue = [1083, 479]\nclass = l", fillcolor="#e581398e"] ;
594 -> 598 ;
599 [label="PRI.NO.OF.ACCTS <= 2.5\ngini = 0.29\nsamples = 11\nvalue = [3, 14]\nclass = o", fillcolor="#399de5c8"] ;
598 -> 599 ;
600 [label="gini = 0.2\nsamples = 6\nvalue = [1, 8]\nclass = o", fillcolor="#399de5df"] ;
599 -> 600 ;
601 [label="gini = 0.38\nsamples = 5\nvalue = [2, 6]\nclass = o", fillcolor="#399de5aa"] ;
599 -> 601 ;
602 [label="ltv <= 65.31\ngini = 0.42\nsamples = 997\nvalue = [1080, 465]\nclass = l", fillcolor="#e5813991"] ;
598 -> 602 ;
603 [label="Age_when_applying <= 27.58\ngini = 0.32\nsamples = 171\nvalue = [213, 54]\nclass = l", fillcolor="#e58139be"] ;
602 -> 603 ;
604 [label="PRI.ACTIVE.ACCTS <= 2.5\ngini = 0.48\nsamples = 30\nvalue = [28, 19]\nclass = l", fillcolor="#e5813952"] ;
603 -> 604 ;
605 [label="avg_credit_hist_mnth <= 18.5\ngini = 0.47\nsamples = 17\nvalue = [10, 17]\nclass = o", fillcolor="#399de569"] ;
604 -> 605 ;
606 [label="Employment.Type_Self employed <= 0.5\ngini = 0.29\nsamples = 11\nvalue = [3, 14]\nclass = o", fillcolor="#399de5c8"] ;
605 -> 606 ;
607 [label="gini = 0.0\nsamples = 5\nvalue = [0, 8]\nclass = o", fillcolor="#399de5ff"] ;
606 -> 607 ;
608 [label="gini = 0.44\nsamples = 6\nvalue = [3, 6]\nclass = o", fillcolor="#399de57f"] ;
606 -> 608 ;
609 [label="gini = 0.42\nsamples = 6\nvalue = [7, 3]\nclass = l", fillcolor="#e5813992"] ;
605 -> 609 ;
610 [label="asset_to_loan_pct <= 1.8\ngini = 0.18\nsamples = 13\nvalue = [18, 2]\nclass = l", fillcolor="#e58139e3"] ;
604 -> 610 ;
611 [label="gini = 0.28\nsamples = 5\nvalue = [5, 1]\nclass = l", fillcolor="#e58139cc"] ;
610 -> 611 ;
612 [label="gini = 0.13\nsamples = 8\nvalue = [13, 1]\nclass = l", fillcolor="#e58139eb"] ;
610 -> 612 ;
613 [label="PRI.CURRENT.BALANCE <= 162410.5\ngini = 0.27\nsamples = 141\nvalue = [185, 35]\nclass = l", fillcolor="#e58139cf"] ;
603 -> 613 ;
614 [label="PRI.SANCTIONED.AMOUNT <= 141603.0\ngini = 0.07\nsamples = 33\nvalue = [52, 2]\nclass = l", fillcolor="#e58139f5"] ;
613 -> 614 ;
615 [label="gini = 0.22\nsamples = 8\nvalue = [14, 2]\nclass = l", fillcolor="#e58139db"] ;
614 -> 615 ;
616 [label="gini = 0.0\nsamples = 25\nvalue = [38, 0]\nclass = l", fillcolor="#e58139ff"] ;
614 -> 616 ;
617 [label="instalment_health <= 9232.96\ngini = 0.32\nsamples = 108\nvalue = [133, 33]\nclass = l", fillcolor="#e58139c0"] ;
613 -> 617 ;
618 [label="asset_to_loan_pct <= 1.71\ngini = 0.5\nsamples = 17\nvalue = [12, 11]\nclass = l", fillcolor="#e5813915"] ;
617 -> 618 ;
619 [label="gini = 0.0\nsamples = 7\nvalue = [7, 0]\nclass = l", fillcolor="#e58139ff"] ;
618 -> 619 ;
620 [label="PRI.SANCTIONED.AMOUNT <= 400000.0\ngini = 0.43\nsamples = 10\nvalue = [5, 11]\nclass = o", fillcolor="#399de58b"] ;
618 -> 620 ;
621 [label="gini = 0.17\nsamples = 5\nvalue = [1, 10]\nclass = o", fillcolor="#399de5e6"] ;
620 -> 621 ;
622 [label="gini = 0.32\nsamples = 5\nvalue = [4, 1]\nclass = l", fillcolor="#e58139bf"] ;
620 -> 622 ;
623 [label="PRI.SANCTIONED.AMOUNT <= 1165305.0\ngini = 0.26\nsamples = 91\nvalue = [121, 22]\nclass = l", fillcolor="#e58139d1"] ;
617 -> 623 ;
624 [label="PERFORM_CNS.SCORE <= 737.5\ngini = 0.23\nsamples = 83\nvalue = [113, 17]\nclass = l", fillcolor="#e58139d9"] ;
623 -> 624 ;
625 [label="avg_credit_hist_mnth <= 17.5\ngini = 0.35\nsamples = 49\nvalue = [52, 15]\nclass = l", fillcolor="#e58139b5"] ;
624 -> 625 ;
626 [label="PRI.ACTIVE.ACCTS <= 1.5\ngini = 0.13\nsamples = 19\nvalue = [27, 2]\nclass = l", fillcolor="#e58139ec"] ;
625 -> 626 ;
627 [label="gini = 0.24\nsamples = 8\nvalue = [12, 2]\nclass = l", fillcolor="#e58139d4"] ;
626 -> 627 ;
628 [label="gini = 0.0\nsamples = 11\nvalue = [15, 0]\nclass = l", fillcolor="#e58139ff"] ;
626 -> 628 ;
629 [label="inst_curr_disb_ratio <= 0.29\ngini = 0.45\nsamples = 30\nvalue = [25, 13]\nclass = l", fillcolor="#e581397a"] ;
625 -> 629 ;
630 [label="gini = 0.0\nsamples = 7\nvalue = [7, 0]\nclass = l", fillcolor="#e58139ff"] ;
629 -> 630 ;
631 [label="Age_when_applying <= 30.98\ngini = 0.49\nsamples = 23\nvalue = [18, 13]\nclass = l", fillcolor="#e5813947"] ;
629 -> 631 ;
632 [label="gini = 0.0\nsamples = 5\nvalue = [6, 0]\nclass = l", fillcolor="#e58139ff"] ;
631 -> 632 ;
633 [label="PRI.DISBURSED.AMOUNT <= 542946.5\ngini = 0.5\nsamples = 18\nvalue = [12, 13]\nclass = o", fillcolor="#399de514"] ;
631 -> 633 ;
634 [label="gini = 0.0\nsamples = 6\nvalue = [0, 7]\nclass = o", fillcolor="#399de5ff"] ;
633 -> 634 ;
635 [label="PRI.CURRENT.BALANCE <= 517073.5\ngini = 0.44\nsamples = 12\nvalue = [12, 6]\nclass = l", fillcolor="#e581397f"] ;
633 -> 635 ;
636 [label="gini = 0.49\nsamples = 6\nvalue = [5, 4]\nclass = l", fillcolor="#e5813933"] ;
635 -> 636 ;
637 [label="gini = 0.35\nsamples = 6\nvalue = [7, 2]\nclass = l", fillcolor="#e58139b6"] ;
635 -> 637 ;
638 [label="asset_to_loan_pct <= 2.48\ngini = 0.06\nsamples = 34\nvalue = [61, 2]\nclass = l", fillcolor="#e58139f7"] ;
624 -> 638 ;
639 [label="gini = 0.0\nsamples = 28\nvalue = [55, 0]\nclass = l", fillcolor="#e58139ff"] ;
638 -> 639 ;
640 [label="gini = 0.38\nsamples = 6\nvalue = [6, 2]\nclass = l", fillcolor="#e58139aa"] ;
638 -> 640 ;
641 [label="gini = 0.47\nsamples = 8\nvalue = [8, 5]\nclass = l", fillcolor="#e5813960"] ;
623 -> 641 ;
642 [label="ltv <= 68.79\ngini = 0.44\nsamples = 826\nvalue = [867, 411]\nclass = l", fillcolor="#e5813986"] ;
602 -> 642 ;
643 [label="total_outstanding <= 182278.5\ngini = 0.49\nsamples = 68\nvalue = [53, 43]\nclass = l", fillcolor="#e5813930"] ;
642 -> 643 ;
644 [label="gini = 0.17\nsamples = 6\nvalue = [10, 1]\nclass = l", fillcolor="#e58139e6"] ;
643 -> 644 ;
645 [label="inst_curr_disb_ratio <= 0.18\ngini = 0.5\nsamples = 62\nvalue = [43, 42]\nclass = l", fillcolor="#e5813906"] ;
643 -> 645 ;
646 [label="PRI.DISBURSED.AMOUNT <= 191950.0\ngini = 0.12\nsamples = 11\nvalue = [1, 15]\nclass = o", fillcolor="#399de5ee"] ;
645 -> 646 ;
647 [label="gini = 0.32\nsamples = 5\nvalue = [1, 4]\nclass = o", fillcolor="#399de5bf"] ;
646 -> 647 ;
648 [label="gini = 0.0\nsamples = 6\nvalue = [0, 11]\nclass = o", fillcolor="#399de5ff"] ;
646 -> 648 ;
649 [label="asset_cost <= 74087.5\ngini = 0.48\nsamples = 51\nvalue = [42, 27]\nclass = l", fillcolor="#e581395b"] ;
645 -> 649 ;
650 [label="asset_to_loan_pct <= 1.54\ngini = 0.41\nsamples = 34\nvalue = [32, 13]\nclass = l", fillcolor="#e5813997"] ;
649 -> 650 ;
651 [label="age_outstd_ratio <= 0.0\ngini = 0.15\nsamples = 18\nvalue = [22, 2]\nclass = l", fillcolor="#e58139e8"] ;
650 -> 651 ;
652 [label="gini = 0.48\nsamples = 5\nvalue = [3, 2]\nclass = l", fillcolor="#e5813955"] ;
651 -> 652 ;
653 [label="gini = 0.0\nsamples = 13\nvalue = [19, 0]\nclass = l", fillcolor="#e58139ff"] ;
651 -> 653 ;
654 [label="PRI.CURRENT.BALANCE <= 378031.5\ngini = 0.5\nsamples = 16\nvalue = [10, 11]\nclass = o", fillcolor="#399de517"] ;
650 -> 654 ;
655 [label="gini = 0.46\nsamples = 9\nvalue = [7, 4]\nclass = l", fillcolor="#e581396d"] ;
654 -> 655 ;
656 [label="gini = 0.42\nsamples = 7\nvalue = [3, 7]\nclass = o", fillcolor="#399de592"] ;
654 -> 656 ;
657 [label="PRI.DISBURSED.AMOUNT <= 498500.0\ngini = 0.49\nsamples = 17\nvalue = [10, 14]\nclass = o", fillcolor="#399de549"] ;
649 -> 657 ;
658 [label="gini = 0.15\nsamples = 8\nvalue = [1, 11]\nclass = o", fillcolor="#399de5e8"] ;
657 -> 658 ;
659 [label="gini = 0.38\nsamples = 9\nvalue = [9, 3]\nclass = l", fillcolor="#e58139aa"] ;
657 -> 659 ;
660 [label="PRI.NO.OF.ACCTS <= 17.5\ngini = 0.43\nsamples = 758\nvalue = [814, 368]\nclass = l", fillcolor="#e581398c"] ;
642 -> 660 ;
661 [label="avg_credit_hist_mnth <= 60.5\ngini = 0.44\nsamples = 725\nvalue = [764, 360]\nclass = l", fillcolor="#e5813987"] ;
660 -> 661 ;
662 [label="PRI.CURRENT.BALANCE <= 1027502.0\ngini = 0.42\nsamples = 664\nvalue = [722, 308]\nclass = l", fillcolor="#e5813992"] ;
661 -> 662 ;
663 [label="age_outstd_ratio <= 0.0\ngini = 0.41\nsamples = 640\nvalue = [704, 290]\nclass = l", fillcolor="#e5813996"] ;
662 -> 663 ;
664 [label="instalment_health <= 13703.28\ngini = 0.42\nsamples = 615\nvalue = [667, 285]\nclass = l", fillcolor="#e5813992"] ;
663 -> 664 ;
665 [label="Age_when_applying <= 52.8\ngini = 0.46\nsamples = 219\nvalue = [224, 130]\nclass = l", fillcolor="#e581396b"] ;
664 -> 665 ;
666 [label="ltv <= 75.52\ngini = 0.45\nsamples = 204\nvalue = [214, 114]\nclass = l", fillcolor="#e5813977"] ;
665 -> 666 ;
667 [label="age_outstd_ratio <= 0.0\ngini = 0.5\nsamples = 71\nvalue = [57, 50]\nclass = l", fillcolor="#e581391f"] ;
666 -> 667 ;
668 [label="avg_acct_age_mnth <= 16.5\ngini = 0.41\nsamples = 32\nvalue = [30, 12]\nclass = l", fillcolor="#e5813999"] ;
667 -> 668 ;
669 [label="disbursed_amount <= 50441.0\ngini = 0.46\nsamples = 10\nvalue = [5, 9]\nclass = o", fillcolor="#399de571"] ;
668 -> 669 ;
670 [label="gini = 0.22\nsamples = 5\nvalue = [1, 7]\nclass = o", fillcolor="#399de5db"] ;
669 -> 670 ;
671 [label="gini = 0.44\nsamples = 5\nvalue = [4, 2]\nclass = l", fillcolor="#e581397f"] ;
669 -> 671 ;
672 [label="asset_to_loan_pct <= 1.45\ngini = 0.19\nsamples = 22\nvalue = [25, 3]\nclass = l", fillcolor="#e58139e0"] ;
668 -> 672 ;
673 [label="PRI.CURRENT.BALANCE <= 202706.5\ngini = 0.09\nsamples = 16\nvalue = [19, 1]\nclass = l", fillcolor="#e58139f2"] ;
672 -> 673 ;
674 [label="gini = 0.32\nsamples = 5\nvalue = [4, 1]\nclass = l", fillcolor="#e58139bf"] ;
673 -> 674 ;
675 [label="gini = 0.0\nsamples = 11\nvalue = [15, 0]\nclass = l", fillcolor="#e58139ff"] ;
673 -> 675 ;
676 [label="gini = 0.38\nsamples = 6\nvalue = [6, 2]\nclass = l", fillcolor="#e58139aa"] ;
672 -> 676 ;
677 [label="avg_credit_hist_mnth <= 42.0\ngini = 0.49\nsamples = 39\nvalue = [27, 38]\nclass = o", fillcolor="#399de54a"] ;
667 -> 677 ;
678 [label="PRI.DISBURSED.AMOUNT <= 184093.5\ngini = 0.44\nsamples = 33\nvalue = [18, 36]\nclass = o", fillcolor="#399de57f"] ;
677 -> 678 ;
679 [label="PRIMARY.INSTAL.AMT <= 1015.0\ngini = 0.49\nsamples = 13\nvalue = [11, 8]\nclass = l", fillcolor="#e5813946"] ;
678 -> 679 ;
680 [label="gini = 0.38\nsamples = 8\nvalue = [9, 3]\nclass = l", fillcolor="#e58139aa"] ;
679 -> 680 ;
681 [label="gini = 0.41\nsamples = 5\nvalue = [2, 5]\nclass = o", fillcolor="#399de599"] ;
679 -> 681 ;
682 [label="avg_credit_hist_mnth <= 29.0\ngini = 0.32\nsamples = 20\nvalue = [7, 28]\nclass = o", fillcolor="#399de5bf"] ;
678 -> 682 ;
683 [label="Age_when_applying <= 43.0\ngini = 0.43\nsamples = 10\nvalue = [5, 11]\nclass = o", fillcolor="#399de58b"] ;
682 -> 683 ;
684 [label="gini = 0.28\nsamples = 5\nvalue = [5, 1]\nclass = l", fillcolor="#e58139cc"] ;
683 -> 684 ;
685 [label="gini = 0.0\nsamples = 5\nvalue = [0, 10]\nclass = o", fillcolor="#399de5ff"] ;
683 -> 685 ;
686 [label="inst_curr_disb_ratio <= 0.21\ngini = 0.19\nsamples = 10\nvalue = [2, 17]\nclass = o", fillcolor="#399de5e1"] ;
682 -> 686 ;
687 [label="gini = 0.0\nsamples = 5\nvalue = [0, 12]\nclass = o", fillcolor="#399de5ff"] ;
686 -> 687 ;
688 [label="gini = 0.41\nsamples = 5\nvalue = [2, 5]\nclass = o", fillcolor="#399de599"] ;
686 -> 688 ;
689 [label="gini = 0.3\nsamples = 6\nvalue = [9, 2]\nclass = l", fillcolor="#e58139c6"] ;
677 -> 689 ;
690 [label="PRI.SANCTIONED.AMOUNT <= 630280.5\ngini = 0.41\nsamples = 133\nvalue = [157, 64]\nclass = l", fillcolor="#e5813997"] ;
666 -> 690 ;
691 [label="PRIMARY.INSTAL.AMT <= 9971.5\ngini = 0.39\nsamples = 127\nvalue = [155, 57]\nclass = l", fillcolor="#e58139a1"] ;
690 -> 691 ;
692 [label="inst_curr_disb_ratio <= 0.22\ngini = 0.45\nsamples = 95\nvalue = [101, 53]\nclass = l", fillcolor="#e5813979"] ;
691 -> 692 ;
693 [label="PRI.NO.OF.ACCTS <= 9.5\ngini = 0.48\nsamples = 78\nvalue = [75, 50]\nclass = l", fillcolor="#e5813955"] ;
692 -> 693 ;
694 [label="ltv <= 84.25\ngini = 0.46\nsamples = 67\nvalue = [70, 38]\nclass = l", fillcolor="#e5813975"] ;
693 -> 694 ;
695 [label="inst_curr_disb_ratio <= 0.18\ngini = 0.33\nsamples = 36\nvalue = [42, 11]\nclass = l", fillcolor="#e58139bc"] ;
694 -> 695 ;
696 [label="gini = 0.21\nsamples = 23\nvalue = [30, 4]\nclass = l", fillcolor="#e58139dd"] ;
695 -> 696 ;
697 [label="gini = 0.47\nsamples = 13\nvalue = [12, 7]\nclass = l", fillcolor="#e581396a"] ;
695 -> 697 ;
698 [label="PERFORM_CNS.SCORE <= 713.0\ngini = 0.5\nsamples = 31\nvalue = [28, 27]\nclass = l", fillcolor="#e5813909"] ;
694 -> 698 ;
699 [label="gini = 0.36\nsamples = 9\nvalue = [16, 5]\nclass = l", fillcolor="#e58139af"] ;
698 -> 699 ;
700 [label="gini = 0.46\nsamples = 22\nvalue = [12, 22]\nclass = o", fillcolor="#399de574"] ;
698 -> 700 ;
701 [label="PRI.NO.OF.ACCTS <= 12.5\ngini = 0.42\nsamples = 11\nvalue = [5, 12]\nclass = o", fillcolor="#399de595"] ;
693 -> 701 ;
702 [label="gini = 0.18\nsamples = 6\nvalue = [1, 9]\nclass = o", fillcolor="#399de5e3"] ;
701 -> 702 ;
703 [label="gini = 0.49\nsamples = 5\nvalue = [4, 3]\nclass = l", fillcolor="#e5813940"] ;
701 -> 703 ;
704 [label="avg_credit_hist_mnth <= 26.5\ngini = 0.19\nsamples = 17\nvalue = [26, 3]\nclass = l", fillcolor="#e58139e2"] ;
692 -> 704 ;
705 [label="gini = 0.38\nsamples = 5\nvalue = [6, 2]\nclass = l", fillcolor="#e58139aa"] ;
704 -> 705 ;
706 [label="PRI.ACTIVE.ACCTS <= 1.5\ngini = 0.09\nsamples = 12\nvalue = [20, 1]\nclass = l", fillcolor="#e58139f2"] ;
704 -> 706 ;
707 [label="gini = 0.24\nsamples = 6\nvalue = [6, 1]\nclass = l", fillcolor="#e58139d4"] ;
706 -> 707 ;
708 [label="gini = 0.0\nsamples = 6\nvalue = [14, 0]\nclass = l", fillcolor="#e58139ff"] ;
706 -> 708 ;
709 [label="PRIMARY.INSTAL.AMT <= 19183.0\ngini = 0.13\nsamples = 32\nvalue = [54, 4]\nclass = l", fillcolor="#e58139ec"] ;
691 -> 709 ;
710 [label="gini = 0.0\nsamples = 18\nvalue = [37, 0]\nclass = l", fillcolor="#e58139ff"] ;
709 -> 710 ;
711 [label="disbursed_amount <= 56838.0\ngini = 0.31\nsamples = 14\nvalue = [17, 4]\nclass = l", fillcolor="#e58139c3"] ;
709 -> 711 ;
712 [label="gini = 0.0\nsamples = 7\nvalue = [11, 0]\nclass = l", fillcolor="#e58139ff"] ;
711 -> 712 ;
713 [label="gini = 0.48\nsamples = 7\nvalue = [6, 4]\nclass = l", fillcolor="#e5813955"] ;
711 -> 713 ;
714 [label="gini = 0.35\nsamples = 6\nvalue = [2, 7]\nclass = o", fillcolor="#399de5b6"] ;
690 -> 714 ;
715 [label="Employment.Type_Self employed <= 0.5\ngini = 0.47\nsamples = 15\nvalue = [10, 16]\nclass = o", fillcolor="#399de560"] ;
665 -> 715 ;
716 [label="gini = 0.42\nsamples = 6\nvalue = [7, 3]\nclass = l", fillcolor="#e5813992"] ;
715 -> 716 ;
717 [label="gini = 0.3\nsamples = 9\nvalue = [3, 13]\nclass = o", fillcolor="#399de5c4"] ;
715 -> 717 ;
718 [label="disbursed_amount <= 56158.0\ngini = 0.38\nsamples = 396\nvalue = [443, 155]\nclass = l", fillcolor="#e58139a6"] ;
664 -> 718 ;
719 [label="asset_cost <= 59167.5\ngini = 0.33\nsamples = 217\nvalue = [260, 69]\nclass = l", fillcolor="#e58139bb"] ;
718 -> 719 ;
720 [label="ltv <= 84.83\ngini = 0.44\nsamples = 29\nvalue = [31, 15]\nclass = l", fillcolor="#e5813984"] ;
719 -> 720 ;
721 [label="age_outstd_ratio <= 0.0\ngini = 0.31\nsamples = 23\nvalue = [29, 7]\nclass = l", fillcolor="#e58139c1"] ;
720 -> 721 ;
722 [label="gini = 0.49\nsamples = 6\nvalue = [5, 4]\nclass = l", fillcolor="#e5813933"] ;
721 -> 722 ;
723 [label="age_outstd_ratio <= 0.0\ngini = 0.2\nsamples = 17\nvalue = [24, 3]\nclass = l", fillcolor="#e58139df"] ;
721 -> 723 ;
724 [label="gini = 0.0\nsamples = 12\nvalue = [16, 0]\nclass = l", fillcolor="#e58139ff"] ;
723 -> 724 ;
725 [label="gini = 0.4\nsamples = 5\nvalue = [8, 3]\nclass = l", fillcolor="#e581399f"] ;
723 -> 725 ;
726 [label="gini = 0.32\nsamples = 6\nvalue = [2, 8]\nclass = o", fillcolor="#399de5bf"] ;
720 -> 726 ;
727 [label="avg_acct_age_mnth <= 5.5\ngini = 0.31\nsamples = 188\nvalue = [229, 54]\nclass = l", fillcolor="#e58139c3"] ;
719 -> 727 ;
728 [label="PRI.SANCTIONED.AMOUNT <= 325990.5\ngini = 0.47\nsamples = 30\nvalue = [26, 16]\nclass = l", fillcolor="#e5813962"] ;
727 -> 728 ;
729 [label="ltv <= 80.49\ngini = 0.24\nsamples = 16\nvalue = [18, 3]\nclass = l", fillcolor="#e58139d4"] ;
728 -> 729 ;
730 [label="gini = 0.47\nsamples = 7\nvalue = [5, 3]\nclass = l", fillcolor="#e5813966"] ;
729 -> 730 ;
731 [label="gini = 0.0\nsamples = 9\nvalue = [13, 0]\nclass = l", fillcolor="#e58139ff"] ;
729 -> 731 ;
732 [label="Employment.Type_Salaried <= 0.5\ngini = 0.47\nsamples = 14\nvalue = [8, 13]\nclass = o", fillcolor="#399de562"] ;
728 -> 732 ;
733 [label="gini = 0.32\nsamples = 5\nvalue = [4, 1]\nclass = l", fillcolor="#e58139bf"] ;
732 -> 733 ;
734 [label="gini = 0.38\nsamples = 9\nvalue = [4, 12]\nclass = o", fillcolor="#399de5aa"] ;
732 -> 734 ;
735 [label="avg_acct_age_mnth <= 37.5\ngini = 0.27\nsamples = 158\nvalue = [203, 38]\nclass = l", fillcolor="#e58139cf"] ;
727 -> 735 ;
736 [label="avg_acct_age_mnth <= 17.5\ngini = 0.24\nsamples = 148\nvalue = [195, 32]\nclass = l", fillcolor="#e58139d5"] ;
735 -> 736 ;
737 [label="PRIMARY.INSTAL.AMT <= 1503.0\ngini = 0.29\nsamples = 102\nvalue = [125, 27]\nclass = l", fillcolor="#e58139c8"] ;
736 -> 737 ;
738 [label="instalment_health <= 53783.39\ngini = 0.1\nsamples = 36\nvalue = [52, 3]\nclass = l", fillcolor="#e58139f0"] ;
737 -> 738 ;
739 [label="age_outstd_ratio <= 0.0\ngini = 0.05\nsamples = 28\nvalue = [42, 1]\nclass = l", fillcolor="#e58139f9"] ;
738 -> 739 ;
740 [label="gini = 0.0\nsamples = 20\nvalue = [29, 0]\nclass = l", fillcolor="#e58139ff"] ;
739 -> 740 ;
741 [label="gini = 0.13\nsamples = 8\nvalue = [13, 1]\nclass = l", fillcolor="#e58139eb"] ;
739 -> 741 ;
742 [label="gini = 0.28\nsamples = 8\nvalue = [10, 2]\nclass = l", fillcolor="#e58139cc"] ;
738 -> 742 ;
743 [label="PAN_flag <= 0.5\ngini = 0.37\nsamples = 66\nvalue = [73, 24]\nclass = l", fillcolor="#e58139ab"] ;
737 -> 743 ;
744 [label="asset_to_loan_pct <= 1.37\ngini = 0.32\nsamples = 60\nvalue = [71, 18]\nclass = l", fillcolor="#e58139be"] ;
743 -> 744 ;
745 [label="gini = 0.19\nsamples = 37\nvalue = [52, 6]\nclass = l", fillcolor="#e58139e2"] ;
744 -> 745 ;
746 [label="gini = 0.47\nsamples = 23\nvalue = [19, 12]\nclass = l", fillcolor="#e581395e"] ;
744 -> 746 ;
747 [label="gini = 0.38\nsamples = 6\nvalue = [2, 6]\nclass = o", fillcolor="#399de5aa"] ;
743 -> 747 ;
748 [label="PRI.DISBURSED.AMOUNT <= 420000.0\ngini = 0.12\nsamples = 46\nvalue = [70, 5]\nclass = l", fillcolor="#e58139ed"] ;
736 -> 748 ;
749 [label="gini = 0.38\nsamples = 5\nvalue = [6, 2]\nclass = l", fillcolor="#e58139aa"] ;
748 -> 749 ;
750 [label="age_outstd_ratio <= 0.0\ngini = 0.09\nsamples = 41\nvalue = [64, 3]\nclass = l", fillcolor="#e58139f3"] ;
748 -> 750 ;
751 [label="gini = 0.35\nsamples = 7\nvalue = [7, 2]\nclass = l", fillcolor="#e58139b6"] ;
750 -> 751 ;
752 [label="inst_curr_disb_ratio <= 0.32\ngini = 0.03\nsamples = 34\nvalue = [57, 1]\nclass = l", fillcolor="#e58139fb"] ;
750 -> 752 ;
753 [label="gini = 0.2\nsamples = 5\nvalue = [8, 1]\nclass = l", fillcolor="#e58139df"] ;
752 -> 753 ;
754 [label="gini = 0.0\nsamples = 29\nvalue = [49, 0]\nclass = l", fillcolor="#e58139ff"] ;
752 -> 754 ;
755 [label="total_outstanding <= 642002.0\ngini = 0.49\nsamples = 10\nvalue = [8, 6]\nclass = l", fillcolor="#e5813940"] ;
735 -> 755 ;
756 [label="gini = 0.44\nsamples = 5\nvalue = [2, 4]\nclass = o", fillcolor="#399de57f"] ;
755 -> 756 ;
757 [label="gini = 0.38\nsamples = 5\nvalue = [6, 2]\nclass = l", fillcolor="#e58139aa"] ;
755 -> 757 ;
758 [label="PRIMARY.INSTAL.AMT <= 16586.5\ngini = 0.43\nsamples = 179\nvalue = [183, 86]\nclass = l", fillcolor="#e5813987"] ;
718 -> 758 ;
759 [label="ltv <= 89.96\ngini = 0.45\nsamples = 147\nvalue = [149, 78]\nclass = l", fillcolor="#e581397a"] ;
758 -> 759 ;
760 [label="ltv <= 88.8\ngini = 0.46\nsamples = 142\nvalue = [139, 78]\nclass = l", fillcolor="#e5813970"] ;
759 -> 760 ;
761 [label="PRI.NO.OF.ACCTS <= 13.5\ngini = 0.44\nsamples = 124\nvalue = [129, 61]\nclass = l", fillcolor="#e5813986"] ;
760 -> 761 ;
762 [label="asset_cost <= 68085.0\ngini = 0.42\nsamples = 117\nvalue = [126, 53]\nclass = l", fillcolor="#e5813994"] ;
761 -> 762 ;
763 [label="gini = 0.44\nsamples = 8\nvalue = [3, 6]\nclass = o", fillcolor="#399de57f"] ;
762 -> 763 ;
764 [label="PRI.SANCTIONED.AMOUNT <= 1012728.0\ngini = 0.4\nsamples = 109\nvalue = [123, 47]\nclass = l", fillcolor="#e581399e"] ;
762 -> 764 ;
765 [label="PRI.NO.OF.ACCTS <= 7.5\ngini = 0.42\nsamples = 100\nvalue = [111, 47]\nclass = l", fillcolor="#e5813993"] ;
764 -> 765 ;
766 [label="gini = 0.44\nsamples = 88\nvalue = [94, 46]\nclass = l", fillcolor="#e5813982"] ;
765 -> 766 ;
767 [label="gini = 0.1\nsamples = 12\nvalue = [17, 1]\nclass = l", fillcolor="#e58139f0"] ;
765 -> 767 ;
768 [label="gini = 0.0\nsamples = 9\nvalue = [12, 0]\nclass = l", fillcolor="#e58139ff"] ;
764 -> 768 ;
769 [label="gini = 0.4\nsamples = 7\nvalue = [3, 8]\nclass = o", fillcolor="#399de59f"] ;
761 -> 769 ;
770 [label="PRIMARY.INSTAL.AMT <= 8627.5\ngini = 0.47\nsamples = 18\nvalue = [10, 17]\nclass = o", fillcolor="#399de569"] ;
760 -> 770 ;
771 [label="PRI.ACTIVE.ACCTS <= 1.5\ngini = 0.48\nsamples = 12\nvalue = [10, 7]\nclass = l", fillcolor="#e581394d"] ;
770 -> 771 ;
772 [label="gini = 0.22\nsamples = 6\nvalue = [7, 1]\nclass = l", fillcolor="#e58139db"] ;
771 -> 772 ;
773 [label="gini = 0.44\nsamples = 6\nvalue = [3, 6]\nclass = o", fillcolor="#399de57f"] ;
771 -> 773 ;
774 [label="gini = 0.0\nsamples = 6\nvalue = [0, 10]\nclass = o", fillcolor="#399de5ff"] ;
770 -> 774 ;
775 [label="gini = 0.0\nsamples = 5\nvalue = [10, 0]\nclass = l", fillcolor="#e58139ff"] ;
759 -> 775 ;
776 [label="total_outstanding <= 791927.5\ngini = 0.31\nsamples = 32\nvalue = [34, 8]\nclass = l", fillcolor="#e58139c3"] ;
758 -> 776 ;
777 [label="disbursed_amount <= 66753.5\ngini = 0.15\nsamples = 19\nvalue = [23, 2]\nclass = l", fillcolor="#e58139e9"] ;
776 -> 777 ;
778 [label="gini = 0.0\nsamples = 14\nvalue = [18, 0]\nclass = l", fillcolor="#e58139ff"] ;
777 -> 778 ;
779 [label="gini = 0.41\nsamples = 5\nvalue = [5, 2]\nclass = l", fillcolor="#e5813999"] ;
777 -> 779 ;
780 [label="PRI.ACTIVE.ACCTS <= 2.5\ngini = 0.46\nsamples = 13\nvalue = [11, 6]\nclass = l", fillcolor="#e5813974"] ;
776 -> 780 ;
781 [label="gini = 0.47\nsamples = 7\nvalue = [3, 5]\nclass = o", fillcolor="#399de566"] ;
780 -> 781 ;
782 [label="gini = 0.2\nsamples = 6\nvalue = [8, 1]\nclass = l", fillcolor="#e58139df"] ;
780 -> 782 ;
783 [label="PERFORM_CNS.SCORE <= 716.0\ngini = 0.21\nsamples = 25\nvalue = [37, 5]\nclass = l", fillcolor="#e58139dd"] ;
663 -> 783 ;
784 [label="gini = 0.0\nsamples = 10\nvalue = [18, 0]\nclass = l", fillcolor="#e58139ff"] ;
783 -> 784 ;
785 [label="curr_outstd_ratio <= 0.25\ngini = 0.33\nsamples = 15\nvalue = [19, 5]\nclass = l", fillcolor="#e58139bc"] ;
783 -> 785 ;
786 [label="gini = 0.0\nsamples = 7\nvalue = [13, 0]\nclass = l", fillcolor="#e58139ff"] ;
785 -> 786 ;
787 [label="gini = 0.5\nsamples = 8\nvalue = [6, 5]\nclass = l", fillcolor="#e581392a"] ;
785 -> 787 ;
788 [label="PRIMARY.INSTAL.AMT <= 1549.0\ngini = 0.5\nsamples = 24\nvalue = [18, 18]\nclass = l", fillcolor="#e5813900"] ;
662 -> 788 ;
789 [label="gini = 0.38\nsamples = 7\nvalue = [9, 3]\nclass = l", fillcolor="#e58139aa"] ;
788 -> 789 ;
790 [label="asset_cost <= 69381.5\ngini = 0.47\nsamples = 17\nvalue = [9, 15]\nclass = o", fillcolor="#399de566"] ;
788 -> 790 ;
791 [label="gini = 0.3\nsamples = 7\nvalue = [2, 9]\nclass = o", fillcolor="#399de5c6"] ;
790 -> 791 ;
792 [label="NEW.ACCTS.IN.LAST.SIX.MONTHS <= 0.5\ngini = 0.5\nsamples = 10\nvalue = [7, 6]\nclass = l", fillcolor="#e5813924"] ;
790 -> 792 ;
793 [label="gini = 0.0\nsamples = 5\nvalue = [6, 0]\nclass = l", fillcolor="#e58139ff"] ;
792 -> 793 ;
794 [label="gini = 0.24\nsamples = 5\nvalue = [1, 6]\nclass = o", fillcolor="#399de5d4"] ;
792 -> 794 ;
795 [label="Age_when_applying <= 45.45\ngini = 0.49\nsamples = 61\nvalue = [42, 52]\nclass = o", fillcolor="#399de531"] ;
661 -> 795 ;
796 [label="PRIMARY.INSTAL.AMT <= 6216.5\ngini = 0.5\nsamples = 45\nvalue = [37, 32]\nclass = l", fillcolor="#e5813922"] ;
795 -> 796 ;
797 [label="PRI.NO.OF.ACCTS <= 3.5\ngini = 0.49\nsamples = 29\nvalue = [19, 26]\nclass = o", fillcolor="#399de545"] ;
796 -> 797 ;
798 [label="PRI.ACTIVE.ACCTS <= 1.5\ngini = 0.33\nsamples = 11\nvalue = [4, 15]\nclass = o", fillcolor="#399de5bb"] ;
797 -> 798 ;
799 [label="gini = 0.15\nsamples = 6\nvalue = [1, 11]\nclass = o", fillcolor="#399de5e8"] ;
798 -> 799 ;
800 [label="gini = 0.49\nsamples = 5\nvalue = [3, 4]\nclass = o", fillcolor="#399de540"] ;
798 -> 800 ;
801 [label="Age_when_applying <= 38.11\ngini = 0.49\nsamples = 18\nvalue = [15, 11]\nclass = l", fillcolor="#e5813944"] ;
797 -> 801 ;
802 [label="asset_to_loan_pct <= 1.27\ngini = 0.48\nsamples = 13\nvalue = [7, 11]\nclass = o", fillcolor="#399de55d"] ;
801 -> 802 ;
803 [label="gini = 0.44\nsamples = 5\nvalue = [4, 2]\nclass = l", fillcolor="#e581397f"] ;
802 -> 803 ;
804 [label="gini = 0.38\nsamples = 8\nvalue = [3, 9]\nclass = o", fillcolor="#399de5aa"] ;
802 -> 804 ;
805 [label="gini = 0.0\nsamples = 5\nvalue = [8, 0]\nclass = l", fillcolor="#e58139ff"] ;
801 -> 805 ;
806 [label="age_outstd_ratio <= 0.0\ngini = 0.38\nsamples = 16\nvalue = [18, 6]\nclass = l", fillcolor="#e58139aa"] ;
796 -> 806 ;
807 [label="gini = 0.41\nsamples = 5\nvalue = [2, 5]\nclass = o", fillcolor="#399de599"] ;
806 -> 807 ;
808 [label="age_outstd_ratio <= 0.0\ngini = 0.11\nsamples = 11\nvalue = [16, 1]\nclass = l", fillcolor="#e58139ef"] ;
806 -> 808 ;
809 [label="gini = 0.28\nsamples = 6\nvalue = [5, 1]\nclass = l", fillcolor="#e58139cc"] ;
808 -> 809 ;
810 [label="gini = 0.0\nsamples = 5\nvalue = [11, 0]\nclass = l", fillcolor="#e58139ff"] ;
808 -> 810 ;
811 [label="curr_outstd_ratio <= 0.15\ngini = 0.32\nsamples = 16\nvalue = [5, 20]\nclass = o", fillcolor="#399de5bf"] ;
795 -> 811 ;
812 [label="gini = 0.12\nsamples = 9\nvalue = [1, 14]\nclass = o", fillcolor="#399de5ed"] ;
811 -> 812 ;
813 [label="gini = 0.48\nsamples = 7\nvalue = [4, 6]\nclass = o", fillcolor="#399de555"] ;
811 -> 813 ;
814 [label="curr_outstd_ratio <= 0.19\ngini = 0.24\nsamples = 33\nvalue = [50, 8]\nclass = l", fillcolor="#e58139d6"] ;
660 -> 814 ;
815 [label="PRI.ACTIVE.ACCTS <= 9.5\ngini = 0.13\nsamples = 22\nvalue = [40, 3]\nclass = l", fillcolor="#e58139ec"] ;
814 -> 815 ;
816 [label="Age_when_applying <= 32.69\ngini = 0.06\nsamples = 16\nvalue = [33, 1]\nclass = l", fillcolor="#e58139f7"] ;
815 -> 816 ;
817 [label="gini = 0.17\nsamples = 5\nvalue = [10, 1]\nclass = l", fillcolor="#e58139e6"] ;
816 -> 817 ;
818 [label="gini = 0.0\nsamples = 11\nvalue = [23, 0]\nclass = l", fillcolor="#e58139ff"] ;
816 -> 818 ;
819 [label="gini = 0.35\nsamples = 6\nvalue = [7, 2]\nclass = l", fillcolor="#e58139b6"] ;
815 -> 819 ;
820 [label="curr_outstd_ratio <= 0.23\ngini = 0.44\nsamples = 11\nvalue = [10, 5]\nclass = l", fillcolor="#e581397f"] ;
814 -> 820 ;
821 [label="gini = 0.44\nsamples = 5\nvalue = [2, 4]\nclass = o", fillcolor="#399de57f"] ;
820 -> 821 ;
822 [label="gini = 0.2\nsamples = 6\nvalue = [8, 1]\nclass = l", fillcolor="#e58139df"] ;
820 -> 822 ;
823 [label="asset_to_loan_pct <= 1.24\ngini = 0.27\nsamples = 101\nvalue = [150, 28]\nclass = l", fillcolor="#e58139cf"] ;
593 -> 823 ;
824 [label="asset_cost <= 71306.0\ngini = 0.47\nsamples = 19\nvalue = [19, 12]\nclass = l", fillcolor="#e581395e"] ;
823 -> 824 ;
825 [label="asset_to_loan_pct <= 1.13\ngini = 0.4\nsamples = 14\nvalue = [16, 6]\nclass = l", fillcolor="#e581399f"] ;
824 -> 825 ;
826 [label="gini = 0.0\nsamples = 5\nvalue = [7, 0]\nclass = l", fillcolor="#e58139ff"] ;
825 -> 826 ;
827 [label="gini = 0.48\nsamples = 9\nvalue = [9, 6]\nclass = l", fillcolor="#e5813955"] ;
825 -> 827 ;
828 [label="gini = 0.44\nsamples = 5\nvalue = [3, 6]\nclass = o", fillcolor="#399de57f"] ;
824 -> 828 ;
829 [label="instalment_health <= 43917.82\ngini = 0.19\nsamples = 82\nvalue = [131, 16]\nclass = l", fillcolor="#e58139e0"] ;
823 -> 829 ;
830 [label="inst_curr_disb_ratio <= 0.28\ngini = 0.17\nsamples = 77\nvalue = [127, 13]\nclass = l", fillcolor="#e58139e5"] ;
829 -> 830 ;
831 [label="PERFORM_CNS.SCORE <= 827.5\ngini = 0.29\nsamples = 43\nvalue = [61, 13]\nclass = l", fillcolor="#e58139c9"] ;
830 -> 831 ;
832 [label="asset_to_loan_pct <= 1.35\ngini = 0.19\nsamples = 37\nvalue = [58, 7]\nclass = l", fillcolor="#e58139e0"] ;
831 -> 832 ;
833 [label="gini = 0.0\nsamples = 16\nvalue = [24, 0]\nclass = l", fillcolor="#e58139ff"] ;
832 -> 833 ;
834 [label="Aadhar_flag <= 0.5\ngini = 0.28\nsamples = 21\nvalue = [34, 7]\nclass = l", fillcolor="#e58139ca"] ;
832 -> 834 ;
835 [label="gini = 0.49\nsamples = 5\nvalue = [5, 4]\nclass = l", fillcolor="#e5813933"] ;
834 -> 835 ;
836 [label="asset_to_loan_pct <= 1.67\ngini = 0.17\nsamples = 16\nvalue = [29, 3]\nclass = l", fillcolor="#e58139e5"] ;
834 -> 836 ;
