digraph Tree {
node [shape=box, style="rounded", color="black", fontname=helvetica] ;
edge [fontname=helvetica] ;
0 [label="def_pct_by_state <= 0.3\ngini = 0.5\nsamples = 75916\nvalue = [37958, 37958]"] ;
1 [label="disbursed_amount <= 48810.5\ngini = 0.5\nsamples = 62937\nvalue = [32707, 30230]"] ;
0 -> 1 [labeldistance=2.5, labelangle=45, headlabel="True"] ;
2 [label="def_pct_by_pin <= 0.3\ngini = 0.5\nsamples = 17994\nvalue = [10883, 7111]"] ;
1 -> 2 ;
3 [label="credit_score <= 517.5\ngini = 0.4\nsamples = 13962\nvalue = [9198, 4764]"] ;
2 -> 3 ;
4 [label="def_pct_by_manufacturer <= 0.2\ngini = 0.5\nsamples = 1159\nvalue = [605, 554]"] ;
3 -> 4 ;
5 [label="def_pct_by_supplier <= 0.2\ngini = 0.5\nsamples = 446\nvalue = [247, 199]"] ;
4 -> 5 ;
6 [label="instalment_health <= 12627.3\ngini = 0.5\nsamples = 236\nvalue = [147, 89]"] ;
5 -> 6 ;
7 [label="ltv <= 64.2\ngini = 0.5\nsamples = 162\nvalue = [92, 70]"] ;
6 -> 7 ;
8 [label="total_outstanding <= 295520.5\ngini = 0.4\nsamples = 47\nvalue = [36, 11]"] ;
7 -> 8 ;
9 [label="def_pct_by_pin <= 0.2\ngini = 0.3\nsamples = 39\nvalue = [33, 6]"] ;
8 -> 9 ;
10 [label="inst_curr_disb_ratio <= 0.0\ngini = 0.4\nsamples = 25\nvalue = [19, 6]"] ;
9 -> 10 ;
11 [label="asset_to_loan_pct <= 2.1\ngini = 0.1\nsamples = 14\nvalue = [13, 1]"] ;
10 -> 11 ;
12 [label="gini = 0.0\nsamples = 10\nvalue = [10, 0]"] ;
11 -> 12 ;
13 [label="gini = 0.4\nsamples = 4\nvalue = [3, 1]"] ;
11 -> 13 ;
14 [label="disbursed_amount <= 40394.0\ngini = 0.5\nsamples = 11\nvalue = [6, 5]"] ;
10 -> 14 ;
15 [label="gini = 0.4\nsamples = 7\nvalue = [2, 5]"] ;
14 -> 15 ;
16 [label="gini = 0.0\nsamples = 4\nvalue = [4, 0]"] ;
14 -> 16 ;
17 [label="gini = 0.0\nsamples = 14\nvalue = [14, 0]"] ;
9 -> 17 ;
18 [label="gini = 0.5\nsamples = 8\nvalue = [3, 5]"] ;
8 -> 18 ;
19 [label="def_pct_by_emp <= 0.2\ngini = 0.5\nsamples = 115\nvalue = [56, 59]"] ;
7 -> 19 ;
20 [label="disbursed_amount <= 45999.0\ngini = 0.5\nsamples = 77\nvalue = [43, 34]"] ;
19 -> 20 ;
21 [label="def_pct_by_supplier <= 0.1\ngini = 0.5\nsamples = 33\nvalue = [14, 19]"] ;
20 -> 21 ;
22 [label="gini = 0.0\nsamples = 5\nvalue = [0, 5]"] ;
21 -> 22 ;
23 [label="PRI.NO.OF.ACCTS <= 6.5\ngini = 0.5\nsamples = 28\nvalue = [14, 14]"] ;
21 -> 23 ;
24 [label="total_outstanding <= 116490.0\ngini = 0.4\nsamples = 16\nvalue = [11, 5]"] ;
23 -> 24 ;
25 [label="def_pct_by_state <= 0.2\ngini = 0.5\nsamples = 11\nvalue = [6, 5]"] ;
24 -> 25 ;
26 [label="gini = 0.3\nsamples = 5\nvalue = [4, 1]"] ;
25 -> 26 ;
27 [label="gini = 0.4\nsamples = 6\nvalue = [2, 4]"] ;
25 -> 27 ;
28 [label="gini = 0.0\nsamples = 5\nvalue = [5, 0]"] ;
24 -> 28 ;
29 [label="ltv <= 69.1\ngini = 0.4\nsamples = 12\nvalue = [3, 9]"] ;
23 -> 29 ;
30 [label="gini = 0.0\nsamples = 5\nvalue = [0, 5]"] ;
29 -> 30 ;
31 [label="gini = 0.5\nsamples = 7\nvalue = [3, 4]"] ;
29 -> 31 ;
32 [label="PRI.ACTIVE.ACCTS <= 0.5\ngini = 0.4\nsamples = 44\nvalue = [29, 15]"] ;
20 -> 32 ;
33 [label="gini = 0.0\nsamples = 6\nvalue = [6, 0]"] ;
32 -> 33 ;
34 [label="total_outstanding <= 56966.0\ngini = 0.5\nsamples = 38\nvalue = [23, 15]"] ;
32 -> 34 ;
35 [label="gini = 0.0\nsamples = 4\nvalue = [0, 4]"] ;
34 -> 35 ;
36 [label="PRI.CURRENT.BALANCE <= 197293.5\ngini = 0.4\nsamples = 34\nvalue = [23, 11]"] ;
34 -> 36 ;
37 [label="avg_acct_age_mnth <= 15.5\ngini = 0.5\nsamples = 27\nvalue = [16, 11]"] ;
36 -> 37 ;
38 [label="PRI.CURRENT.BALANCE <= 34870.0\ngini = 0.5\nsamples = 10\nvalue = [4, 6]"] ;
37 -> 38 ;
39 [label="gini = 0.4\nsamples = 4\nvalue = [3, 1]"] ;
38 -> 39 ;
40 [label="gini = 0.3\nsamples = 6\nvalue = [1, 5]"] ;
38 -> 40 ;
41 [label="avg_acct_age_mnth <= 17.5\ngini = 0.4\nsamples = 17\nvalue = [12, 5]"] ;
37 -> 41 ;
42 [label="gini = 0.0\nsamples = 4\nvalue = [4, 0]"] ;
41 -> 42 ;
43 [label="gini = 0.5\nsamples = 13\nvalue = [8, 5]"] ;
41 -> 43 ;
44 [label="gini = 0.0\nsamples = 7\nvalue = [7, 0]"] ;
36 -> 44 ;
45 [label="PRI.ACTIVE.ACCTS <= 2.5\ngini = 0.5\nsamples = 38\nvalue = [13, 25]"] ;
19 -> 45 ;
46 [label="inst_curr_disb_ratio <= 0.0\ngini = 0.5\nsamples = 29\nvalue = [12, 17]"] ;
45 -> 46 ;
47 [label="inst_curr_disb_ratio <= 0.0\ngini = 0.4\nsamples = 13\nvalue = [3, 10]"] ;
46 -> 47 ;
48 [label="gini = 0.5\nsamples = 8\nvalue = [3, 5]"] ;
47 -> 48 ;
49 [label="gini = 0.0\nsamples = 5\nvalue = [0, 5]"] ;
47 -> 49 ;
50 [label="NEW.ACCTS.IN.LAST.SIX.MONTHS <= 0.5\ngini = 0.5\nsamples = 16\nvalue = [9, 7]"] ;
46 -> 50 ;
51 [label="avg_acct_age_mnth <= 26.0\ngini = 0.5\nsamples = 12\nvalue = [5, 7]"] ;
50 -> 51 ;
52 [label="gini = 0.2\nsamples = 8\nvalue = [1, 7]"] ;
51 -> 52 ;
53 [label="gini = 0.0\nsamples = 4\nvalue = [4, 0]"] ;
51 -> 53 ;
54 [label="gini = 0.0\nsamples = 4\nvalue = [4, 0]"] ;
50 -> 54 ;
55 [label="gini = 0.2\nsamples = 9\nvalue = [1, 8]"] ;
45 -> 55 ;
56 [label="PRI.CURRENT.BALANCE <= 4314087.5\ngini = 0.4\nsamples = 74\nvalue = [55, 19]"] ;
6 -> 56 ;
57 [label="disbursed_amount <= 28479.0\ngini = 0.3\nsamples = 67\nvalue = [53, 14]"] ;
56 -> 57 ;
58 [label="gini = 0.5\nsamples = 4\nvalue = [2, 2]"] ;
57 -> 58 ;
59 [label="avg_credit_hist_mnth <= 122.5\ngini = 0.3\nsamples = 63\nvalue = [51, 12]"] ;
57 -> 59 ;
60 [label="instalment_health <= 15804.8\ngini = 0.3\nsamples = 58\nvalue = [49, 9]"] ;
59 -> 60 ;
61 [label="gini = 0.0\nsamples = 10\nvalue = [10, 0]"] ;
60 -> 61 ;
62 [label="PRIMARY.INSTAL.AMT <= 10002.5\ngini = 0.3\nsamples = 48\nvalue = [39, 9]"] ;
60 -> 62 ;
63 [label="avg_acct_age_mnth <= 11.0\ngini = 0.1\nsamples = 18\nvalue = [17, 1]"] ;
62 -> 63 ;
64 [label="gini = 0.3\nsamples = 6\nvalue = [5, 1]"] ;
63 -> 64 ;
65 [label="gini = 0.0\nsamples = 12\nvalue = [12, 0]"] ;
63 -> 65 ;
66 [label="instalment_health <= 24286.7\ngini = 0.4\nsamples = 30\nvalue = [22, 8]"] ;
62 -> 66 ;
67 [label="gini = 0.4\nsamples = 6\nvalue = [2, 4]"] ;
66 -> 67 ;
68 [label="asset_to_loan_pct <= 1.4\ngini = 0.3\nsamples = 24\nvalue = [20, 4]"] ;
66 -> 68 ;
69 [label="gini = 0.5\nsamples = 7\nvalue = [3, 4]"] ;
68 -> 69 ;
70 [label="gini = 0.0\nsamples = 17\nvalue = [17, 0]"] ;
68 -> 70 ;
71 [label="gini = 0.5\nsamples = 5\nvalue = [2, 3]"] ;
59 -> 71 ;
72 [label="gini = 0.4\nsamples = 7\nvalue = [2, 5]"] ;
56 -> 72 ;
73 [label="asset_cost <= 60922.5\ngini = 0.5\nsamples = 210\nvalue = [100, 110]"] ;
5 -> 73 ;
74 [label="def_pct_by_branch <= 0.2\ngini = 0.3\nsamples = 23\nvalue = [4, 19]"] ;
73 -> 74 ;
75 [label="gini = 0.5\nsamples = 6\nvalue = [3, 3]"] ;
74 -> 75 ;
76 [label="Age_when_applying <= 50.4\ngini = 0.1\nsamples = 17\nvalue = [1, 16]"] ;
74 -> 76 ;
77 [label="gini = 0.0\nsamples = 13\nvalue = [0, 13]"] ;
76 -> 77 ;
78 [label="gini = 0.4\nsamples = 4\nvalue = [1, 3]"] ;
76 -> 78 ;
79 [label="disbursed_amount <= 29966.5\ngini = 0.5\nsamples = 187\nvalue = [96, 91]"] ;
73 -> 79 ;
80 [label="gini = 0.0\nsamples = 6\nvalue = [0, 6]"] ;
79 -> 80 ;
81 [label="PRIMARY.INSTAL.AMT <= 5286.0\ngini = 0.5\nsamples = 181\nvalue = [96, 85]"] ;
79 -> 81 ;
82 [label="PRIMARY.INSTAL.AMT <= 1993.0\ngini = 0.5\nsamples = 91\nvalue = [38, 53]"] ;
81 -> 82 ;
83 [label="NO.OF_INQUIRIES <= 0.5\ngini = 0.5\nsamples = 57\nvalue = [29, 28]"] ;
82 -> 83 ;
84 [label="inst_curr_disb_ratio <= 0.1\ngini = 0.5\nsamples = 49\nvalue = [22, 27]"] ;
83 -> 84 ;
85 [label="PRI.NO.OF.ACCTS <= 1.5\ngini = 0.5\nsamples = 44\nvalue = [22, 22]"] ;
84 -> 85 ;
86 [label="asset_cost <= 68950.0\ngini = 0.5\nsamples = 20\nvalue = [7, 13]"] ;
85 -> 86 ;
87 [label="PRI.SANCTIONED.AMOUNT <= 42005.0\ngini = 0.3\nsamples = 12\nvalue = [2, 10]"] ;
86 -> 87 ;
88 [label="gini = 0.0\nsamples = 8\nvalue = [0, 8]"] ;
87 -> 88 ;
89 [label="gini = 0.5\nsamples = 4\nvalue = [2, 2]"] ;
87 -> 89 ;
90 [label="gini = 0.5\nsamples = 8\nvalue = [5, 3]"] ;
86 -> 90 ;
91 [label="total_outstanding <= 42393.5\ngini = 0.5\nsamples = 24\nvalue = [15, 9]"] ;
85 -> 91 ;
92 [label="gini = 0.4\nsamples = 4\nvalue = [1, 3]"] ;
91 -> 92 ;
93 [label="PRI.ACTIVE.ACCTS <= 1.5\ngini = 0.4\nsamples = 20\nvalue = [14, 6]"] ;
91 -> 93 ;
94 [label="gini = 0.2\nsamples = 10\nvalue = [9, 1]"] ;
93 -> 94 ;
95 [label="gini = 0.5\nsamples = 10\nvalue = [5, 5]"] ;
93 -> 95 ;
96 [label="gini = 0.0\nsamples = 5\nvalue = [0, 5]"] ;
84 -> 96 ;
97 [label="gini = 0.2\nsamples = 8\nvalue = [7, 1]"] ;
83 -> 97 ;
98 [label="asset_to_loan_pct <= 1.4\ngini = 0.4\nsamples = 34\nvalue = [9, 25]"] ;
82 -> 98 ;
99 [label="gini = 0.0\nsamples = 12\nvalue = [0, 12]"] ;
98 -> 99 ;
100 [label="def_pct_by_emp <= 0.2\ngini = 0.5\nsamples = 22\nvalue = [9, 13]"] ;
98 -> 100 ;
101 [label="gini = 0.3\nsamples = 6\nvalue = [5, 1]"] ;
100 -> 101 ;
102 [label="age_outstd_ratio <= 0.0\ngini = 0.4\nsamples = 16\nvalue = [4, 12]"] ;
100 -> 102 ;
103 [label="gini = 0.0\nsamples = 7\nvalue = [0, 7]"] ;
102 -> 103 ;
104 [label="gini = 0.5\nsamples = 9\nvalue = [4, 5]"] ;
102 -> 104 ;
105 [label="PRI.CURRENT.BALANCE <= 6713705.0\ngini = 0.5\nsamples = 90\nvalue = [58, 32]"] ;
81 -> 105 ;
106 [label="asset_cost <= 66726.5\ngini = 0.4\nsamples = 86\nvalue = [58, 28]"] ;
105 -> 106 ;
107 [label="disbursed_amount <= 47997.0\ngini = 0.2\nsamples = 29\nvalue = [25, 4]"] ;
106 -> 107 ;
108 [label="def_pct_by_state <= 0.2\ngini = 0.1\nsamples = 25\nvalue = [23, 2]"] ;
107 -> 108 ;
109 [label="gini = 0.3\nsamples = 9\nvalue = [7, 2]"] ;
108 -> 109 ;
110 [label="gini = 0.0\nsamples = 16\nvalue = [16, 0]"] ;
108 -> 110 ;
111 [label="gini = 0.5\nsamples = 4\nvalue = [2, 2]"] ;
107 -> 111 ;
112 [label="VoterID_flag <= 0.5\ngini = 0.5\nsamples = 57\nvalue = [33, 24]"] ;
106 -> 112 ;
113 [label="prim_overdue_acct_pct <= 0.1\ngini = 0.5\nsamples = 50\nvalue = [32, 18]"] ;
112 -> 113 ;
114 [label="avg_acct_age_mnth <= 19.5\ngini = 0.2\nsamples = 16\nvalue = [14, 2]"] ;
113 -> 114 ;
115 [label="gini = 0.0\nsamples = 9\nvalue = [9, 0]"] ;
114 -> 115 ;
116 [label="gini = 0.4\nsamples = 7\nvalue = [5, 2]"] ;
114 -> 116 ;
117 [label="disbursed_amount <= 36021.5\ngini = 0.5\nsamples = 34\nvalue = [18, 16]"] ;
113 -> 117 ;
118 [label="gini = 0.0\nsamples = 4\nvalue = [4, 0]"] ;
117 -> 118 ;
119 [label="disbursed_amount <= 40544.0\ngini = 0.5\nsamples = 30\nvalue = [14, 16]"] ;
117 -> 119 ;
120 [label="gini = 0.3\nsamples = 6\nvalue = [1, 5]"] ;
119 -> 120 ;
121 [label="gini = 0.5\nsamples = 24\nvalue = [13, 11]"] ;
119 -> 121 ;
122 [label="gini = 0.2\nsamples = 7\nvalue = [1, 6]"] ;
112 -> 122 ;
123 [label="gini = 0.0\nsamples = 4\nvalue = [0, 4]"] ;
105 -> 123 ;
124 [label="def_pct_by_emp <= 0.2\ngini = 0.5\nsamples = 713\nvalue = [358, 355]"] ;
4 -> 124 ;
125 [label="PRI.SANCTIONED.AMOUNT <= 86072.0\ngini = 0.5\nsamples = 272\nvalue = [174, 98]"] ;
124 -> 125 ;
126 [label="age_outstd_ratio <= 0.0\ngini = 0.5\nsamples = 115\nvalue = [61, 54]"] ;
125 -> 126 ;
127 [label="instalment_health <= 1426.8\ngini = 0.5\nsamples = 106\nvalue = [52, 54]"] ;
126 -> 127 ;
128 [label="inst_curr_disb_ratio <= 0.0\ngini = 0.5\nsamples = 71\nvalue = [40, 31]"] ;
127 -> 128 ;
129 [label="Age_when_applying <= 50.7\ngini = 0.5\nsamples = 56\nvalue = [28, 28]"] ;
128 -> 129 ;
130 [label="def_pct_by_manufacturer <= 0.3\ngini = 0.5\nsamples = 52\nvalue = [24, 28]"] ;
129 -> 130 ;
131 [label="def_pct_by_branch <= 0.2\ngini = 0.5\nsamples = 47\nvalue = [20, 27]"] ;
130 -> 131 ;
132 [label="ltv <= 65.5\ngini = 0.3\nsamples = 19\nvalue = [4, 15]"] ;
131 -> 132 ;
133 [label="gini = 0.5\nsamples = 4\nvalue = [2, 2]"] ;
132 -> 133 ;
134 [label="asset_cost <= 61927.5\ngini = 0.2\nsamples = 15\nvalue = [2, 13]"] ;
132 -> 134 ;
135 [label="gini = 0.0\nsamples = 9\nvalue = [0, 9]"] ;
134 -> 135 ;
136 [label="gini = 0.4\nsamples = 6\nvalue = [2, 4]"] ;
134 -> 136 ;
137 [label="PRI.NO.OF.ACCTS <= 8.5\ngini = 0.5\nsamples = 28\nvalue = [16, 12]"] ;
131 -> 137 ;
138 [label="prim_overdue_acct_pct <= 0.4\ngini = 0.5\nsamples = 24\nvalue = [12, 12]"] ;
137 -> 138 ;
139 [label="gini = 0.2\nsamples = 7\nvalue = [1, 6]"] ;
138 -> 139 ;
140 [label="gini = 0.5\nsamples = 17\nvalue = [11, 6]"] ;
138 -> 140 ;
141 [label="gini = 0.0\nsamples = 4\nvalue = [4, 0]"] ;
137 -> 141 ;
142 [label="gini = 0.3\nsamples = 5\nvalue = [4, 1]"] ;
130 -> 142 ;
143 [label="gini = 0.0\nsamples = 4\nvalue = [4, 0]"] ;
129 -> 143 ;
144 [label="disbursed_amount <= 38433.0\ngini = 0.3\nsamples = 15\nvalue = [12, 3]"] ;
128 -> 144 ;
145 [label="gini = 0.5\nsamples = 4\nvalue = [2, 2]"] ;
144 -> 145 ;
146 [label="def_pct_by_pin <= 0.1\ngini = 0.2\nsamples = 11\nvalue = [10, 1]"] ;
144 -> 146 ;
147 [label="gini = 0.4\nsamples = 4\nvalue = [3, 1]"] ;
146 -> 147 ;
148 [label="gini = 0.0\nsamples = 7\nvalue = [7, 0]"] ;
146 -> 148 ;
149 [label="PRI.DISBURSED.AMOUNT <= 44180.0\ngini = 0.5\nsamples = 35\nvalue = [12, 23]"] ;
127 -> 149 ;
150 [label="age_outstd_ratio <= 0.0\ngini = 0.2\nsamples = 10\nvalue = [1, 9]"] ;
149 -> 150 ;
151 [label="gini = 0.0\nsamples = 6\nvalue = [0, 6]"] ;
150 -> 151 ;
152 [label="gini = 0.4\nsamples = 4\nvalue = [1, 3]"] ;
150 -> 152 ;
153 [label="instalment_health <= 1751.9\ngini = 0.5\nsamples = 25\nvalue = [11, 14]"] ;
149 -> 153 ;
154 [label="gini = 0.0\nsamples = 4\nvalue = [0, 4]"] ;
153 -> 154 ;
155 [label="def_pct_by_branch <= 0.2\ngini = 0.5\nsamples = 21\nvalue = [11, 10]"] ;
153 -> 155 ;
156 [label="credit_score_desc_High Risk <= 0.5\ngini = 0.5\nsamples = 14\nvalue = [9, 5]"] ;
155 -> 156 ;
157 [label="gini = 0.4\nsamples = 8\nvalue = [6, 2]"] ;
156 -> 157 ;
158 [label="gini = 0.5\nsamples = 6\nvalue = [3, 3]"] ;
156 -> 158 ;
159 [label="gini = 0.4\nsamples = 7\nvalue = [2, 5]"] ;
155 -> 159 ;
160 [label="gini = 0.0\nsamples = 9\nvalue = [9, 0]"] ;
126 -> 160 ;
161 [label="ltv <= 84.8\ngini = 0.4\nsamples = 157\nvalue = [113, 44]"] ;
125 -> 161 ;
162 [label="Age_when_applying <= 28.3\ngini = 0.4\nsamples = 151\nvalue = [111, 40]"] ;
161 -> 162 ;
163 [label="avg_acct_age_mnth <= 19.0\ngini = 0.5\nsamples = 24\nvalue = [13, 11]"] ;
162 -> 163 ;
164 [label="total_outstanding <= 509439.0\ngini = 0.4\nsamples = 13\nvalue = [10, 3]"] ;
163 -> 164 ;
165 [label="gini = 0.0\nsamples = 7\nvalue = [7, 0]"] ;
164 -> 165 ;
166 [label="gini = 0.5\nsamples = 6\nvalue = [3, 3]"] ;
164 -> 166 ;
167 [label="curr_outstd_ratio <= 0.3\ngini = 0.4\nsamples = 11\nvalue = [3, 8]"] ;
163 -> 167 ;
168 [label="gini = 0.5\nsamples = 6\nvalue = [3, 3]"] ;
167 -> 168 ;
169 [label="gini = 0.0\nsamples = 5\nvalue = [0, 5]"] ;
167 -> 169 ;
170 [label="credit_score <= 480.0\ngini = 0.4\nsamples = 127\nvalue = [98, 29]"] ;
162 -> 170 ;
171 [label="Age_when_applying <= 52.5\ngini = 0.3\nsamples = 112\nvalue = [90, 22]"] ;
170 -> 171 ;
172 [label="credit_score_desc_Medium Risk <= 0.5\ngini = 0.3\nsamples = 101\nvalue = [79, 22]"] ;
171 -> 172 ;
173 [label="ltv <= 61.8\ngini = 0.4\nsamples = 39\nvalue = [28, 11]"] ;
172 -> 173 ;
174 [label="gini = 0.4\nsamples = 9\nvalue = [3, 6]"] ;
173 -> 174 ;
175 [label="ltv <= 71.6\ngini = 0.3\nsamples = 30\nvalue = [25, 5]"] ;
173 -> 175 ;
176 [label="gini = 0.0\nsamples = 11\nvalue = [11, 0]"] ;
175 -> 176 ;
177 [label="def_pct_by_branch <= 0.2\ngini = 0.4\nsamples = 19\nvalue = [14, 5]"] ;
175 -> 177 ;
178 [label="gini = 0.3\nsamples = 12\nvalue = [10, 2]"] ;
177 -> 178 ;
179 [label="gini = 0.5\nsamples = 7\nvalue = [4, 3]"] ;
177 -> 179 ;
180 [label="def_pct_by_pin <= 0.2\ngini = 0.3\nsamples = 62\nvalue = [51, 11]"] ;
172 -> 180 ;
181 [label="ltv <= 79.6\ngini = 0.3\nsamples = 49\nvalue = [38, 11]"] ;
180 -> 181 ;
182 [label="asset_to_loan_pct <= 1.5\ngini = 0.3\nsamples = 45\nvalue = [37, 8]"] ;
181 -> 182 ;
183 [label="gini = 0.4\nsamples = 21\nvalue = [15, 6]"] ;
182 -> 183 ;
184 [label="gini = 0.2\nsamples = 24\nvalue = [22, 2]"] ;
182 -> 184 ;
185 [label="gini = 0.4\nsamples = 4\nvalue = [1, 3]"] ;
181 -> 185 ;
186 [label="gini = 0.0\nsamples = 13\nvalue = [13, 0]"] ;
180 -> 186 ;
187 [label="gini = 0.0\nsamples = 11\nvalue = [11, 0]"] ;
171 -> 187 ;
188 [label="inst_curr_disb_ratio <= 0.3\ngini = 0.5\nsamples = 15\nvalue = [8, 7]"] ;
170 -> 188 ;
189 [label="gini = 0.0\nsamples = 5\nvalue = [5, 0]"] ;
188 -> 189 ;
190 [label="ltv <= 63.5\ngini = 0.4\nsamples = 10\nvalue = [3, 7]"] ;
188 -> 190 ;
191 [label="gini = 0.0\nsamples = 4\nvalue = [0, 4]"] ;
190 -> 191 ;
192 [label="gini = 0.5\nsamples = 6\nvalue = [3, 3]"] ;
190 -> 192 ;
193 [label="gini = 0.4\nsamples = 6\nvalue = [2, 4]"] ;
161 -> 193 ;
194 [label="avg_acct_age_mnth <= 15.5\ngini = 0.5\nsamples = 441\nvalue = [184, 257]"] ;
124 -> 194 ;
195 [label="def_pct_by_pin <= 0.1\ngini = 0.4\nsamples = 171\nvalue = [53, 118]"] ;
194 -> 195 ;
196 [label="instalment_health <= 8412.1\ngini = 0.4\nsamples = 11\nvalue = [8, 3]"] ;
195 -> 196 ;
197 [label="gini = 0.0\nsamples = 4\nvalue = [4, 0]"] ;
196 -> 197 ;
198 [label="gini = 0.5\nsamples = 7\nvalue = [4, 3]"] ;
196 -> 198 ;
199 [label="asset_cost <= 61764.5\ngini = 0.4\nsamples = 160\nvalue = [45, 115]"] ;
195 -> 199 ;
200 [label="PRI.CURRENT.BALANCE <= 20067.0\ngini = 0.3\nsamples = 78\nvalue = [13, 65]"] ;
199 -> 200 ;
201 [label="instalment_health <= 892.1\ngini = 0.4\nsamples = 29\nvalue = [8, 21]"] ;
200 -> 201 ;
202 [label="PRIMARY.INSTAL.AMT <= 599.5\ngini = 0.1\nsamples = 13\nvalue = [1, 12]"] ;
201 -> 202 ;
203 [label="gini = 0.4\nsamples = 4\nvalue = [1, 3]"] ;
202 -> 203 ;
204 [label="gini = 0.0\nsamples = 9\nvalue = [0, 9]"] ;
202 -> 204 ;
205 [label="def_pct_by_emp <= 0.2\ngini = 0.5\nsamples = 16\nvalue = [7, 9]"] ;
201 -> 205 ;
206 [label="PRI.CURRENT.BALANCE <= 12541.5\ngini = 0.4\nsamples = 11\nvalue = [3, 8]"] ;
205 -> 206 ;
207 [label="gini = 0.2\nsamples = 7\nvalue = [1, 6]"] ;
206 -> 207 ;
208 [label="gini = 0.5\nsamples = 4\nvalue = [2, 2]"] ;
206 -> 208 ;
209 [label="gini = 0.3\nsamples = 5\nvalue = [4, 1]"] ;
205 -> 209 ;
210 [label="PRI.DISBURSED.AMOUNT <= 264309.0\ngini = 0.2\nsamples = 49\nvalue = [5, 44]"] ;
200 -> 210 ;
211 [label="def_pct_by_branch <= 0.2\ngini = 0.1\nsamples = 33\nvalue = [1, 32]"] ;
210 -> 211 ;
212 [label="gini = 0.0\nsamples = 27\nvalue = [0, 27]"] ;
211 -> 212 ;
213 [label="gini = 0.3\nsamples = 6\nvalue = [1, 5]"] ;
211 -> 213 ;
214 [label="DELINQUENT.ACCTS.IN.LAST.SIX.MONTHS <= 0.5\ngini = 0.4\nsamples = 16\nvalue = [4, 12]"] ;
210 -> 214 ;
215 [label="gini = 0.5\nsamples = 5\nvalue = [3, 2]"] ;
214 -> 215 ;
216 [label="avg_acct_age_mnth <= 11.5\ngini = 0.2\nsamples = 11\nvalue = [1, 10]"] ;
214 -> 216 ;
217 [label="gini = 0.4\nsamples = 4\nvalue = [1, 3]"] ;
216 -> 217 ;
218 [label="gini = 0.0\nsamples = 7\nvalue = [0, 7]"] ;
216 -> 218 ;
219 [label="PRIMARY.INSTAL.AMT <= 567.0\ngini = 0.5\nsamples = 82\nvalue = [32, 50]"] ;
199 -> 219 ;
220 [label="curr_outstd_ratio <= 0.5\ngini = 0.4\nsamples = 15\nvalue = [10, 5]"] ;
219 -> 220 ;
221 [label="gini = 0.2\nsamples = 9\nvalue = [8, 1]"] ;
220 -> 221 ;
222 [label="gini = 0.4\nsamples = 6\nvalue = [2, 4]"] ;
220 -> 222 ;
223 [label="avg_credit_hist_mnth <= 29.0\ngini = 0.4\nsamples = 67\nvalue = [22, 45]"] ;
219 -> 223 ;
224 [label="def_pct_by_pin <= 0.2\ngini = 0.4\nsamples = 53\nvalue = [14, 39]"] ;
223 -> 224 ;
225 [label="asset_cost <= 64355.0\ngini = 0.5\nsamples = 25\nvalue = [10, 15]"] ;
224 -> 225 ;
226 [label="gini = 0.3\nsamples = 5\nvalue = [4, 1]"] ;
225 -> 226 ;
227 [label="Employment.Type_Self employed <= 0.5\ngini = 0.4\nsamples = 20\nvalue = [6, 14]"] ;
225 -> 227 ;
228 [label="PRI.NO.OF.ACCTS <= 1.5\ngini = 0.2\nsamples = 14\nvalue = [2, 12]"] ;
227 -> 228 ;
229 [label="gini = 0.0\nsamples = 6\nvalue = [0, 6]"] ;
228 -> 229 ;
230 [label="gini = 0.4\nsamples = 8\nvalue = [2, 6]"] ;
228 -> 230 ;
231 [label="gini = 0.4\nsamples = 6\nvalue = [4, 2]"] ;
227 -> 231 ;
232 [label="PRI.SANCTIONED.AMOUNT <= 104230.5\ngini = 0.2\nsamples = 28\nvalue = [4, 24]"] ;
224 -> 232 ;
233 [label="PRI.DISBURSED.AMOUNT <= 4694.5\ngini = 0.1\nsamples = 18\nvalue = [1, 17]"] ;
232 -> 233 ;
234 [label="gini = 0.4\nsamples = 4\nvalue = [1, 3]"] ;
233 -> 234 ;
235 [label="gini = 0.0\nsamples = 14\nvalue = [0, 14]"] ;
233 -> 235 ;
236 [label="instalment_health <= 16629.0\ngini = 0.4\nsamples = 10\nvalue = [3, 7]"] ;
232 -> 236 ;
237 [label="gini = 0.4\nsamples = 4\nvalue = [3, 1]"] ;
236 -> 237 ;
238 [label="gini = 0.0\nsamples = 6\nvalue = [0, 6]"] ;
236 -> 238 ;
239 [label="credit_score <= 311.5\ngini = 0.5\nsamples = 14\nvalue = [8, 6]"] ;
223 -> 239 ;
240 [label="gini = 0.4\nsamples = 7\nvalue = [2, 5]"] ;
239 -> 240 ;
241 [label="gini = 0.2\nsamples = 7\nvalue = [6, 1]"] ;
239 -> 241 ;
242 [label="def_pct_by_supplier <= 0.3\ngini = 0.5\nsamples = 270\nvalue = [131, 139]"] ;
194 -> 242 ;
243 [label="def_pct_by_pin <= 0.1\ngini = 0.5\nsamples = 206\nvalue = [109, 97]"] ;
242 -> 243 ;
244 [label="avg_acct_age_mnth <= 35.0\ngini = 0.2\nsamples = 15\nvalue = [13, 2]"] ;
243 -> 244 ;
245 [label="gini = 0.0\nsamples = 11\nvalue = [11, 0]"] ;
244 -> 245 ;
246 [label="gini = 0.5\nsamples = 4\nvalue = [2, 2]"] ;
244 -> 246 ;
247 [label="asset_to_loan_pct <= 1.3\ngini = 0.5\nsamples = 191\nvalue = [96, 95]"] ;
243 -> 247 ;
248 [label="ltv <= 83.1\ngini = 0.5\nsamples = 53\nvalue = [32, 21]"] ;
247 -> 248 ;
249 [label="credit_score_desc_High Risk <= 0.5\ngini = 0.4\nsamples = 35\nvalue = [26, 9]"] ;
248 -> 249 ;
250 [label="inst_curr_disb_ratio <= 0.0\ngini = 0.3\nsamples = 24\nvalue = [20, 4]"] ;
249 -> 250 ;
251 [label="gini = 0.0\nsamples = 12\nvalue = [12, 0]"] ;
250 -> 251 ;
252 [label="prim_overdue_acct_pct <= 0.4\ngini = 0.4\nsamples = 12\nvalue = [8, 4]"] ;
250 -> 252 ;
253 [label="gini = 0.4\nsamples = 8\nvalue = [6, 2]"] ;
252 -> 253 ;
254 [label="gini = 0.5\nsamples = 4\nvalue = [2, 2]"] ;
252 -> 254 ;
255 [label="asset_cost <= 58544.0\ngini = 0.5\nsamples = 11\nvalue = [6, 5]"] ;
249 -> 255 ;
256 [label="gini = 0.3\nsamples = 6\nvalue = [5, 1]"] ;
255 -> 256 ;
257 [label="gini = 0.3\nsamples = 5\nvalue = [1, 4]"] ;
255 -> 257 ;
258 [label="total_outstanding <= 51719.5\ngini = 0.4\nsamples = 18\nvalue = [6, 12]"] ;
248 -> 258 ;
259 [label="gini = 0.4\nsamples = 4\nvalue = [3, 1]"] ;
258 -> 259 ;
260 [label="avg_credit_hist_mnth <= 75.5\ngini = 0.3\nsamples = 14\nvalue = [3, 11]"] ;
258 -> 260 ;
261 [label="asset_to_loan_pct <= 1.2\ngini = 0.2\nsamples = 10\nvalue = [1, 9]"] ;
260 -> 261 ;
262 [label="gini = 0.4\nsamples = 4\nvalue = [1, 3]"] ;
261 -> 262 ;
263 [label="gini = 0.0\nsamples = 6\nvalue = [0, 6]"] ;
261 -> 263 ;
264 [label="gini = 0.5\nsamples = 4\nvalue = [2, 2]"] ;
260 -> 264 ;
265 [label="avg_credit_hist_mnth <= 35.5\ngini = 0.5\nsamples = 138\nvalue = [64, 74]"] ;
247 -> 265 ;
266 [label="PRI.CURRENT.BALANCE <= 680980.0\ngini = 0.4\nsamples = 30\nvalue = [7, 23]"] ;
265 -> 266 ;
267 [label="PRI.NO.OF.ACCTS <= 1.5\ngini = 0.3\nsamples = 26\nvalue = [5, 21]"] ;
266 -> 267 ;
268 [label="inst_curr_disb_ratio <= 0.0\ngini = 0.4\nsamples = 12\nvalue = [4, 8]"] ;
267 -> 268 ;
269 [label="gini = 0.2\nsamples = 7\nvalue = [1, 6]"] ;
268 -> 269 ;
270 [label="gini = 0.5\nsamples = 5\nvalue = [3, 2]"] ;
268 -> 270 ;
271 [label="age_outstd_ratio <= 0.0\ngini = 0.1\nsamples = 14\nvalue = [1, 13]"] ;
267 -> 271 ;
272 [label="gini = 0.4\nsamples = 4\nvalue = [1, 3]"] ;
271 -> 272 ;
273 [label="gini = 0.0\nsamples = 10\nvalue = [0, 10]"] ;
271 -> 273 ;
274 [label="gini = 0.5\nsamples = 4\nvalue = [2, 2]"] ;
266 -> 274 ;
275 [label="ltv <= 74.6\ngini = 0.5\nsamples = 108\nvalue = [57, 51]"] ;
265 -> 275 ;
276 [label="PRIMARY.INSTAL.AMT <= 53336.5\ngini = 0.5\nsamples = 87\nvalue = [53, 34]"] ;
275 -> 276 ;
277 [label="def_pct_by_branch <= 0.2\ngini = 0.4\nsamples = 77\nvalue = [51, 26]"] ;
276 -> 277 ;
278 [label="gini = 0.4\nsamples = 6\nvalue = [2, 4]"] ;
277 -> 278 ;
279 [label="asset_cost <= 57137.0\ngini = 0.4\nsamples = 71\nvalue = [49, 22]"] ;
277 -> 279 ;
280 [label="gini = 0.0\nsamples = 8\nvalue = [8, 0]"] ;
279 -> 280 ;
281 [label="gini = 0.5\nsamples = 63\nvalue = [41, 22]"] ;
279 -> 281 ;
282 [label="curr_outstd_ratio <= 0.0\ngini = 0.3\nsamples = 10\nvalue = [2, 8]"] ;
276 -> 282 ;
283 [label="gini = 0.5\nsamples = 4\nvalue = [2, 2]"] ;
282 -> 283 ;
284 [label="gini = 0.0\nsamples = 6\nvalue = [0, 6]"] ;
282 -> 284 ;
285 [label="PRI.OVERDUE.ACCTS <= 2.5\ngini = 0.3\nsamples = 21\nvalue = [4, 17]"] ;
275 -> 285 ;
286 [label="age_outstd_ratio <= 0.0\ngini = 0.1\nsamples = 15\nvalue = [1, 14]"] ;
285 -> 286 ;
287 [label="gini = 0.0\nsamples = 11\nvalue = [0, 11]"] ;
286 -> 287 ;
288 [label="gini = 0.4\nsamples = 4\nvalue = [1, 3]"] ;
286 -> 288 ;
289 [label="gini = 0.5\nsamples = 6\nvalue = [3, 3]"] ;
285 -> 289 ;
290 [label="PRI.SANCTIONED.AMOUNT <= 62608.0\ngini = 0.5\nsamples = 64\nvalue = [22, 42]"] ;
242 -> 290 ;
291 [label="age_outstd_ratio <= 0.0\ngini = 0.3\nsamples = 21\nvalue = [4, 17]"] ;
290 -> 291 ;
292 [label="Age_when_applying <= 33.6\ngini = 0.1\nsamples = 15\nvalue = [1, 14]"] ;
291 -> 292 ;
293 [label="gini = 0.3\nsamples = 6\nvalue = [1, 5]"] ;
292 -> 293 ;
294 [label="gini = 0.0\nsamples = 9\nvalue = [0, 9]"] ;
292 -> 294 ;
295 [label="gini = 0.5\nsamples = 6\nvalue = [3, 3]"] ;
291 -> 295 ;
296 [label="disbursed_amount <= 38950.0\ngini = 0.5\nsamples = 43\nvalue = [18, 25]"] ;
290 -> 296 ;
297 [label="curr_outstd_ratio <= 0.1\ngini = 0.2\nsamples = 15\nvalue = [2, 13]"] ;
296 -> 297 ;
298 [label="gini = 0.5\nsamples = 4\nvalue = [2, 2]"] ;
297 -> 298 ;
299 [label="gini = 0.0\nsamples = 11\nvalue = [0, 11]"] ;
297 -> 299 ;
300 [label="def_pct_by_pin <= 0.1\ngini = 0.5\nsamples = 28\nvalue = [16, 12]"] ;
296 -> 300 ;
301 [label="gini = 0.0\nsamples = 5\nvalue = [5, 0]"] ;
300 -> 301 ;
302 [label="age_outstd_ratio <= 0.0\ngini = 0.5\nsamples = 23\nvalue = [11, 12]"] ;
300 -> 302 ;
303 [label="PRI.DISBURSED.AMOUNT <= 416500.0\ngini = 0.4\nsamples = 15\nvalue = [4, 11]"] ;
302 -> 303 ;
304 [label="gini = 0.0\nsamples = 7\nvalue = [0, 7]"] ;
303 -> 304 ;
305 [label="gini = 0.5\nsamples = 8\nvalue = [4, 4]"] ;
303 -> 305 ;
306 [label="gini = 0.2\nsamples = 8\nvalue = [7, 1]"] ;
302 -> 306 ;
307 [label="credit_score <= 738.5\ngini = 0.4\nsamples = 12803\nvalue = [8593, 4210]"] ;
3 -> 307 ;
308 [label="def_pct_by_manufacturer <= 0.2\ngini = 0.5\nsamples = 10864\nvalue = [7137, 3727]"] ;
307 -> 308 ;
309 [label="def_pct_by_emp <= 0.1\ngini = 0.4\nsamples = 4104\nvalue = [2891, 1213]"] ;
308 -> 309 ;
310 [label="def_pct_by_pin <= 0.1\ngini = 0.3\nsamples = 1194\nvalue = [984, 210]"] ;
309 -> 310 ;
311 [label="age_outstd_ratio <= 0.0\ngini = 0.1\nsamples = 233\nvalue = [218, 15]"] ;
310 -> 311 ;
312 [label="def_pct_by_supplier <= 0.2\ngini = 0.1\nsamples = 75\nvalue = [73, 2]"] ;
311 -> 312 ;
313 [label="gini = 0.0\nsamples = 60\nvalue = [60, 0]"] ;
312 -> 313 ;
314 [label="Employment.Type_Salaried <= 0.5\ngini = 0.2\nsamples = 15\nvalue = [13, 2]"] ;
312 -> 314 ;
315 [label="gini = 0.4\nsamples = 8\nvalue = [6, 2]"] ;
314 -> 315 ;
316 [label="gini = 0.0\nsamples = 7\nvalue = [7, 0]"] ;
314 -> 316 ;
317 [label="disbursed_amount <= 41414.5\ngini = 0.2\nsamples = 158\nvalue = [145, 13]"] ;
311 -> 317 ;
318 [label="def_pct_by_pin <= 0.1\ngini = 0.1\nsamples = 77\nvalue = [74, 3]"] ;
317 -> 318 ;
319 [label="gini = 0.0\nsamples = 46\nvalue = [46, 0]"] ;
318 -> 319 ;
320 [label="disbursed_amount <= 38039.0\ngini = 0.2\nsamples = 31\nvalue = [28, 3]"] ;
318 -> 320 ;
321 [label="def_pct_by_state <= 0.2\ngini = 0.3\nsamples = 20\nvalue = [17, 3]"] ;
320 -> 321 ;
322 [label="def_pct_by_emp <= 0.1\ngini = 0.3\nsamples = 10\nvalue = [8, 2]"] ;
321 -> 322 ;
323 [label="gini = 0.4\nsamples = 4\nvalue = [3, 1]"] ;
322 -> 323 ;
324 [label="gini = 0.3\nsamples = 6\nvalue = [5, 1]"] ;
322 -> 324 ;
325 [label="Employment.Type_Self employed <= 0.5\ngini = 0.2\nsamples = 10\nvalue = [9, 1]"] ;
321 -> 325 ;
326 [label="gini = 0.0\nsamples = 5\nvalue = [5, 0]"] ;
325 -> 326 ;
327 [label="gini = 0.3\nsamples = 5\nvalue = [4, 1]"] ;
325 -> 327 ;
328 [label="gini = 0.0\nsamples = 11\nvalue = [11, 0]"] ;
320 -> 328 ;
329 [label="def_pct_by_emp <= 0.1\ngini = 0.2\nsamples = 81\nvalue = [71, 10]"] ;
317 -> 329 ;
330 [label="gini = 0.0\nsamples = 10\nvalue = [10, 0]"] ;
329 -> 330 ;
331 [label="avg_credit_hist_mnth <= 12.0\ngini = 0.2\nsamples = 71\nvalue = [61, 10]"] ;
329 -> 331 ;
332 [label="total_outstanding <= 42048.0\ngini = 0.2\nsamples = 63\nvalue = [57, 6]"] ;
331 -> 332 ;
333 [label="gini = 0.5\nsamples = 5\nvalue = [3, 2]"] ;
332 -> 333 ;
334 [label="age_outstd_ratio <= 0.0\ngini = 0.1\nsamples = 58\nvalue = [54, 4]"] ;
332 -> 334 ;
335 [label="age_outstd_ratio <= 0.0\ngini = 0.2\nsamples = 35\nvalue = [31, 4]"] ;
334 -> 335 ;
336 [label="gini = 0.1\nsamples = 31\nvalue = [29, 2]"] ;
335 -> 336 ;
337 [label="gini = 0.5\nsamples = 4\nvalue = [2, 2]"] ;
335 -> 337 ;
338 [label="gini = 0.0\nsamples = 23\nvalue = [23, 0]"] ;
334 -> 338 ;
339 [label="gini = 0.5\nsamples = 8\nvalue = [4, 4]"] ;
331 -> 339 ;
340 [label="def_pct_by_emp <= 0.1\ngini = 0.3\nsamples = 961\nvalue = [766, 195]"] ;
310 -> 340 ;
341 [label="age_outstd_ratio <= 0.0\ngini = 0.2\nsamples = 171\nvalue = [153, 18]"] ;
340 -> 341 ;
342 [label="PRI.CURRENT.BALANCE <= 15015.0\ngini = 0.3\nsamples = 84\nvalue = [71, 13]"] ;
341 -> 342 ;
343 [label="age_outstd_ratio <= 0.0\ngini = 0.4\nsamples = 40\nvalue = [30, 10]"] ;
342 -> 343 ;
344 [label="ltv <= 63.3\ngini = 0.3\nsamples = 29\nvalue = [24, 5]"] ;
343 -> 344 ;
345 [label="gini = 0.0\nsamples = 12\nvalue = [12, 0]"] ;
344 -> 345 ;
346 [label="def_pct_by_supplier <= 0.1\ngini = 0.4\nsamples = 17\nvalue = [12, 5]"] ;
344 -> 346 ;
347 [label="gini = 0.5\nsamples = 8\nvalue = [4, 4]"] ;
346 -> 347 ;
348 [label="gini = 0.2\nsamples = 9\nvalue = [8, 1]"] ;
346 -> 348 ;
349 [label="def_pct_by_emp <= 0.1\ngini = 0.5\nsamples = 11\nvalue = [6, 5]"] ;
343 -> 349 ;
350 [label="gini = 0.4\nsamples = 7\nvalue = [5, 2]"] ;
349 -> 350 ;
351 [label="gini = 0.4\nsamples = 4\nvalue = [1, 3]"] ;
349 -> 351 ;
352 [label="age_outstd_ratio <= 0.0\ngini = 0.1\nsamples = 44\nvalue = [41, 3]"] ;
342 -> 352 ;
353 [label="gini = 0.4\nsamples = 4\nvalue = [3, 1]"] ;
352 -> 353 ;
354 [label="credit_score <= 650.5\ngini = 0.1\nsamples = 40\nvalue = [38, 2]"] ;
352 -> 354 ;
355 [label="PRI.DISBURSED.AMOUNT <= 57395.0\ngini = 0.2\nsamples = 18\nvalue = [16, 2]"] ;
354 -> 355 ;
356 [label="gini = 0.0\nsamples = 5\nvalue = [5, 0]"] ;
355 -> 356 ;
357 [label="credit_score <= 616.5\ngini = 0.3\nsamples = 13\nvalue = [11, 2]"] ;
355 -> 357 ;
358 [label="gini = 0.0\nsamples = 8\nvalue = [8, 0]"] ;
357 -> 358 ;
359 [label="gini = 0.5\nsamples = 5\nvalue = [3, 2]"] ;
357 -> 359 ;
360 [label="gini = 0.0\nsamples = 22\nvalue = [22, 0]"] ;
354 -> 360 ;
361 [label="PRI.NO.OF.ACCTS <= 0.5\ngini = 0.1\nsamples = 87\nvalue = [82, 5]"] ;
341 -> 361 ;
362 [label="def_pct_by_supplier <= 0.2\ngini = 0.1\nsamples = 67\nvalue = [62, 5]"] ;
361 -> 362 ;
363 [label="ltv <= 55.7\ngini = 0.1\nsamples = 63\nvalue = [59, 4]"] ;
362 -> 363 ;
364 [label="def_pct_by_state <= 0.2\ngini = 0.2\nsamples = 24\nvalue = [21, 3]"] ;
363 -> 364 ;
365 [label="def_pct_by_pin <= 0.2\ngini = 0.2\nsamples = 18\nvalue = [16, 2]"] ;
364 -> 365 ;
366 [label="gini = 0.0\nsamples = 9\nvalue = [9, 0]"] ;
365 -> 366 ;
367 [label="gini = 0.3\nsamples = 9\nvalue = [7, 2]"] ;
365 -> 367 ;
368 [label="gini = 0.3\nsamples = 6\nvalue = [5, 1]"] ;
364 -> 368 ;
369 [label="def_pct_by_pin <= 0.2\ngini = 0.0\nsamples = 39\nvalue = [38, 1]"] ;
363 -> 369 ;
370 [label="gini = 0.0\nsamples = 23\nvalue = [23, 0]"] ;
369 -> 370 ;
371 [label="disbursed_amount <= 46099.0\ngini = 0.1\nsamples = 16\nvalue = [15, 1]"] ;
369 -> 371 ;
372 [label="gini = 0.0\nsamples = 12\nvalue = [12, 0]"] ;
371 -> 372 ;
373 [label="gini = 0.4\nsamples = 4\nvalue = [3, 1]"] ;
371 -> 373 ;
374 [label="gini = 0.4\nsamples = 4\nvalue = [3, 1]"] ;
362 -> 374 ;
375 [label="gini = 0.0\nsamples = 20\nvalue = [20, 0]"] ;
361 -> 375 ;
376 [label="instalment_health <= 5660.2\ngini = 0.3\nsamples = 790\nvalue = [613, 177]"] ;
340 -> 376 ;
377 [label="asset_cost <= 63393.5\ngini = 0.4\nsamples = 633\nvalue = [481, 152]"] ;
376 -> 377 ;
378 [label="Age_when_applying <= 49.1\ngini = 0.4\nsamples = 156\nvalue = [106, 50]"] ;
377 -> 378 ;
379 [label="PRIMARY.INSTAL.AMT <= 5783.0\ngini = 0.5\nsamples = 146\nvalue = [96, 50]"] ;
378 -> 379 ;
380 [label="Age_when_applying <= 42.2\ngini = 0.4\nsamples = 141\nvalue = [95, 46]"] ;
379 -> 380 ;
381 [label="total_outstanding <= 46971.0\ngini = 0.4\nsamples = 124\nvalue = [87, 37]"] ;
380 -> 381 ;
382 [label="gini = 0.5\nsamples = 80\nvalue = [52, 28]"] ;
381 -> 382 ;
383 [label="gini = 0.3\nsamples = 44\nvalue = [35, 9]"] ;
381 -> 383 ;
384 [label="Age_when_applying <= 43.8\ngini = 0.5\nsamples = 17\nvalue = [8, 9]"] ;
380 -> 384 ;
385 [label="gini = 0.3\nsamples = 5\nvalue = [1, 4]"] ;
384 -> 385 ;
386 [label="gini = 0.5\nsamples = 12\nvalue = [7, 5]"] ;
384 -> 386 ;
387 [label="gini = 0.3\nsamples = 5\nvalue = [1, 4]"] ;
379 -> 387 ;
388 [label="gini = 0.0\nsamples = 10\nvalue = [10, 0]"] ;
378 -> 388 ;
389 [label="PRI.OVERDUE.ACCTS <= 0.5\ngini = 0.3\nsamples = 477\nvalue = [375, 102]"] ;
377 -> 389 ;
390 [label="age_outstd_ratio <= 0.0\ngini = 0.3\nsamples = 461\nvalue = [367, 94]"] ;
389 -> 390 ;
391 [label="gini = 0.4\nsamples = 6\nvalue = [2, 4]"] ;
390 -> 391 ;
392 [label="total_outstanding <= 48710.5\ngini = 0.3\nsamples = 455\nvalue = [365, 90]"] ;
390 -> 392 ;
393 [label="NO.OF_INQUIRIES <= 1.5\ngini = 0.3\nsamples = 377\nvalue = [295, 82]"] ;
392 -> 393 ;
394 [label="gini = 0.3\nsamples = 372\nvalue = [294, 78]"] ;
393 -> 394 ;
395 [label="gini = 0.3\nsamples = 5\nvalue = [1, 4]"] ;
393 -> 395 ;
396 [label="asset_cost <= 69980.5\ngini = 0.2\nsamples = 78\nvalue = [70, 8]"] ;
392 -> 396 ;
397 [label="gini = 0.3\nsamples = 53\nvalue = [45, 8]"] ;
396 -> 397 ;
398 [label="gini = 0.0\nsamples = 25\nvalue = [25, 0]"] ;
396 -> 398 ;
399 [label="avg_credit_hist_mnth <= 52.5\ngini = 0.5\nsamples = 16\nvalue = [8, 8]"] ;
389 -> 399 ;
400 [label="PRI.CURRENT.BALANCE <= 11165.0\ngini = 0.5\nsamples = 11\nvalue = [4, 7]"] ;
399 -> 400 ;
401 [label="gini = 0.5\nsamples = 5\nvalue = [3, 2]"] ;
400 -> 401 ;
402 [label="gini = 0.3\nsamples = 6\nvalue = [1, 5]"] ;
400 -> 402 ;
403 [label="gini = 0.3\nsamples = 5\nvalue = [4, 1]"] ;
399 -> 403 ;
404 [label="asset_to_loan_pct <= 1.3\ngini = 0.3\nsamples = 157\nvalue = [132, 25]"] ;
376 -> 404 ;
405 [label="PRIMARY.INSTAL.AMT <= 5455.0\ngini = 0.5\nsamples = 11\nvalue = [5, 6]"] ;
404 -> 405 ;
406 [label="gini = 0.3\nsamples = 6\nvalue = [5, 1]"] ;
405 -> 406 ;
407 [label="gini = 0.0\nsamples = 5\nvalue = [0, 5]"] ;
405 -> 407 ;
408 [label="inst_curr_disb_ratio <= 0.6\ngini = 0.2\nsamples = 146\nvalue = [127, 19]"] ;
404 -> 408 ;
409 [label="def_pct_by_state <= 0.2\ngini = 0.1\nsamples = 90\nvalue = [84, 6]"] ;
408 -> 409 ;
410 [label="PRI.CURRENT.BALANCE <= 258199.5\ngini = 0.3\nsamples = 20\nvalue = [17, 3]"] ;
409 -> 410 ;
411 [label="PRI.SANCTIONED.AMOUNT <= 41550.0\ngini = 0.1\nsamples = 13\nvalue = [12, 1]"] ;
410 -> 411 ;
412 [label="gini = 0.4\nsamples = 4\nvalue = [3, 1]"] ;
411 -> 412 ;
413 [label="gini = 0.0\nsamples = 9\nvalue = [9, 0]"] ;
411 -> 413 ;
414 [label="gini = 0.4\nsamples = 7\nvalue = [5, 2]"] ;
410 -> 414 ;
415 [label="def_pct_by_state <= 0.2\ngini = 0.1\nsamples = 70\nvalue = [67, 3]"] ;
409 -> 415 ;
416 [label="inst_curr_disb_ratio <= 0.1\ngini = 0.0\nsamples = 57\nvalue = [56, 1]"] ;
415 -> 416 ;
417 [label="gini = 0.4\nsamples = 4\nvalue = [3, 1]"] ;
416 -> 417 ;
418 [label="gini = 0.0\nsamples = 53\nvalue = [53, 0]"] ;
416 -> 418 ;
419 [label="PRI.DISBURSED.AMOUNT <= 356250.0\ngini = 0.3\nsamples = 13\nvalue = [11, 2]"] ;
415 -> 419 ;
420 [label="gini = 0.0\nsamples = 8\nvalue = [8, 0]"] ;
419 -> 420 ;
421 [label="gini = 0.5\nsamples = 5\nvalue = [3, 2]"] ;
419 -> 421 ;
422 [label="def_pct_by_pin <= 0.1\ngini = 0.4\nsamples = 56\nvalue = [43, 13]"] ;
408 -> 422 ;
423 [label="prim_overdue_acct_pct <= 0.0\ngini = 0.1\nsamples = 19\nvalue = [18, 1]"] ;
422 -> 423 ;
424 [label="gini = 0.0\nsamples = 15\nvalue = [15, 0]"] ;
423 -> 424 ;
425 [label="gini = 0.4\nsamples = 4\nvalue = [3, 1]"] ;
423 -> 425 ;
426 [label="curr_outstd_ratio <= 0.1\ngini = 0.4\nsamples = 37\nvalue = [25, 12]"] ;
422 -> 426 ;
427 [label="asset_cost <= 70302.5\ngini = 0.3\nsamples = 25\nvalue = [21, 4]"] ;
426 -> 427 ;
428 [label="gini = 0.2\nsamples = 21\nvalue = [19, 2]"] ;
427 -> 428 ;
429 [label="gini = 0.5\nsamples = 4\nvalue = [2, 2]"] ;
427 -> 429 ;
430 [label="def_pct_by_supplier <= 0.2\ngini = 0.4\nsamples = 12\nvalue = [4, 8]"] ;
426 -> 430 ;
431 [label="gini = 0.0\nsamples = 7\nvalue = [0, 7]"] ;
430 -> 431 ;
432 [label="gini = 0.3\nsamples = 5\nvalue = [4, 1]"] ;
430 -> 432 ;
433 [label="asset_cost <= 63822.5\ngini = 0.5\nsamples = 2910\nvalue = [1907, 1003]"] ;
309 -> 433 ;
434 [label="def_pct_by_pin <= 0.1\ngini = 0.5\nsamples = 833\nvalue = [501, 332]"] ;
433 -> 434 ;
435 [label="PRI.SANCTIONED.AMOUNT <= 88750.0\ngini = 0.4\nsamples = 162\nvalue = [124, 38]"] ;
434 -> 435 ;
436 [label="disbursed_amount <= 46958.5\ngini = 0.4\nsamples = 129\nvalue = [92, 37]"] ;
435 -> 436 ;
437 [label="total_outstanding <= 74605.0\ngini = 0.3\nsamples = 98\nvalue = [79, 19]"] ;
436 -> 437 ;
438 [label="age_outstd_ratio <= 0.0\ngini = 0.3\nsamples = 93\nvalue = [77, 16]"] ;
437 -> 438 ;
439 [label="def_pct_by_branch <= 0.2\ngini = 0.3\nsamples = 89\nvalue = [75, 14]"] ;
438 -> 439 ;
440 [label="gini = 0.5\nsamples = 8\nvalue = [5, 3]"] ;
439 -> 440 ;
441 [label="NO.OF_INQUIRIES <= 0.5\ngini = 0.2\nsamples = 81\nvalue = [70, 11]"] ;
439 -> 441 ;
442 [label="gini = 0.2\nsamples = 73\nvalue = [66, 7]"] ;
441 -> 442 ;
443 [label="gini = 0.5\nsamples = 8\nvalue = [4, 4]"] ;
441 -> 443 ;
444 [label="gini = 0.5\nsamples = 4\nvalue = [2, 2]"] ;
438 -> 444 ;
445 [label="gini = 0.5\nsamples = 5\nvalue = [2, 3]"] ;
437 -> 445 ;
446 [label="asset_to_loan_pct <= 1.3\ngini = 0.5\nsamples = 31\nvalue = [13, 18]"] ;
436 -> 446 ;
447 [label="def_pct_by_branch <= 0.2\ngini = 0.5\nsamples = 20\nvalue = [11, 9]"] ;
446 -> 447 ;
448 [label="inst_curr_disb_ratio <= -4.9\ngini = 0.4\nsamples = 11\nvalue = [8, 3]"] ;
447 -> 448 ;
449 [label="gini = 0.4\nsamples = 6\nvalue = [4, 2]"] ;
448 -> 449 ;
450 [label="gini = 0.3\nsamples = 5\nvalue = [4, 1]"] ;
448 -> 450 ;
451 [label="gini = 0.4\nsamples = 9\nvalue = [3, 6]"] ;
447 -> 451 ;
452 [label="def_pct_by_emp <= 0.2\ngini = 0.3\nsamples = 11\nvalue = [2, 9]"] ;
446 -> 452 ;
453 [label="gini = 0.5\nsamples = 5\nvalue = [2, 3]"] ;
452 -> 453 ;
454 [label="gini = 0.0\nsamples = 6\nvalue = [0, 6]"] ;
452 -> 454 ;
455 [label="def_pct_by_branch <= 0.2\ngini = 0.1\nsamples = 33\nvalue = [32, 1]"] ;
435 -> 455 ;
456 [label="gini = 0.0\nsamples = 26\nvalue = [26, 0]"] ;
455 -> 456 ;
457 [label="gini = 0.2\nsamples = 7\nvalue = [6, 1]"] ;
455 -> 457 ;
458 [label="disbursed_amount <= 43906.5\ngini = 0.5\nsamples = 671\nvalue = [377, 294]"] ;
434 -> 458 ;
459 [label="curr_outstd_ratio <= 0.3\ngini = 0.5\nsamples = 295\nvalue = [194, 101]"] ;
458 -> 459 ;
460 [label="Employment.Type_Salaried <= 0.5\ngini = 0.3\nsamples = 47\nvalue = [38, 9]"] ;
459 -> 460 ;
461 [label="PRI.CURRENT.BALANCE <= 293834.5\ngini = 0.2\nsamples = 33\nvalue = [29, 4]"] ;
460 -> 461 ;
462 [label="PRI.CURRENT.BALANCE <= 136593.5\ngini = 0.4\nsamples = 13\nvalue = [10, 3]"] ;
461 -> 462 ;
463 [label="gini = 0.0\nsamples = 6\nvalue = [6, 0]"] ;
462 -> 463 ;
464 [label="gini = 0.5\nsamples = 7\nvalue = [4, 3]"] ;
462 -> 464 ;
465 [label="disbursed_amount <= 36083.0\ngini = 0.1\nsamples = 20\nvalue = [19, 1]"] ;
461 -> 465 ;
466 [label="gini = 0.4\nsamples = 4\nvalue = [3, 1]"] ;
465 -> 466 ;
467 [label="gini = 0.0\nsamples = 16\nvalue = [16, 0]"] ;
465 -> 467 ;
468 [label="disbursed_amount <= 38824.5\ngini = 0.5\nsamples = 14\nvalue = [9, 5]"] ;
460 -> 468 ;
469 [label="gini = 0.2\nsamples = 9\nvalue = [8, 1]"] ;
468 -> 469 ;
470 [label="gini = 0.3\nsamples = 5\nvalue = [1, 4]"] ;
468 -> 470 ;
471 [label="ltv <= 51.4\ngini = 0.5\nsamples = 248\nvalue = [156, 92]"] ;
459 -> 471 ;
472 [label="asset_to_loan_pct <= 2.3\ngini = 0.5\nsamples = 21\nvalue = [9, 12]"] ;
471 -> 472 ;
473 [label="gini = 0.0\nsamples = 8\nvalue = [0, 8]"] ;
472 -> 473 ;
474 [label="age_outstd_ratio <= 0.0\ngini = 0.4\nsamples = 13\nvalue = [9, 4]"] ;
472 -> 474 ;
475 [label="gini = 0.5\nsamples = 7\nvalue = [4, 3]"] ;
474 -> 475 ;
476 [label="gini = 0.3\nsamples = 6\nvalue = [5, 1]"] ;
474 -> 476 ;
477 [label="asset_to_loan_pct <= 1.8\ngini = 0.5\nsamples = 227\nvalue = [147, 80]"] ;
471 -> 477 ;
478 [label="def_pct_by_supplier <= 0.1\ngini = 0.5\nsamples = 205\nvalue = [127, 78]"] ;
477 -> 478 ;
479 [label="asset_to_loan_pct <= 1.5\ngini = 0.5\nsamples = 24\nvalue = [10, 14]"] ;
478 -> 479 ;
480 [label="gini = 0.4\nsamples = 4\nvalue = [3, 1]"] ;
479 -> 480 ;
481 [label="gini = 0.5\nsamples = 20\nvalue = [7, 13]"] ;
479 -> 481 ;
482 [label="def_pct_by_emp <= 0.3\ngini = 0.5\nsamples = 181\nvalue = [117, 64]"] ;
478 -> 482 ;
483 [label="gini = 0.4\nsamples = 163\nvalue = [113, 50]"] ;
482 -> 483 ;
484 [label="gini = 0.3\nsamples = 18\nvalue = [4, 14]"] ;
482 -> 484 ;
485 [label="disbursed_amount <= 30992.0\ngini = 0.2\nsamples = 22\nvalue = [20, 2]"] ;
477 -> 485 ;
486 [label="gini = 0.5\nsamples = 5\nvalue = [3, 2]"] ;
485 -> 486 ;
487 [label="gini = 0.0\nsamples = 17\nvalue = [17, 0]"] ;
485 -> 487 ;
488 [label="DELINQUENT.ACCTS.IN.LAST.SIX.MONTHS <= 0.5\ngini = 0.5\nsamples = 376\nvalue = [183, 193]"] ;
458 -> 488 ;
489 [label="total_outstanding <= 48693.5\ngini = 0.5\nsamples = 360\nvalue = [181, 179]"] ;
488 -> 489 ;
490 [label="def_pct_by_pin <= 0.2\ngini = 0.5\nsamples = 234\nvalue = [103, 131]"] ;
489 -> 490 ;
491 [label="asset_to_loan_pct <= 1.3\ngini = 0.4\nsamples = 62\nvalue = [19, 43]"] ;
490 -> 491 ;
492 [label="disbursed_amount <= 47497.0\ngini = 0.4\nsamples = 28\nvalue = [7, 21]"] ;
491 -> 492 ;
493 [label="gini = 0.5\nsamples = 10\nvalue = [5, 5]"] ;
492 -> 493 ;
494 [label="gini = 0.2\nsamples = 18\nvalue = [2, 16]"] ;
492 -> 494 ;
495 [label="VoterID_flag <= 0.5\ngini = 0.5\nsamples = 34\nvalue = [12, 22]"] ;
491 -> 495 ;
496 [label="gini = 0.4\nsamples = 29\nvalue = [9, 20]"] ;
495 -> 496 ;
497 [label="gini = 0.5\nsamples = 5\nvalue = [3, 2]"] ;
495 -> 497 ;
498 [label="ltv <= 88.0\ngini = 0.5\nsamples = 172\nvalue = [84, 88]"] ;
490 -> 498 ;
499 [label="asset_cost <= 63728.5\ngini = 0.5\nsamples = 156\nvalue = [81, 75]"] ;
498 -> 499 ;
500 [label="gini = 0.5\nsamples = 150\nvalue = [81, 69]"] ;
499 -> 500 ;
501 [label="gini = 0.0\nsamples = 6\nvalue = [0, 6]"] ;
499 -> 501 ;
502 [label="def_pct_by_emp <= 0.2\ngini = 0.3\nsamples = 16\nvalue = [3, 13]"] ;
498 -> 502 ;
503 [label="gini = 0.4\nsamples = 6\nvalue = [2, 4]"] ;
502 -> 503 ;
504 [label="gini = 0.2\nsamples = 10\nvalue = [1, 9]"] ;
502 -> 504 ;
505 [label="PRI.NO.OF.ACCTS <= 6.5\ngini = 0.5\nsamples = 126\nvalue = [78, 48]"] ;
489 -> 505 ;
506 [label="Age_when_applying <= 52.5\ngini = 0.4\nsamples = 94\nvalue = [64, 30]"] ;
505 -> 506 ;
507 [label="instalment_health <= 50012.0\ngini = 0.5\nsamples = 86\nvalue = [56, 30]"] ;
506 -> 507 ;
508 [label="gini = 0.5\nsamples = 80\nvalue = [50, 30]"] ;
507 -> 508 ;
509 [label="gini = 0.0\nsamples = 6\nvalue = [6, 0]"] ;
507 -> 509 ;
510 [label="gini = 0.0\nsamples = 8\nvalue = [8, 0]"] ;
506 -> 510 ;
511 [label="PRI.DISBURSED.AMOUNT <= 103895.0\ngini = 0.5\nsamples = 32\nvalue = [14, 18]"] ;
505 -> 511 ;
512 [label="gini = 0.0\nsamples = 6\nvalue = [0, 6]"] ;
511 -> 512 ;
513 [label="PRIMARY.INSTAL.AMT <= 10930.5\ngini = 0.5\nsamples = 26\nvalue = [14, 12]"] ;
511 -> 513 ;
514 [label="gini = 0.5\nsamples = 17\nvalue = [7, 10]"] ;
513 -> 514 ;
515 [label="gini = 0.3\nsamples = 9\nvalue = [7, 2]"] ;
513 -> 515 ;
516 [label="def_pct_by_emp <= 0.3\ngini = 0.2\nsamples = 16\nvalue = [2, 14]"] ;
488 -> 516 ;
517 [label="gini = 0.0\nsamples = 12\nvalue = [0, 12]"] ;
516 -> 517 ;
518 [label="gini = 0.5\nsamples = 4\nvalue = [2, 2]"] ;
516 -> 518 ;
519 [label="disbursed_amount <= 39013.5\ngini = 0.4\nsamples = 2077\nvalue = [1406, 671]"] ;
433 -> 519 ;
520 [label="avg_credit_hist_mnth <= 14.5\ngini = 0.4\nsamples = 536\nvalue = [398, 138]"] ;
519 -> 520 ;
521 [label="asset_to_loan_pct <= 3.5\ngini = 0.4\nsamples = 431\nvalue = [330, 101]"] ;
520 -> 521 ;
522 [label="DELINQUENT.ACCTS.IN.LAST.SIX.MONTHS <= 0.5\ngini = 0.4\nsamples = 415\nvalue = [321, 94]"] ;
521 -> 522 ;
523 [label="def_pct_by_pin <= 0.1\ngini = 0.3\nsamples = 409\nvalue = [319, 90]"] ;
522 -> 523 ;
524 [label="asset_cost <= 67421.5\ngini = 0.2\nsamples = 71\nvalue = [64, 7]"] ;
523 -> 524 ;
525 [label="ltv <= 56.6\ngini = 0.3\nsamples = 20\nvalue = [16, 4]"] ;
524 -> 525 ;
526 [label="gini = 0.5\nsamples = 9\nvalue = [5, 4]"] ;
525 -> 526 ;
527 [label="gini = 0.0\nsamples = 11\nvalue = [11, 0]"] ;
525 -> 527 ;
528 [label="asset_cost <= 77064.5\ngini = 0.1\nsamples = 51\nvalue = [48, 3]"] ;
524 -> 528 ;
529 [label="gini = 0.0\nsamples = 37\nvalue = [37, 0]"] ;
528 -> 529 ;
530 [label="gini = 0.3\nsamples = 14\nvalue = [11, 3]"] ;
528 -> 530 ;
531 [label="asset_cost <= 66934.0\ngini = 0.4\nsamples = 338\nvalue = [255, 83]"] ;
523 -> 531 ;
532 [label="def_pct_by_state <= 0.2\ngini = 0.3\nsamples = 99\nvalue = [84, 15]"] ;
531 -> 532 ;
533 [label="gini = 0.4\nsamples = 21\nvalue = [14, 7]"] ;
532 -> 533 ;
534 [label="gini = 0.2\nsamples = 78\nvalue = [70, 8]"] ;
532 -> 534 ;
535 [label="def_pct_by_state <= 0.2\ngini = 0.4\nsamples = 239\nvalue = [171, 68]"] ;
531 -> 535 ;
536 [label="gini = 0.4\nsamples = 184\nvalue = [138, 46]"] ;
535 -> 536 ;
537 [label="gini = 0.5\nsamples = 55\nvalue = [33, 22]"] ;
535 -> 537 ;
538 [label="gini = 0.4\nsamples = 6\nvalue = [2, 4]"] ;
522 -> 538 ;
539 [label="PRI.DISBURSED.AMOUNT <= 3776.0\ngini = 0.5\nsamples = 16\nvalue = [9, 7]"] ;
521 -> 539 ;
540 [label="asset_cost <= 76907.5\ngini = 0.5\nsamples = 11\nvalue = [4, 7]"] ;
539 -> 540 ;
541 [label="gini = 0.3\nsamples = 6\nvalue = [1, 5]"] ;
540 -> 541 ;
542 [label="gini = 0.5\nsamples = 5\nvalue = [3, 2]"] ;
540 -> 542 ;
543 [label="gini = 0.0\nsamples = 5\nvalue = [5, 0]"] ;
539 -> 543 ;
544 [label="def_pct_by_pin <= 0.2\ngini = 0.5\nsamples = 105\nvalue = [68, 37]"] ;
520 -> 544 ;
545 [label="inst_curr_disb_ratio <= 0.0\ngini = 0.4\nsamples = 81\nvalue = [60, 21]"] ;
544 -> 545 ;
546 [label="gini = 0.4\nsamples = 6\nvalue = [2, 4]"] ;
545 -> 546 ;
547 [label="instalment_health <= 20066.8\ngini = 0.4\nsamples = 75\nvalue = [58, 17]"] ;
545 -> 547 ;
548 [label="asset_to_loan_pct <= 2.0\ngini = 0.3\nsamples = 55\nvalue = [45, 10]"] ;
547 -> 548 ;
549 [label="asset_cost <= 66234.0\ngini = 0.1\nsamples = 32\nvalue = [30, 2]"] ;
548 -> 549 ;
550 [label="gini = 0.3\nsamples = 9\nvalue = [7, 2]"] ;
549 -> 550 ;
551 [label="gini = 0.0\nsamples = 23\nvalue = [23, 0]"] ;
549 -> 551 ;
552 [label="PRIMARY.INSTAL.AMT <= 3477.5\ngini = 0.5\nsamples = 23\nvalue = [15, 8]"] ;
548 -> 552 ;
553 [label="gini = 0.2\nsamples = 14\nvalue = [12, 2]"] ;
552 -> 553 ;
554 [label="gini = 0.4\nsamples = 9\nvalue = [3, 6]"] ;
552 -> 554 ;
555 [label="disbursed_amount <= 33222.5\ngini = 0.5\nsamples = 20\nvalue = [13, 7]"] ;
547 -> 555 ;
556 [label="gini = 0.5\nsamples = 8\nvalue = [3, 5]"] ;
555 -> 556 ;
557 [label="PRI.NO.OF.ACCTS <= 7.0\ngini = 0.3\nsamples = 12\nvalue = [10, 2]"] ;
555 -> 557 ;
558 [label="gini = 0.0\nsamples = 8\nvalue = [8, 0]"] ;
557 -> 558 ;
559 [label="gini = 0.5\nsamples = 4\nvalue = [2, 2]"] ;
557 -> 559 ;
560 [label="PRI.CURRENT.BALANCE <= 13722.5\ngini = 0.4\nsamples = 24\nvalue = [8, 16]"] ;
544 -> 560 ;
561 [label="gini = 0.0\nsamples = 8\nvalue = [0, 8]"] ;
560 -> 561 ;
562 [label="Age_when_applying <= 26.9\ngini = 0.5\nsamples = 16\nvalue = [8, 8]"] ;
560 -> 562 ;
563 [label="gini = 0.3\nsamples = 5\nvalue = [1, 4]"] ;
562 -> 563 ;
564 [label="disbursed_amount <= 37739.0\ngini = 0.5\nsamples = 11\nvalue = [7, 4]"] ;
562 -> 564 ;
565 [label="gini = 0.5\nsamples = 7\nvalue = [3, 4]"] ;
564 -> 565 ;
566 [label="gini = 0.0\nsamples = 4\nvalue = [4, 0]"] ;
564 -> 566 ;
567 [label="Age_when_applying <= 22.6\ngini = 0.5\nsamples = 1541\nvalue = [1008, 533]"] ;
519 -> 567 ;
568 [label="ltv <= 48.0\ngini = 0.5\nsamples = 130\nvalue = [69, 61]"] ;
567 -> 568 ;
569 [label="gini = 0.0\nsamples = 4\nvalue = [4, 0]"] ;
568 -> 569 ;
570 [label="def_pct_by_pin <= 0.2\ngini = 0.5\nsamples = 126\nvalue = [65, 61]"] ;
568 -> 570 ;
571 [label="def_pct_by_supplier <= 0.2\ngini = 0.4\nsamples = 31\nvalue = [22, 9]"] ;
570 -> 571 ;
572 [label="Employment.Type_Self employed <= 0.5\ngini = 0.4\nsamples = 26\nvalue = [20, 6]"] ;
571 -> 572 ;
573 [label="asset_cost <= 66633.5\ngini = 0.5\nsamples = 16\nvalue = [10, 6]"] ;
572 -> 573 ;
574 [label="gini = 0.0\nsamples = 6\nvalue = [6, 0]"] ;
573 -> 574 ;
575 [label="gini = 0.5\nsamples = 10\nvalue = [4, 6]"] ;
573 -> 575 ;
576 [label="gini = 0.0\nsamples = 10\nvalue = [10, 0]"] ;
572 -> 576 ;
577 [label="gini = 0.5\nsamples = 5\nvalue = [2, 3]"] ;
571 -> 577 ;
578 [label="credit_score <= 721.0\ngini = 0.5\nsamples = 95\nvalue = [43, 52]"] ;
570 -> 578 ;
579 [label="def_pct_by_supplier <= 0.1\ngini = 0.5\nsamples = 91\nvalue = [39, 52]"] ;
578 -> 579 ;
580 [label="age_outstd_ratio <= 0.0\ngini = 0.2\nsamples = 12\nvalue = [1, 11]"] ;
579 -> 580 ;
581 [label="gini = 0.0\nsamples = 7\nvalue = [0, 7]"] ;
580 -> 581 ;
582 [label="gini = 0.3\nsamples = 5\nvalue = [1, 4]"] ;
580 -> 582 ;
583 [label="def_pct_by_state <= 0.2\ngini = 0.5\nsamples = 79\nvalue = [38, 41]"] ;
579 -> 583 ;
584 [label="gini = 0.3\nsamples = 5\nvalue = [1, 4]"] ;
583 -> 584 ;
585 [label="gini = 0.5\nsamples = 74\nvalue = [37, 37]"] ;
583 -> 585 ;
586 [label="gini = 0.0\nsamples = 4\nvalue = [4, 0]"] ;
578 -> 586 ;
587 [label="def_pct_by_pin <= 0.0\ngini = 0.4\nsamples = 1411\nvalue = [939, 472]"] ;
567 -> 587 ;
588 [label="gini = 0.0\nsamples = 36\nvalue = [36, 0]"] ;
587 -> 588 ;
589 [label="age_outstd_ratio <= 0.0\ngini = 0.5\nsamples = 1375\nvalue = [903, 472]"] ;
587 -> 589 ;
590 [label="disbursed_amount <= 40581.5\ngini = 0.3\nsamples = 126\nvalue = [99, 27]"] ;
589 -> 590 ;
591 [label="gini = 0.0\nsamples = 9\nvalue = [9, 0]"] ;
590 -> 591 ;
592 [label="asset_to_loan_pct <= 1.8\ngini = 0.4\nsamples = 117\nvalue = [90, 27]"] ;
590 -> 592 ;
593 [label="asset_to_loan_pct <= 1.4\ngini = 0.3\nsamples = 113\nvalue = [89, 24]"] ;
592 -> 593 ;
594 [label="gini = 0.5\nsamples = 6\nvalue = [3, 3]"] ;
593 -> 594 ;
595 [label="gini = 0.3\nsamples = 107\nvalue = [86, 21]"] ;
593 -> 595 ;
596 [label="gini = 0.4\nsamples = 4\nvalue = [1, 3]"] ;
592 -> 596 ;
597 [label="PRIMARY.INSTAL.AMT <= 1284.5\ngini = 0.5\nsamples = 1249\nvalue = [804, 445]"] ;
589 -> 597 ;
598 [label="avg_acct_age_mnth <= 41.0\ngini = 0.4\nsamples = 1019\nvalue = [680, 339]"] ;
597 -> 598 ;
599 [label="avg_acct_age_mnth <= 35.5\ngini = 0.4\nsamples = 1004\nvalue = [665, 339]"] ;
598 -> 599 ;
600 [label="gini = 0.4\nsamples = 998\nvalue = [664, 334]"] ;
599 -> 600 ;
601 [label="gini = 0.3\nsamples = 6\nvalue = [1, 5]"] ;
599 -> 601 ;
602 [label="gini = 0.0\nsamples = 15\nvalue = [15, 0]"] ;
598 -> 602 ;
603 [label="PRIMARY.INSTAL.AMT <= 1503.5\ngini = 0.5\nsamples = 230\nvalue = [124, 106]"] ;
597 -> 603 ;
604 [label="gini = 0.0\nsamples = 9\nvalue = [0, 9]"] ;
603 -> 604 ;
605 [label="PRI.DISBURSED.AMOUNT <= 462686.0\ngini = 0.5\nsamples = 221\nvalue = [124, 97]"] ;
603 -> 605 ;
606 [label="gini = 0.5\nsamples = 215\nvalue = [118, 97]"] ;
605 -> 606 ;
607 [label="gini = 0.0\nsamples = 6\nvalue = [6, 0]"] ;
605 -> 607 ;
608 [label="def_pct_by_emp <= 0.2\ngini = 0.5\nsamples = 6760\nvalue = [4246, 2514]"] ;
308 -> 608 ;
609 [label="asset_to_loan_pct <= 1.4\ngini = 0.4\nsamples = 3517\nvalue = [2477, 1040]"] ;
608 -> 609 ;
610 [label="def_pct_by_pin <= 0.2\ngini = 0.5\nsamples = 1444\nvalue = [930, 514]"] ;
609 -> 610 ;
611 [label="ltv <= 82.4\ngini = 0.4\nsamples = 444\nvalue = [322, 122]"] ;
610 -> 611 ;
612 [label="PRI.DISBURSED.AMOUNT <= 556250.0\ngini = 0.4\nsamples = 362\nvalue = [272, 90]"] ;
611 -> 612 ;
613 [label="def_pct_by_supplier <= 0.2\ngini = 0.4\nsamples = 335\nvalue = [247, 88]"] ;
612 -> 613 ;
614 [label="Age_when_applying <= 22.7\ngini = 0.3\nsamples = 224\nvalue = [175, 49]"] ;
613 -> 614 ;
615 [label="NO.OF_INQUIRIES <= 0.5\ngini = 0.5\nsamples = 26\nvalue = [13, 13]"] ;
614 -> 615 ;
616 [label="def_pct_by_emp <= 0.1\ngini = 0.5\nsamples = 20\nvalue = [8, 12]"] ;
615 -> 616 ;
617 [label="gini = 0.4\nsamples = 7\nvalue = [5, 2]"] ;
616 -> 617 ;
618 [label="gini = 0.4\nsamples = 13\nvalue = [3, 10]"] ;
616 -> 618 ;
619 [label="gini = 0.3\nsamples = 6\nvalue = [5, 1]"] ;
615 -> 619 ;
620 [label="total_outstanding <= 219635.5\ngini = 0.3\nsamples = 198\nvalue = [162, 36]"] ;
614 -> 620 ;
621 [label="Employment.Type_Salaried <= 0.5\ngini = 0.3\nsamples = 189\nvalue = [157, 32]"] ;
620 -> 621 ;
622 [label="gini = 0.3\nsamples = 115\nvalue = [91, 24]"] ;
621 -> 622 ;
623 [label="gini = 0.2\nsamples = 74\nvalue = [66, 8]"] ;
621 -> 623 ;
624 [label="gini = 0.5\nsamples = 9\nvalue = [5, 4]"] ;
620 -> 624 ;
625 [label="ltv <= 76.8\ngini = 0.5\nsamples = 111\nvalue = [72, 39]"] ;
613 -> 625 ;
626 [label="ltv <= 73.3\ngini = 0.4\nsamples = 62\nvalue = [46, 16]"] ;
625 -> 626 ;
627 [label="PRI.NO.OF.ACCTS <= 0.5\ngini = 0.5\nsamples = 10\nvalue = [4, 6]"] ;
626 -> 627 ;
628 [label="gini = 0.5\nsamples = 6\nvalue = [3, 3]"] ;
627 -> 628 ;
629 [label="gini = 0.4\nsamples = 4\nvalue = [1, 3]"] ;
627 -> 629 ;
630 [label="DELINQUENT.ACCTS.IN.LAST.SIX.MONTHS <= 0.5\ngini = 0.3\nsamples = 52\nvalue = [42, 10]"] ;
626 -> 630 ;
631 [label="gini = 0.2\nsamples = 48\nvalue = [41, 7]"] ;
630 -> 631 ;
632 [label="gini = 0.4\nsamples = 4\nvalue = [1, 3]"] ;
630 -> 632 ;
633 [label="disbursed_amount <= 47105.0\ngini = 0.5\nsamples = 49\nvalue = [26, 23]"] ;
625 -> 633 ;
634 [label="def_pct_by_branch <= 0.2\ngini = 0.4\nsamples = 36\nvalue = [24, 12]"] ;
633 -> 634 ;
635 [label="gini = 0.2\nsamples = 14\nvalue = [12, 2]"] ;
634 -> 635 ;
636 [label="gini = 0.5\nsamples = 22\nvalue = [12, 10]"] ;
634 -> 636 ;
637 [label="def_pct_by_pin <= 0.1\ngini = 0.3\nsamples = 13\nvalue = [2, 11]"] ;
633 -> 637 ;
638 [label="gini = 0.0\nsamples = 4\nvalue = [0, 4]"] ;
637 -> 638 ;
639 [label="gini = 0.3\nsamples = 9\nvalue = [2, 7]"] ;
637 -> 639 ;
640 [label="PRI.NO.OF.ACCTS <= 14.0\ngini = 0.1\nsamples = 27\nvalue = [25, 2]"] ;
612 -> 640 ;
641 [label="gini = 0.0\nsamples = 17\nvalue = [17, 0]"] ;
640 -> 641 ;
642 [label="ltv <= 75.7\ngini = 0.3\nsamples = 10\nvalue = [8, 2]"] ;
640 -> 642 ;
643 [label="gini = 0.5\nsamples = 4\nvalue = [2, 2]"] ;
642 -> 643 ;
644 [label="gini = 0.0\nsamples = 6\nvalue = [6, 0]"] ;
642 -> 644 ;
645 [label="Age_when_applying <= 23.9\ngini = 0.5\nsamples = 82\nvalue = [50, 32]"] ;
611 -> 645 ;
646 [label="gini = 0.2\nsamples = 7\nvalue = [1, 6]"] ;
645 -> 646 ;
647 [label="age_outstd_ratio <= 0.0\ngini = 0.5\nsamples = 75\nvalue = [49, 26]"] ;
645 -> 647 ;
648 [label="instalment_health <= 20217.0\ngini = 0.5\nsamples = 66\nvalue = [40, 26]"] ;
647 -> 648 ;
649 [label="DELINQUENT.ACCTS.IN.LAST.SIX.MONTHS <= 0.5\ngini = 0.5\nsamples = 59\nvalue = [33, 26]"] ;
648 -> 649 ;
650 [label="Age_when_applying <= 47.6\ngini = 0.5\nsamples = 53\nvalue = [32, 21]"] ;
649 -> 650 ;
651 [label="gini = 0.5\nsamples = 48\nvalue = [27, 21]"] ;
650 -> 651 ;
652 [label="gini = 0.0\nsamples = 5\nvalue = [5, 0]"] ;
650 -> 652 ;
653 [label="gini = 0.3\nsamples = 6\nvalue = [1, 5]"] ;
649 -> 653 ;
654 [label="gini = 0.0\nsamples = 7\nvalue = [7, 0]"] ;
648 -> 654 ;
655 [label="gini = 0.0\nsamples = 9\nvalue = [9, 0]"] ;
647 -> 655 ;
656 [label="credit_score <= 586.5\ngini = 0.5\nsamples = 1000\nvalue = [608, 392]"] ;
610 -> 656 ;
657 [label="instalment_health <= 8128.6\ngini = 0.5\nsamples = 45\nvalue = [18, 27]"] ;
656 -> 657 ;
658 [label="avg_acct_age_mnth <= 17.5\ngini = 0.3\nsamples = 25\nvalue = [4, 21]"] ;
657 -> 658 ;
659 [label="disbursed_amount <= 44271.5\ngini = 0.5\nsamples = 10\nvalue = [4, 6]"] ;
658 -> 659 ;
660 [label="gini = 0.5\nsamples = 5\nvalue = [3, 2]"] ;
659 -> 660 ;
661 [label="gini = 0.3\nsamples = 5\nvalue = [1, 4]"] ;
659 -> 661 ;
662 [label="gini = 0.0\nsamples = 15\nvalue = [0, 15]"] ;
658 -> 662 ;
663 [label="asset_to_loan_pct <= 1.4\ngini = 0.4\nsamples = 20\nvalue = [14, 6]"] ;
657 -> 663 ;
664 [label="PRI.CURRENT.BALANCE <= 401832.0\ngini = 0.5\nsamples = 11\nvalue = [5, 6]"] ;
663 -> 664 ;
665 [label="gini = 0.4\nsamples = 6\nvalue = [4, 2]"] ;
664 -> 665 ;
666 [label="gini = 0.3\nsamples = 5\nvalue = [1, 4]"] ;
664 -> 666 ;
667 [label="gini = 0.0\nsamples = 9\nvalue = [9, 0]"] ;
663 -> 667 ;
668 [label="def_pct_by_supplier <= 0.1\ngini = 0.5\nsamples = 955\nvalue = [590, 365]"] ;
656 -> 668 ;
669 [label="instalment_health <= 6100.0\ngini = 0.3\nsamples = 110\nvalue = [86, 24]"] ;
668 -> 669 ;
670 [label="avg_acct_age_mnth <= 12.5\ngini = 0.4\nsamples = 90\nvalue = [66, 24]"] ;
669 -> 670 ;
671 [label="avg_credit_hist_mnth <= 22.0\ngini = 0.4\nsamples = 78\nvalue = [54, 24]"] ;
670 -> 671 ;
672 [label="asset_to_loan_pct <= 1.2\ngini = 0.4\nsamples = 72\nvalue = [53, 19]"] ;
671 -> 672 ;
673 [label="gini = 0.0\nsamples = 5\nvalue = [5, 0]"] ;
672 -> 673 ;
674 [label="gini = 0.4\nsamples = 67\nvalue = [48, 19]"] ;
672 -> 674 ;
675 [label="gini = 0.3\nsamples = 6\nvalue = [1, 5]"] ;
671 -> 675 ;
676 [label="gini = 0.0\nsamples = 12\nvalue = [12, 0]"] ;
670 -> 676 ;
677 [label="gini = 0.0\nsamples = 20\nvalue = [20, 0]"] ;
669 -> 677 ;
678 [label="age_outstd_ratio <= 0.0\ngini = 0.5\nsamples = 845\nvalue = [504, 341]"] ;
668 -> 678 ;
679 [label="NO.OF_INQUIRIES <= 2.5\ngini = 0.5\nsamples = 823\nvalue = [496, 327]"] ;
678 -> 679 ;
680 [label="Age_when_applying <= 36.9\ngini = 0.5\nsamples = 812\nvalue = [494, 318]"] ;
679 -> 680 ;
681 [label="avg_credit_hist_mnth <= 28.5\ngini = 0.5\nsamples = 578\nvalue = [331, 247]"] ;
680 -> 681 ;
682 [label="gini = 0.5\nsamples = 530\nvalue = [297, 233]"] ;
681 -> 682 ;
683 [label="gini = 0.4\nsamples = 48\nvalue = [34, 14]"] ;
681 -> 683 ;
684 [label="asset_to_loan_pct <= 1.4\ngini = 0.4\nsamples = 234\nvalue = [163, 71]"] ;
680 -> 684 ;
685 [label="gini = 0.4\nsamples = 218\nvalue = [148, 70]"] ;
684 -> 685 ;
686 [label="gini = 0.1\nsamples = 16\nvalue = [15, 1]"] ;
684 -> 686 ;
687 [label="inst_curr_disb_ratio <= 0.0\ngini = 0.3\nsamples = 11\nvalue = [2, 9]"] ;
679 -> 687 ;
688 [label="gini = 0.0\nsamples = 7\nvalue = [0, 7]"] ;
687 -> 688 ;
689 [label="gini = 0.5\nsamples = 4\nvalue = [2, 2]"] ;
687 -> 689 ;
690 [label="ltv <= 78.2\ngini = 0.5\nsamples = 22\nvalue = [8, 14]"] ;
678 -> 690 ;
691 [label="ltv <= 74.4\ngini = 0.5\nsamples = 10\nvalue = [6, 4]"] ;
690 -> 691 ;
692 [label="gini = 0.4\nsamples = 4\nvalue = [1, 3]"] ;
691 -> 692 ;
693 [label="gini = 0.3\nsamples = 6\nvalue = [5, 1]"] ;
691 -> 693 ;
694 [label="def_pct_by_branch <= 0.2\ngini = 0.3\nsamples = 12\nvalue = [2, 10]"] ;
690 -> 694 ;
695 [label="gini = 0.5\nsamples = 4\nvalue = [2, 2]"] ;
694 -> 695 ;
696 [label="gini = 0.0\nsamples = 8\nvalue = [0, 8]"] ;
694 -> 696 ;
697 [label="prim_overdue_acct_pct <= 0.2\ngini = 0.4\nsamples = 2073\nvalue = [1547, 526]"] ;
609 -> 697 ;
698 [label="asset_cost <= 40399.5\ngini = 0.4\nsamples = 1976\nvalue = [1489, 487]"] ;
697 -> 698 ;
699 [label="gini = 0.3\nsamples = 5\nvalue = [1, 4]"] ;
698 -> 699 ;
700 [label="disbursed_amount <= 48412.0\ngini = 0.4\nsamples = 1971\nvalue = [1488, 483]"] ;
698 -> 700 ;
701 [label="Age_when_applying <= 19.5\ngini = 0.4\nsamples = 1947\nvalue = [1475, 472]"] ;
700 -> 701 ;
702 [label="def_pct_by_emp <= 0.1\ngini = 0.5\nsamples = 16\nvalue = [6, 10]"] ;
701 -> 702 ;
703 [label="gini = 0.4\nsamples = 6\nvalue = [4, 2]"] ;
702 -> 703 ;
704 [label="gini = 0.3\nsamples = 10\nvalue = [2, 8]"] ;
702 -> 704 ;
705 [label="avg_credit_hist_mnth <= 36.5\ngini = 0.4\nsamples = 1931\nvalue = [1469, 462]"] ;
701 -> 705 ;
706 [label="Employment.Type_Salaried <= 0.5\ngini = 0.4\nsamples = 1755\nvalue = [1322, 433]"] ;
705 -> 706 ;
707 [label="def_pct_by_branch <= 0.2\ngini = 0.4\nsamples = 1141\nvalue = [844, 297]"] ;
706 -> 707 ;
708 [label="gini = 0.4\nsamples = 1085\nvalue = [796, 289]"] ;
707 -> 708 ;
709 [label="gini = 0.2\nsamples = 56\nvalue = [48, 8]"] ;
707 -> 709 ;
710 [label="avg_credit_hist_mnth <= 6.5\ngini = 0.3\nsamples = 614\nvalue = [478, 136]"] ;
706 -> 710 ;
711 [label="gini = 0.3\nsamples = 477\nvalue = [386, 91]"] ;
710 -> 711 ;
712 [label="gini = 0.4\nsamples = 137\nvalue = [92, 45]"] ;
710 -> 712 ;
713 [label="PRI.DISBURSED.AMOUNT <= 119949.5\ngini = 0.3\nsamples = 176\nvalue = [147, 29]"] ;
705 -> 713 ;
714 [label="curr_outstd_ratio <= 0.3\ngini = 0.3\nsamples = 76\nvalue = [60, 16]"] ;
713 -> 714 ;
715 [label="gini = 0.3\nsamples = 5\nvalue = [1, 4]"] ;
714 -> 715 ;
716 [label="gini = 0.3\nsamples = 71\nvalue = [59, 12]"] ;
714 -> 716 ;
717 [label="age_outstd_ratio <= 0.0\ngini = 0.2\nsamples = 100\nvalue = [87, 13]"] ;
713 -> 717 ;
718 [label="gini = 0.3\nsamples = 49\nvalue = [38, 11]"] ;
717 -> 718 ;
719 [label="gini = 0.1\nsamples = 51\nvalue = [49, 2]"] ;
717 -> 719 ;
720 [label="def_pct_by_branch <= 0.2\ngini = 0.5\nsamples = 24\nvalue = [13, 11]"] ;
700 -> 720 ;
721 [label="gini = 0.3\nsamples = 9\nvalue = [7, 2]"] ;
720 -> 721 ;
722 [label="asset_cost <= 76753.0\ngini = 0.5\nsamples = 15\nvalue = [6, 9]"] ;
720 -> 722 ;
723 [label="asset_cost <= 71529.5\ngini = 0.3\nsamples = 10\nvalue = [2, 8]"] ;
722 -> 723 ;
724 [label="gini = 0.5\nsamples = 4\nvalue = [2, 2]"] ;
723 -> 724 ;
725 [label="gini = 0.0\nsamples = 6\nvalue = [0, 6]"] ;
723 -> 725 ;
726 [label="gini = 0.3\nsamples = 5\nvalue = [4, 1]"] ;
722 -> 726 ;
727 [label="PRI.DISBURSED.AMOUNT <= 391850.5\ngini = 0.5\nsamples = 97\nvalue = [58, 39]"] ;
697 -> 727 ;
728 [label="instalment_health <= 15190.0\ngini = 0.5\nsamples = 72\nvalue = [39, 33]"] ;
727 -> 728 ;
729 [label="ltv <= 69.8\ngini = 0.5\nsamples = 66\nvalue = [33, 33]"] ;
728 -> 729 ;
730 [label="PRI.CURRENT.BALANCE <= 28951.0\ngini = 0.5\nsamples = 49\nvalue = [28, 21]"] ;
729 -> 730 ;
731 [label="Age_when_applying <= 46.2\ngini = 0.3\nsamples = 26\nvalue = [21, 5]"] ;
730 -> 731 ;
732 [label="curr_outstd_ratio <= 0.8\ngini = 0.4\nsamples = 18\nvalue = [13, 5]"] ;
731 -> 732 ;
733 [label="gini = 0.0\nsamples = 5\nvalue = [5, 0]"] ;
732 -> 733 ;
734 [label="gini = 0.5\nsamples = 13\nvalue = [8, 5]"] ;
732 -> 734 ;
735 [label="gini = 0.0\nsamples = 8\nvalue = [8, 0]"] ;
731 -> 735 ;
736 [label="ltv <= 64.6\ngini = 0.4\nsamples = 23\nvalue = [7, 16]"] ;
730 -> 736 ;
737 [label="asset_to_loan_pct <= 1.7\ngini = 0.5\nsamples = 15\nvalue = [7, 8]"] ;
736 -> 737 ;
738 [label="gini = 0.3\nsamples = 5\nvalue = [4, 1]"] ;
737 -> 738 ;
739 [label="gini = 0.4\nsamples = 10\nvalue = [3, 7]"] ;
737 -> 739 ;
740 [label="gini = 0.0\nsamples = 8\nvalue = [0, 8]"] ;
736 -> 740 ;
741 [label="PRI.CURRENT.BALANCE <= 1105.0\ngini = 0.4\nsamples = 17\nvalue = [5, 12]"] ;
729 -> 741 ;
742 [label="gini = 0.4\nsamples = 4\nvalue = [3, 1]"] ;
741 -> 742 ;
743 [label="def_pct_by_state <= 0.2\ngini = 0.3\nsamples = 13\nvalue = [2, 11]"] ;
741 -> 743 ;
744 [label="gini = 0.0\nsamples = 9\nvalue = [0, 9]"] ;
743 -> 744 ;
745 [label="gini = 0.5\nsamples = 4\nvalue = [2, 2]"] ;
743 -> 745 ;
746 [label="gini = 0.0\nsamples = 6\nvalue = [6, 0]"] ;
728 -> 746 ;
747 [label="curr_outstd_ratio <= 0.1\ngini = 0.4\nsamples = 25\nvalue = [19, 6]"] ;
727 -> 747 ;
748 [label="avg_credit_hist_mnth <= 38.0\ngini = 0.5\nsamples = 15\nvalue = [9, 6]"] ;
747 -> 748 ;
749 [label="gini = 0.3\nsamples = 6\nvalue = [1, 5]"] ;
748 -> 749 ;
750 [label="gini = 0.2\nsamples = 9\nvalue = [8, 1]"] ;
748 -> 750 ;
751 [label="gini = 0.0\nsamples = 10\nvalue = [10, 0]"] ;
747 -> 751 ;
752 [label="age_outstd_ratio <= 0.0\ngini = 0.5\nsamples = 3243\nvalue = [1769, 1474]"] ;
608 -> 752 ;
753 [label="asset_cost <= 60385.5\ngini = 0.5\nsamples = 2475\nvalue = [1299, 1176]"] ;
752 -> 753 ;
754 [label="def_pct_by_pin <= 0.1\ngini = 0.5\nsamples = 859\nvalue = [388, 471]"] ;
753 -> 754 ;
755 [label="gini = 0.0\nsamples = 23\nvalue = [23, 0]"] ;
754 -> 755 ;
756 [label="disbursed_amount <= 35514.0\ngini = 0.5\nsamples = 836\nvalue = [365, 471]"] ;
754 -> 756 ;
757 [label="def_pct_by_supplier <= 0.3\ngini = 0.5\nsamples = 161\nvalue = [92, 69]"] ;
756 -> 757 ;
758 [label="asset_cost <= 43728.0\ngini = 0.5\nsamples = 123\nvalue = [76, 47]"] ;
757 -> 758 ;
759 [label="inst_curr_disb_ratio <= 0.0\ngini = 0.5\nsamples = 25\nvalue = [10, 15]"] ;
758 -> 759 ;
760 [label="gini = 0.2\nsamples = 8\nvalue = [1, 7]"] ;
759 -> 760 ;
761 [label="NEW.ACCTS.IN.LAST.SIX.MONTHS <= 2.5\ngini = 0.5\nsamples = 17\nvalue = [9, 8]"] ;
759 -> 761 ;
762 [label="gini = 0.5\nsamples = 13\nvalue = [5, 8]"] ;
761 -> 762 ;
763 [label="gini = 0.0\nsamples = 4\nvalue = [4, 0]"] ;
761 -> 763 ;
764 [label="def_pct_by_emp <= 0.3\ngini = 0.4\nsamples = 98\nvalue = [66, 32]"] ;
758 -> 764 ;
765 [label="asset_to_loan_pct <= 1.3\ngini = 0.4\nsamples = 85\nvalue = [60, 25]"] ;
764 -> 765 ;
766 [label="gini = 0.0\nsamples = 11\nvalue = [11, 0]"] ;
765 -> 766 ;
767 [label="gini = 0.4\nsamples = 74\nvalue = [49, 25]"] ;
765 -> 767 ;
768 [label="age_outstd_ratio <= 0.0\ngini = 0.5\nsamples = 13\nvalue = [6, 7]"] ;
764 -> 768 ;
769 [label="gini = 0.4\nsamples = 9\nvalue = [6, 3]"] ;
768 -> 769 ;
770 [label="gini = 0.0\nsamples = 4\nvalue = [0, 4]"] ;
768 -> 770 ;
771 [label="disbursed_amount <= 34461.5\ngini = 0.5\nsamples = 38\nvalue = [16, 22]"] ;
757 -> 771 ;
772 [label="def_pct_by_branch <= 0.2\ngini = 0.5\nsamples = 31\nvalue = [15, 16]"] ;
771 -> 772 ;
773 [label="gini = 0.0\nsamples = 5\nvalue = [0, 5]"] ;
772 -> 773 ;
774 [label="credit_score <= 693.5\ngini = 0.5\nsamples = 26\nvalue = [15, 11]"] ;
772 -> 774 ;
775 [label="gini = 0.4\nsamples = 15\nvalue = [11, 4]"] ;
774 -> 775 ;
776 [label="gini = 0.5\nsamples = 11\nvalue = [4, 7]"] ;
774 -> 776 ;
777 [label="gini = 0.2\nsamples = 7\nvalue = [1, 6]"] ;
771 -> 777 ;
778 [label="PRI.SANCTIONED.AMOUNT <= 273500.0\ngini = 0.5\nsamples = 675\nvalue = [273, 402]"] ;
756 -> 778 ;
779 [label="asset_to_loan_pct <= 1.4\ngini = 0.5\nsamples = 621\nvalue = [240, 381]"] ;
778 -> 779 ;
780 [label="age_outstd_ratio <= 0.0\ngini = 0.5\nsamples = 480\nvalue = [174, 306]"] ;
779 -> 780 ;
781 [label="disbursed_amount <= 39739.0\ngini = 0.5\nsamples = 463\nvalue = [172, 291]"] ;
780 -> 781 ;
782 [label="gini = 0.4\nsamples = 61\nvalue = [14, 47]"] ;
781 -> 782 ;
783 [label="gini = 0.5\nsamples = 402\nvalue = [158, 244]"] ;
781 -> 783 ;
784 [label="asset_to_loan_pct <= 1.3\ngini = 0.2\nsamples = 17\nvalue = [2, 15]"] ;
780 -> 784 ;
785 [label="gini = 0.0\nsamples = 13\nvalue = [0, 13]"] ;
784 -> 785 ;
786 [label="gini = 0.5\nsamples = 4\nvalue = [2, 2]"] ;
784 -> 786 ;
787 [label="NO.OF_INQUIRIES <= 0.5\ngini = 0.5\nsamples = 141\nvalue = [66, 75]"] ;
779 -> 787 ;
788 [label="def_pct_by_branch <= 0.2\ngini = 0.5\nsamples = 118\nvalue = [63, 55]"] ;
787 -> 788 ;
789 [label="gini = 0.5\nsamples = 49\nvalue = [19, 30]"] ;
788 -> 789 ;
790 [label="gini = 0.5\nsamples = 69\nvalue = [44, 25]"] ;
788 -> 790 ;
791 [label="inst_curr_disb_ratio <= 0.1\ngini = 0.2\nsamples = 23\nvalue = [3, 20]"] ;
787 -> 791 ;
792 [label="gini = 0.0\nsamples = 12\nvalue = [0, 12]"] ;
791 -> 792 ;
793 [label="gini = 0.4\nsamples = 11\nvalue = [3, 8]"] ;
791 -> 793 ;
794 [label="PRI.ACTIVE.ACCTS <= 1.5\ngini = 0.5\nsamples = 54\nvalue = [33, 21]"] ;
778 -> 794 ;
795 [label="inst_curr_disb_ratio <= 0.9\ngini = 0.5\nsamples = 13\nvalue = [5, 8]"] ;
794 -> 795 ;
796 [label="gini = 0.3\nsamples = 9\nvalue = [2, 7]"] ;
795 -> 796 ;
797 [label="gini = 0.4\nsamples = 4\nvalue = [3, 1]"] ;
795 -> 797 ;
798 [label="age_outstd_ratio <= 0.0\ngini = 0.4\nsamples = 41\nvalue = [28, 13]"] ;
794 -> 798 ;
799 [label="gini = 0.3\nsamples = 5\nvalue = [1, 4]"] ;
798 -> 799 ;
800 [label="ltv <= 73.0\ngini = 0.4\nsamples = 36\nvalue = [27, 9]"] ;
798 -> 800 ;
801 [label="gini = 0.5\nsamples = 5\nvalue = [2, 3]"] ;
800 -> 801 ;
802 [label="gini = 0.3\nsamples = 31\nvalue = [25, 6]"] ;
800 -> 802 ;
803 [label="disbursed_amount <= 44834.0\ngini = 0.5\nsamples = 1616\nvalue = [911, 705]"] ;
753 -> 803 ;
804 [label="def_pct_by_supplier <= 0.1\ngini = 0.5\nsamples = 786\nvalue = [494, 292]"] ;
803 -> 804 ;
805 [label="curr_outstd_ratio <= 0.5\ngini = 0.3\nsamples = 30\nvalue = [25, 5]"] ;
804 -> 805 ;
806 [label="gini = 0.5\nsamples = 6\nvalue = [3, 3]"] ;
805 -> 806 ;
807 [label="asset_cost <= 62519.5\ngini = 0.2\nsamples = 24\nvalue = [22, 2]"] ;
805 -> 807 ;
808 [label="gini = 0.4\nsamples = 4\nvalue = [3, 1]"] ;
807 -> 808 ;
809 [label="total_outstanding <= 41872.0\ngini = 0.1\nsamples = 20\nvalue = [19, 1]"] ;
807 -> 809 ;
810 [label="gini = 0.4\nsamples = 4\nvalue = [3, 1]"] ;
809 -> 810 ;
811 [label="gini = 0.0\nsamples = 16\nvalue = [16, 0]"] ;
809 -> 811 ;
812 [label="def_pct_by_branch <= 0.2\ngini = 0.5\nsamples = 756\nvalue = [469, 287]"] ;
804 -> 812 ;
813 [label="asset_cost <= 62712.0\ngini = 0.5\nsamples = 100\nvalue = [51, 49]"] ;
812 -> 813 ;
814 [label="PRI.CURRENT.BALANCE <= 22499.5\ngini = 0.4\nsamples = 19\nvalue = [5, 14]"] ;
813 -> 814 ;
815 [label="Age_when_applying <= 30.5\ngini = 0.5\nsamples = 14\nvalue = [5, 9]"] ;
814 -> 815 ;
816 [label="gini = 0.3\nsamples = 10\nvalue = [2, 8]"] ;
815 -> 816 ;
817 [label="gini = 0.4\nsamples = 4\nvalue = [3, 1]"] ;
815 -> 817 ;
818 [label="gini = 0.0\nsamples = 5\nvalue = [0, 5]"] ;
814 -> 818 ;
819 [label="ltv <= 48.2\ngini = 0.5\nsamples = 81\nvalue = [46, 35]"] ;
813 -> 819 ;
820 [label="gini = 0.2\nsamples = 8\nvalue = [7, 1]"] ;
819 -> 820 ;
821 [label="credit_score <= 603.5\ngini = 0.5\nsamples = 73\nvalue = [39, 34]"] ;
819 -> 821 ;
822 [label="gini = 0.5\nsamples = 52\nvalue = [24, 28]"] ;
821 -> 822 ;
823 [label="gini = 0.4\nsamples = 21\nvalue = [15, 6]"] ;
821 -> 823 ;
824 [label="VoterID_flag <= 0.5\ngini = 0.5\nsamples = 656\nvalue = [418, 238]"] ;
812 -> 824 ;
825 [label="PRIMARY.INSTAL.AMT <= 75009.5\ngini = 0.5\nsamples = 605\nvalue = [394, 211]"] ;
824 -> 825 ;
826 [label="def_pct_by_pin <= 0.2\ngini = 0.5\nsamples = 589\nvalue = [379, 210]"] ;
825 -> 826 ;
827 [label="gini = 0.4\nsamples = 492\nvalue = [332, 160]"] ;
826 -> 827 ;
828 [label="gini = 0.5\nsamples = 97\nvalue = [47, 50]"] ;
826 -> 828 ;
829 [label="PRI.CURRENT.BALANCE <= 88449.5\ngini = 0.1\nsamples = 16\nvalue = [15, 1]"] ;
825 -> 829 ;
830 [label="gini = 0.4\nsamples = 4\nvalue = [3, 1]"] ;
829 -> 830 ;
831 [label="gini = 0.0\nsamples = 12\nvalue = [12, 0]"] ;
829 -> 831 ;
832 [label="def_pct_by_state <= 0.2\ngini = 0.5\nsamples = 51\nvalue = [24, 27]"] ;
824 -> 832 ;
833 [label="inst_curr_disb_ratio <= 0.0\ngini = 0.5\nsamples = 47\nvalue = [20, 27]"] ;
832 -> 833 ;
834 [label="gini = 0.5\nsamples = 35\nvalue = [17, 18]"] ;
833 -> 834 ;
835 [label="gini = 0.4\nsamples = 12\nvalue = [3, 9]"] ;
833 -> 835 ;
836 [label="gini = 0.0\nsamples = 4\nvalue = [4, 0]"] ;
832 -> 836 ;
837 [label="age_outstd_ratio <= 0.0\ngini = 0.5\nsamples = 830\nvalue = [417, 413]"] ;
803 -> 837 ;
838 [label="credit_score <= 571.5\ngini = 0.5\nsamples = 800\nvalue = [410, 390]"] ;
837 -> 838 ;
839 [label="Age_when_applying <= 27.2\ngini = 0.4\nsamples = 31\nvalue = [8, 23]"] ;
838 -> 839 ;
840 [label="gini = 0.0\nsamples = 11\nvalue = [0, 11]"] ;
839 -> 840 ;
841 [label="prim_overdue_acct_pct <= 0.2\ngini = 0.5\nsamples = 20\nvalue = [8, 12]"] ;
839 -> 841 ;
842 [label="PRI.DISBURSED.AMOUNT <= 134780.0\ngini = 0.4\nsamples = 11\nvalue = [3, 8]"] ;
841 -> 842 ;
843 [label="gini = 0.0\nsamples = 4\nvalue = [0, 4]"] ;
842 -> 843 ;
844 [label="gini = 0.5\nsamples = 7\nvalue = [3, 4]"] ;
842 -> 844 ;
845 [label="gini = 0.5\nsamples = 9\nvalue = [5, 4]"] ;
841 -> 845 ;
846 [label="PRI.SANCTIONED.AMOUNT <= 627500.0\ngini = 0.5\nsamples = 769\nvalue = [402, 367]"] ;
838 -> 846 ;
847 [label="def_pct_by_emp <= 0.3\ngini = 0.5\nsamples = 738\nvalue = [378, 360]"] ;
846 -> 847 ;
848 [label="avg_acct_age_mnth <= 10.5\ngini = 0.5\nsamples = 669\nvalue = [350, 319]"] ;
847 -> 848 ;
849 [label="gini = 0.5\nsamples = 552\nvalue = [298, 254]"] ;
848 -> 849 ;
850 [label="gini = 0.5\nsamples = 117\nvalue = [52, 65]"] ;
848 -> 850 ;
851 [label="curr_outstd_ratio <= 0.6\ngini = 0.5\nsamples = 69\nvalue = [28, 41]"] ;
847 -> 851 ;
852 [label="gini = 0.0\nsamples = 9\nvalue = [0, 9]"] ;
851 -> 852 ;
853 [label="gini = 0.5\nsamples = 60\nvalue = [28, 32]"] ;
851 -> 853 ;
854 [label="asset_to_loan_pct <= 1.4\ngini = 0.3\nsamples = 31\nvalue = [24, 7]"] ;
846 -> 854 ;
855 [label="gini = 0.5\nsamples = 7\nvalue = [3, 4]"] ;
854 -> 855 ;
856 [label="age_outstd_ratio <= 0.0\ngini = 0.2\nsamples = 24\nvalue = [21, 3]"] ;
854 -> 856 ;
857 [label="gini = 0.4\nsamples = 6\nvalue = [4, 2]"] ;
856 -> 857 ;
858 [label="gini = 0.1\nsamples = 18\nvalue = [17, 1]"] ;
856 -> 858 ;
859 [label="asset_cost <= 61629.0\ngini = 0.4\nsamples = 30\nvalue = [7, 23]"] ;
837 -> 859 ;
860 [label="gini = 0.5\nsamples = 5\nvalue = [3, 2]"] ;
859 -> 860 ;
861 [label="Employment.Type_Salaried <= 0.5\ngini = 0.3\nsamples = 25\nvalue = [4, 21]"] ;
859 -> 861 ;
862 [label="def_pct_by_supplier <= 0.2\ngini = 0.1\nsamples = 14\nvalue = [1, 13]"] ;
861 -> 862 ;
863 [label="gini = 0.4\nsamples = 4\nvalue = [1, 3]"] ;
862 -> 863 ;
864 [label="gini = 0.0\nsamples = 10\nvalue = [0, 10]"] ;
862 -> 864 ;
865 [label="asset_to_loan_pct <= 1.4\ngini = 0.4\nsamples = 11\nvalue = [3, 8]"] ;
861 -> 865 ;
866 [label="gini = 0.0\nsamples = 4\nvalue = [0, 4]"] ;
865 -> 866 ;
867 [label="gini = 0.5\nsamples = 7\nvalue = [3, 4]"] ;
865 -> 867 ;
868 [label="ltv <= 73.4\ngini = 0.5\nsamples = 768\nvalue = [470, 298]"] ;
752 -> 868 ;
869 [label="curr_outstd_ratio <= 1.0\ngini = 0.5\nsamples = 503\nvalue = [324, 179]"] ;
868 -> 869 ;
870 [label="credit_score <= 644.0\ngini = 0.5\nsamples = 498\nvalue = [319, 179]"] ;
869 -> 870 ;
871 [label="asset_to_loan_pct <= 2.9\ngini = 0.5\nsamples = 485\nvalue = [307, 178]"] ;
870 -> 871 ;
872 [label="def_pct_by_emp <= 0.5\ngini = 0.5\nsamples = 457\nvalue = [294, 163]"] ;
871 -> 872 ;
873 [label="def_pct_by_emp <= 0.3\ngini = 0.5\nsamples = 451\nvalue = [294, 157]"] ;
872 -> 873 ;
874 [label="total_outstanding <= 42302.0\ngini = 0.4\nsamples = 284\nvalue = [194, 90]"] ;
873 -> 874 ;
875 [label="gini = 0.4\nsamples = 216\nvalue = [154, 62]"] ;
874 -> 875 ;
876 [label="gini = 0.5\nsamples = 68\nvalue = [40, 28]"] ;
874 -> 876 ;
877 [label="total_outstanding <= 45191.0\ngini = 0.5\nsamples = 167\nvalue = [100, 67]"] ;
873 -> 877 ;
878 [label="gini = 0.5\nsamples = 155\nvalue = [97, 58]"] ;
877 -> 878 ;
879 [label="gini = 0.4\nsamples = 12\nvalue = [3, 9]"] ;
877 -> 879 ;
880 [label="gini = 0.0\nsamples = 6\nvalue = [0, 6]"] ;
872 -> 880 ;
881 [label="age_outstd_ratio <= 0.0\ngini = 0.5\nsamples = 28\nvalue = [13, 15]"] ;
871 -> 881 ;
882 [label="gini = 0.0\nsamples = 4\nvalue = [0, 4]"] ;
881 -> 882 ;
883 [label="total_outstanding <= 24335.0\ngini = 0.5\nsamples = 24\nvalue = [13, 11]"] ;
881 -> 883 ;
884 [label="def_pct_by_branch <= 0.2\ngini = 0.5\nsamples = 19\nvalue = [12, 7]"] ;
883 -> 884 ;
885 [label="gini = 0.5\nsamples = 15\nvalue = [8, 7]"] ;
884 -> 885 ;
886 [label="gini = 0.0\nsamples = 4\nvalue = [4, 0]"] ;
884 -> 886 ;
887 [label="gini = 0.3\nsamples = 5\nvalue = [1, 4]"] ;
883 -> 887 ;
888 [label="curr_outstd_ratio <= 0.8\ngini = 0.1\nsamples = 13\nvalue = [12, 1]"] ;
870 -> 888 ;
889 [label="gini = 0.4\nsamples = 4\nvalue = [3, 1]"] ;
888 -> 889 ;
890 [label="gini = 0.0\nsamples = 9\nvalue = [9, 0]"] ;
888 -> 890 ;
891 [label="gini = 0.0\nsamples = 5\nvalue = [5, 0]"] ;
869 -> 891 ;
892 [label="age_outstd_ratio <= 0.0\ngini = 0.5\nsamples = 265\nvalue = [146, 119]"] ;
868 -> 892 ;
893 [label="ltv <= 79.7\ngini = 0.4\nsamples = 40\nvalue = [29, 11]"] ;
892 -> 893 ;
894 [label="Age_when_applying <= 35.8\ngini = 0.3\nsamples = 25\nvalue = [20, 5]"] ;
893 -> 894 ;
895 [label="gini = 0.5\nsamples = 8\nvalue = [4, 4]"] ;
894 -> 895 ;
896 [label="ltv <= 74.3\ngini = 0.1\nsamples = 17\nvalue = [16, 1]"] ;
894 -> 896 ;
897 [label="gini = 0.3\nsamples = 5\nvalue = [4, 1]"] ;
896 -> 897 ;
898 [label="gini = 0.0\nsamples = 12\nvalue = [12, 0]"] ;
896 -> 898 ;
899 [label="total_outstanding <= 47422.5\ngini = 0.5\nsamples = 15\nvalue = [9, 6]"] ;
893 -> 899 ;
900 [label="disbursed_amount <= 44234.5\ngini = 0.5\nsamples = 11\nvalue = [5, 6]"] ;
899 -> 900 ;
901 [label="gini = 0.4\nsamples = 4\nvalue = [3, 1]"] ;
900 -> 901 ;
902 [label="gini = 0.4\nsamples = 7\nvalue = [2, 5]"] ;
900 -> 902 ;
903 [label="gini = 0.0\nsamples = 4\nvalue = [4, 0]"] ;
899 -> 903 ;
904 [label="def_pct_by_pin <= 0.2\ngini = 0.5\nsamples = 225\nvalue = [117, 108]"] ;
892 -> 904 ;
905 [label="VoterID_flag <= 0.5\ngini = 0.4\nsamples = 64\nvalue = [45, 19]"] ;
904 -> 905 ;
906 [label="Age_when_applying <= 42.1\ngini = 0.4\nsamples = 58\nvalue = [43, 15]"] ;
905 -> 906 ;
907 [label="gini = 0.0\nsamples = 11\nvalue = [11, 0]"] ;
906 -> 907 ;
908 [label="asset_to_loan_pct <= 1.4\ngini = 0.4\nsamples = 47\nvalue = [32, 15]"] ;
906 -> 908 ;
909 [label="total_outstanding <= 47847.0\ngini = 0.4\nsamples = 41\nvalue = [30, 11]"] ;
908 -> 909 ;
910 [label="gini = 0.4\nsamples = 33\nvalue = [22, 11]"] ;
909 -> 910 ;
911 [label="gini = 0.0\nsamples = 8\nvalue = [8, 0]"] ;
909 -> 911 ;
912 [label="gini = 0.4\nsamples = 6\nvalue = [2, 4]"] ;
908 -> 912 ;
913 [label="gini = 0.4\nsamples = 6\nvalue = [2, 4]"] ;
905 -> 913 ;
914 [label="ltv <= 73.9\ngini = 0.5\nsamples = 161\nvalue = [72, 89]"] ;
904 -> 914 ;
915 [label="inst_curr_disb_ratio <= -4.9\ngini = 0.3\nsamples = 12\nvalue = [2, 10]"] ;
914 -> 915 ;
916 [label="gini = 0.4\nsamples = 8\nvalue = [2, 6]"] ;
915 -> 916 ;
917 [label="gini = 0.0\nsamples = 4\nvalue = [0, 4]"] ;
915 -> 917 ;
918 [label="age_outstd_ratio <= 0.0\ngini = 0.5\nsamples = 149\nvalue = [70, 79]"] ;
914 -> 918 ;
919 [label="age_outstd_ratio <= 0.0\ngini = 0.4\nsamples = 30\nvalue = [9, 21]"] ;
918 -> 919 ;
920 [label="asset_to_loan_pct <= 1.2\ngini = 0.5\nsamples = 25\nvalue = [9, 16]"] ;
919 -> 920 ;
921 [label="gini = 0.4\nsamples = 7\nvalue = [5, 2]"] ;
920 -> 921 ;
922 [label="gini = 0.3\nsamples = 18\nvalue = [4, 14]"] ;
920 -> 922 ;
923 [label="gini = 0.0\nsamples = 5\nvalue = [0, 5]"] ;
919 -> 923 ;
924 [label="disbursed_amount <= 35957.0\ngini = 0.5\nsamples = 119\nvalue = [61, 58]"] ;
918 -> 924 ;
925 [label="disbursed_amount <= 34857.0\ngini = 0.4\nsamples = 30\nvalue = [21, 9]"] ;
924 -> 925 ;
926 [label="gini = 0.5\nsamples = 24\nvalue = [15, 9]"] ;
925 -> 926 ;
927 [label="gini = 0.0\nsamples = 6\nvalue = [6, 0]"] ;
925 -> 927 ;
928 [label="disbursed_amount <= 37357.0\ngini = 0.5\nsamples = 89\nvalue = [40, 49]"] ;
924 -> 928 ;
929 [label="gini = 0.2\nsamples = 8\nvalue = [1, 7]"] ;
928 -> 929 ;
930 [label="gini = 0.5\nsamples = 81\nvalue = [39, 42]"] ;
928 -> 930 ;
931 [label="def_pct_by_pin <= 0.2\ngini = 0.4\nsamples = 1939\nvalue = [1456, 483]"] ;
307 -> 931 ;
932 [label="total_outstanding <= 141723.5\ngini = 0.3\nsamples = 724\nvalue = [607, 117]"] ;
931 -> 932 ;
933 [label="def_pct_by_pin <= 0.1\ngini = 0.3\nsamples = 592\nvalue = [483, 109]"] ;
932 -> 933 ;
934 [label="total_outstanding <= 48994.0\ngini = 0.0\nsamples = 71\nvalue = [70, 1]"] ;
933 -> 934 ;
935 [label="gini = 0.0\nsamples = 53\nvalue = [53, 0]"] ;
934 -> 935 ;
936 [label="disbursed_amount <= 47447.0\ngini = 0.1\nsamples = 18\nvalue = [17, 1]"] ;
934 -> 936 ;
937 [label="gini = 0.0\nsamples = 14\nvalue = [14, 0]"] ;
936 -> 937 ;
938 [label="gini = 0.4\nsamples = 4\nvalue = [3, 1]"] ;
936 -> 938 ;
939 [label="asset_cost <= 60033.0\ngini = 0.3\nsamples = 521\nvalue = [413, 108]"] ;
933 -> 939 ;
940 [label="disbursed_amount <= 43149.0\ngini = 0.4\nsamples = 121\nvalue = [84, 37]"] ;
939 -> 940 ;
941 [label="def_pct_by_pin <= 0.1\ngini = 0.3\nsamples = 82\nvalue = [66, 16]"] ;
940 -> 941 ;
942 [label="gini = 0.0\nsamples = 11\nvalue = [11, 0]"] ;
941 -> 942 ;
943 [label="NEW.ACCTS.IN.LAST.SIX.MONTHS <= 0.5\ngini = 0.3\nsamples = 71\nvalue = [55, 16]"] ;
941 -> 943 ;
944 [label="asset_to_loan_pct <= 1.5\ngini = 0.4\nsamples = 56\nvalue = [41, 15]"] ;
943 -> 944 ;
945 [label="total_outstanding <= 41018.5\ngini = 0.4\nsamples = 41\nvalue = [27, 14]"] ;
944 -> 945 ;
946 [label="avg_credit_hist_mnth <= 28.0\ngini = 0.3\nsamples = 23\nvalue = [19, 4]"] ;
945 -> 946 ;
947 [label="gini = 0.4\nsamples = 15\nvalue = [11, 4]"] ;
946 -> 947 ;
948 [label="gini = 0.0\nsamples = 8\nvalue = [8, 0]"] ;
946 -> 948 ;
949 [label="disbursed_amount <= 42349.5\ngini = 0.5\nsamples = 18\nvalue = [8, 10]"] ;
945 -> 949 ;
950 [label="gini = 0.2\nsamples = 10\nvalue = [1, 9]"] ;
949 -> 950 ;
951 [label="gini = 0.2\nsamples = 8\nvalue = [7, 1]"] ;
949 -> 951 ;
952 [label="Age_when_applying <= 33.9\ngini = 0.1\nsamples = 15\nvalue = [14, 1]"] ;
944 -> 952 ;
953 [label="gini = 0.4\nsamples = 4\nvalue = [3, 1]"] ;
952 -> 953 ;
954 [label="gini = 0.0\nsamples = 11\nvalue = [11, 0]"] ;
952 -> 954 ;
955 [label="total_outstanding <= 66346.5\ngini = 0.1\nsamples = 15\nvalue = [14, 1]"] ;
943 -> 955 ;
956 [label="gini = 0.0\nsamples = 11\nvalue = [11, 0]"] ;
955 -> 956 ;
957 [label="gini = 0.4\nsamples = 4\nvalue = [3, 1]"] ;
955 -> 957 ;
958 [label="age_outstd_ratio <= 0.0\ngini = 0.5\nsamples = 39\nvalue = [18, 21]"] ;
940 -> 958 ;
959 [label="gini = 0.0\nsamples = 7\nvalue = [0, 7]"] ;
958 -> 959 ;
960 [label="disbursed_amount <= 43925.0\ngini = 0.5\nsamples = 32\nvalue = [18, 14]"] ;
958 -> 960 ;
961 [label="gini = 0.2\nsamples = 7\nvalue = [1, 6]"] ;
960 -> 961 ;
962 [label="asset_cost <= 58430.0\ngini = 0.4\nsamples = 25\nvalue = [17, 8]"] ;
960 -> 962 ;
963 [label="age_outstd_ratio <= 0.0\ngini = 0.5\nsamples = 14\nvalue = [8, 6]"] ;
962 -> 963 ;
964 [label="gini = 0.0\nsamples = 5\nvalue = [5, 0]"] ;
963 -> 964 ;
965 [label="gini = 0.4\nsamples = 9\nvalue = [3, 6]"] ;
963 -> 965 ;
966 [label="disbursed_amount <= 46389.5\ngini = 0.3\nsamples = 11\nvalue = [9, 2]"] ;
962 -> 966 ;
967 [label="gini = 0.0\nsamples = 5\nvalue = [5, 0]"] ;
966 -> 967 ;
968 [label="gini = 0.4\nsamples = 6\nvalue = [4, 2]"] ;
966 -> 968 ;
969 [label="def_pct_by_emp <= 0.2\ngini = 0.3\nsamples = 400\nvalue = [329, 71]"] ;
939 -> 969 ;
970 [label="PRIMARY.INSTAL.AMT <= 4925.5\ngini = 0.2\nsamples = 294\nvalue = [252, 42]"] ;
969 -> 970 ;
971 [label="total_outstanding <= 52076.5\ngini = 0.2\nsamples = 262\nvalue = [231, 31]"] ;
970 -> 971 ;
972 [label="def_pct_by_branch <= 0.2\ngini = 0.2\nsamples = 228\nvalue = [205, 23]"] ;
971 -> 972 ;
973 [label="PRIMARY.INSTAL.AMT <= 1246.0\ngini = 0.2\nsamples = 98\nvalue = [84, 14]"] ;
972 -> 973 ;
974 [label="asset_to_loan_pct <= 1.7\ngini = 0.1\nsamples = 54\nvalue = [52, 2]"] ;
973 -> 974 ;
975 [label="gini = 0.0\nsamples = 30\nvalue = [30, 0]"] ;
974 -> 975 ;
976 [label="gini = 0.2\nsamples = 24\nvalue = [22, 2]"] ;
974 -> 976 ;
977 [label="total_outstanding <= 48216.5\ngini = 0.4\nsamples = 44\nvalue = [32, 12]"] ;
973 -> 977 ;
978 [label="gini = 0.5\nsamples = 35\nvalue = [23, 12]"] ;
977 -> 978 ;
979 [label="gini = 0.0\nsamples = 9\nvalue = [9, 0]"] ;
977 -> 979 ;
980 [label="asset_to_loan_pct <= 1.7\ngini = 0.1\nsamples = 130\nvalue = [121, 9]"] ;
972 -> 980 ;
981 [label="disbursed_amount <= 43181.5\ngini = 0.1\nsamples = 92\nvalue = [89, 3]"] ;
980 -> 981 ;
982 [label="gini = 0.0\nsamples = 31\nvalue = [31, 0]"] ;
981 -> 982 ;
983 [label="gini = 0.1\nsamples = 61\nvalue = [58, 3]"] ;
981 -> 983 ;
984 [label="total_outstanding <= 36340.0\ngini = 0.3\nsamples = 38\nvalue = [32, 6]"] ;
980 -> 984 ;
985 [label="gini = 0.0\nsamples = 21\nvalue = [21, 0]"] ;
984 -> 985 ;
986 [label="gini = 0.5\nsamples = 17\nvalue = [11, 6]"] ;
984 -> 986 ;
987 [label="inst_curr_disb_ratio <= 0.2\ngini = 0.4\nsamples = 34\nvalue = [26, 8]"] ;
971 -> 987 ;
988 [label="PRI.SANCTIONED.AMOUNT <= 49707.5\ngini = 0.3\nsamples = 29\nvalue = [24, 5]"] ;
987 -> 988 ;
989 [label="gini = 0.4\nsamples = 9\nvalue = [6, 3]"] ;
988 -> 989 ;
990 [label="Age_when_applying <= 41.0\ngini = 0.2\nsamples = 20\nvalue = [18, 2]"] ;
988 -> 990 ;
991 [label="gini = 0.0\nsamples = 10\nvalue = [10, 0]"] ;
990 -> 991 ;
992 [label="gini = 0.3\nsamples = 10\nvalue = [8, 2]"] ;
990 -> 992 ;
993 [label="gini = 0.5\nsamples = 5\nvalue = [2, 3]"] ;
987 -> 993 ;
994 [label="total_outstanding <= 46948.5\ngini = 0.5\nsamples = 32\nvalue = [21, 11]"] ;
970 -> 994 ;
995 [label="gini = 0.0\nsamples = 11\nvalue = [11, 0]"] ;
994 -> 995 ;
996 [label="def_pct_by_manufacturer <= 0.2\ngini = 0.5\nsamples = 21\nvalue = [10, 11]"] ;
994 -> 996 ;
997 [label="def_pct_by_pin <= 0.1\ngini = 0.4\nsamples = 15\nvalue = [5, 10]"] ;
996 -> 997 ;
998 [label="gini = 0.5\nsamples = 7\nvalue = [4, 3]"] ;
997 -> 998 ;
999 [label="gini = 0.2\nsamples = 8\nvalue = [1, 7]"] ;
997 -> 999 ;
1000 [label="gini = 0.3\nsamples = 6\nvalue = [5, 1]"] ;
996 -> 1000 ;
1001 [label="PRIMARY.INSTAL.AMT <= 7498.5\ngini = 0.4\nsamples = 106\nvalue = [77, 29]"] ;
969 -> 1001 ;
1002 [label="PRI.NO.OF.ACCTS <= 3.5\ngini = 0.4\nsamples = 96\nvalue = [74, 22]"] ;
1001 -> 1002 ;
1003 [label="def_pct_by_supplier <= 0.1\ngini = 0.4\nsamples = 77\nvalue = [56, 21]"] ;
1002 -> 1003 ;
1004 [label="def_pct_by_state <= 0.2\ngini = 0.5\nsamples = 10\nvalue = [5, 5]"] ;
1003 -> 1004 ;
1005 [label="gini = 0.3\nsamples = 6\nvalue = [5, 1]"] ;
1004 -> 1005 ;
1006 [label="gini = 0.0\nsamples = 4\nvalue = [0, 4]"] ;
1004 -> 1006 ;
1007 [label="age_outstd_ratio <= 0.0\ngini = 0.4\nsamples = 67\nvalue = [51, 16]"] ;
1003 -> 1007 ;
1008 [label="gini = 0.0\nsamples = 13\nvalue = [13, 0]"] ;
1007 -> 1008 ;
1009 [label="def_pct_by_pin <= 0.1\ngini = 0.4\nsamples = 54\nvalue = [38, 16]"] ;
1007 -> 1009 ;
1010 [label="gini = 0.1\nsamples = 16\nvalue = [15, 1]"] ;
1009 -> 1010 ;
1011 [label="gini = 0.5\nsamples = 38\nvalue = [23, 15]"] ;
1009 -> 1011 ;
1012 [label="def_pct_by_manufacturer <= 0.2\ngini = 0.1\nsamples = 19\nvalue = [18, 1]"] ;
1002 -> 1012 ;
1013 [label="gini = 0.0\nsamples = 15\nvalue = [15, 0]"] ;
1012 -> 1013 ;
1014 [label="gini = 0.4\nsamples = 4\nvalue = [3, 1]"] ;
1012 -> 1014 ;
1015 [label="asset_cost <= 69340.5\ngini = 0.4\nsamples = 10\nvalue = [3, 7]"] ;
1001 -> 1015 ;
1016 [label="gini = 0.0\nsamples = 4\nvalue = [0, 4]"] ;
1015 -> 1016 ;
1017 [label="gini = 0.5\nsamples = 6\nvalue = [3, 3]"] ;
1015 -> 1017 ;
1018 [label="inst_curr_disb_ratio <= 3.8\ngini = 0.1\nsamples = 132\nvalue = [124, 8]"] ;
932 -> 1018 ;
1019 [label="def_pct_by_supplier <= 0.3\ngini = 0.1\nsamples = 124\nvalue = [120, 4]"] ;
1018 -> 1019 ;
1020 [label="avg_credit_hist_mnth <= 15.5\ngini = 0.0\nsamples = 120\nvalue = [117, 3]"] ;
1019 -> 1020 ;
1021 [label="gini = 0.3\nsamples = 5\nvalue = [4, 1]"] ;
1020 -> 1021 ;
1022 [label="def_pct_by_supplier <= 0.1\ngini = 0.0\nsamples = 115\nvalue = [113, 2]"] ;
1020 -> 1022 ;
1023 [label="gini = 0.2\nsamples = 9\nvalue = [8, 1]"] ;
1022 -> 1023 ;
1024 [label="avg_credit_hist_mnth <= 126.5\ngini = 0.0\nsamples = 106\nvalue = [105, 1]"] ;
1022 -> 1024 ;
1025 [label="gini = 0.0\nsamples = 97\nvalue = [97, 0]"] ;
1024 -> 1025 ;
1026 [label="gini = 0.2\nsamples = 9\nvalue = [8, 1]"] ;
1024 -> 1026 ;
1027 [label="gini = 0.4\nsamples = 4\nvalue = [3, 1]"] ;
1019 -> 1027 ;
1028 [label="gini = 0.5\nsamples = 8\nvalue = [4, 4]"] ;
1018 -> 1028 ;
1029 [label="PRI.DISBURSED.AMOUNT <= 756142.0\ngini = 0.4\nsamples = 1215\nvalue = [849, 366]"] ;
931 -> 1029 ;
1030 [label="def_pct_by_branch <= 0.2\ngini = 0.4\nsamples = 1062\nvalue = [724, 338]"] ;
1029 -> 1030 ;
1031 [label="Age_when_applying <= 34.1\ngini = 0.4\nsamples = 957\nvalue = [671, 286]"] ;
1030 -> 1031 ;
1032 [label="def_pct_by_emp <= 0.3\ngini = 0.5\nsamples = 485\nvalue = [316, 169]"] ;
1031 -> 1032 ;
1033 [label="asset_cost <= 63743.5\ngini = 0.4\nsamples = 419\nvalue = [284, 135]"] ;
1032 -> 1033 ;
1034 [label="NO.OF_INQUIRIES <= 0.5\ngini = 0.5\nsamples = 175\nvalue = [107, 68]"] ;
1033 -> 1034 ;
1035 [label="asset_cost <= 62703.5\ngini = 0.5\nsamples = 149\nvalue = [97, 52]"] ;
1034 -> 1035 ;
1036 [label="Employment.Type_Salaried <= 0.5\ngini = 0.4\nsamples = 127\nvalue = [88, 39]"] ;
1035 -> 1036 ;
1037 [label="asset_cost <= 61826.0\ngini = 0.5\nsamples = 59\nvalue = [34, 25]"] ;
1036 -> 1037 ;
1038 [label="gini = 0.5\nsamples = 51\nvalue = [32, 19]"] ;
1037 -> 1038 ;
1039 [label="gini = 0.4\nsamples = 8\nvalue = [2, 6]"] ;
1037 -> 1039 ;
1040 [label="ltv <= 76.6\ngini = 0.3\nsamples = 68\nvalue = [54, 14]"] ;
1036 -> 1040 ;
1041 [label="gini = 0.1\nsamples = 30\nvalue = [28, 2]"] ;
1040 -> 1041 ;
1042 [label="gini = 0.4\nsamples = 38\nvalue = [26, 12]"] ;
1040 -> 1042 ;
1043 [label="def_pct_by_manufacturer <= 0.2\ngini = 0.5\nsamples = 22\nvalue = [9, 13]"] ;
1035 -> 1043 ;
1044 [label="gini = 0.3\nsamples = 9\nvalue = [2, 7]"] ;
1043 -> 1044 ;
1045 [label="def_pct_by_emp <= 0.2\ngini = 0.5\nsamples = 13\nvalue = [7, 6]"] ;
1043 -> 1045 ;
1046 [label="gini = 0.4\nsamples = 7\nvalue = [2, 5]"] ;
1045 -> 1046 ;
1047 [label="gini = 0.3\nsamples = 6\nvalue = [5, 1]"] ;
1045 -> 1047 ;
1048 [label="avg_acct_age_mnth <= 6.5\ngini = 0.5\nsamples = 26\nvalue = [10, 16]"] ;
1034 -> 1048 ;
1049 [label="gini = 0.5\nsamples = 8\nvalue = [5, 3]"] ;
1048 -> 1049 ;
1050 [label="inst_curr_disb_ratio <= 0.1\ngini = 0.4\nsamples = 18\nvalue = [5, 13]"] ;
1048 -> 1050 ;
1051 [label="disbursed_amount <= 44121.5\ngini = 0.3\nsamples = 13\nvalue = [2, 11]"] ;
1050 -> 1051 ;
1052 [label="gini = 0.0\nsamples = 7\nvalue = [0, 7]"] ;
1051 -> 1052 ;
1053 [label="gini = 0.4\nsamples = 6\nvalue = [2, 4]"] ;
1051 -> 1053 ;
1054 [label="gini = 0.5\nsamples = 5\nvalue = [3, 2]"] ;
1050 -> 1054 ;
1055 [label="PRI.CURRENT.BALANCE <= 16697.5\ngini = 0.4\nsamples = 244\nvalue = [177, 67]"] ;
1033 -> 1055 ;
1056 [label="credit_score <= 820.0\ngini = 0.4\nsamples = 188\nvalue = [143, 45]"] ;
1055 -> 1056 ;
1057 [label="def_pct_by_branch <= 0.2\ngini = 0.2\nsamples = 82\nvalue = [72, 10]"] ;
1056 -> 1057 ;
1058 [label="gini = 0.0\nsamples = 26\nvalue = [26, 0]"] ;
1057 -> 1058 ;
1059 [label="avg_credit_hist_mnth <= 9.5\ngini = 0.3\nsamples = 56\nvalue = [46, 10]"] ;
1057 -> 1059 ;
1060 [label="gini = 0.0\nsamples = 18\nvalue = [18, 0]"] ;
1059 -> 1060 ;
1061 [label="gini = 0.4\nsamples = 38\nvalue = [28, 10]"] ;
1059 -> 1061 ;
1062 [label="asset_cost <= 67418.5\ngini = 0.4\nsamples = 106\nvalue = [71, 35]"] ;
1056 -> 1062 ;
1063 [label="def_pct_by_manufacturer <= 0.2\ngini = 0.3\nsamples = 46\nvalue = [36, 10]"] ;
1062 -> 1063 ;
1064 [label="gini = 0.1\nsamples = 18\nvalue = [17, 1]"] ;
1063 -> 1064 ;
1065 [label="gini = 0.4\nsamples = 28\nvalue = [19, 9]"] ;
1063 -> 1065 ;
1066 [label="asset_cost <= 68425.0\ngini = 0.5\nsamples = 60\nvalue = [35, 25]"] ;
1062 -> 1066 ;
1067 [label="gini = 0.4\nsamples = 7\nvalue = [2, 5]"] ;
1066 -> 1067 ;
1068 [label="gini = 0.5\nsamples = 53\nvalue = [33, 20]"] ;
1066 -> 1068 ;
1069 [label="PRI.CURRENT.BALANCE <= 23683.0\ngini = 0.5\nsamples = 56\nvalue = [34, 22]"] ;
1055 -> 1069 ;
1070 [label="gini = 0.2\nsamples = 7\nvalue = [1, 6]"] ;
1069 -> 1070 ;
1071 [label="PRI.NO.OF.ACCTS <= 7.5\ngini = 0.4\nsamples = 49\nvalue = [33, 16]"] ;
1069 -> 1071 ;
1072 [label="PRIMARY.INSTAL.AMT <= 12328.0\ngini = 0.4\nsamples = 43\nvalue = [32, 11]"] ;
1071 -> 1072 ;
1073 [label="gini = 0.3\nsamples = 39\nvalue = [31, 8]"] ;
1072 -> 1073 ;
1074 [label="gini = 0.4\nsamples = 4\nvalue = [1, 3]"] ;
1072 -> 1074 ;
1075 [label="gini = 0.3\nsamples = 6\nvalue = [1, 5]"] ;
1071 -> 1075 ;
1076 [label="PRIMARY.INSTAL.AMT <= 4090.5\ngini = 0.5\nsamples = 66\nvalue = [32, 34]"] ;
1032 -> 1076 ;
1077 [label="avg_credit_hist_mnth <= 43.0\ngini = 0.5\nsamples = 55\nvalue = [29, 26]"] ;
1076 -> 1077 ;
1078 [label="avg_credit_hist_mnth <= 24.5\ngini = 0.5\nsamples = 49\nvalue = [29, 20]"] ;
1077 -> 1078 ;
1079 [label="inst_curr_disb_ratio <= 0.1\ngini = 0.5\nsamples = 36\nvalue = [17, 19]"] ;
1078 -> 1079 ;
1080 [label="total_outstanding <= 36839.0\ngini = 0.5\nsamples = 31\nvalue = [16, 15]"] ;
1079 -> 1080 ;
1081 [label="gini = 0.3\nsamples = 6\nvalue = [5, 1]"] ;
1080 -> 1081 ;
1082 [label="gini = 0.5\nsamples = 25\nvalue = [11, 14]"] ;
1080 -> 1082 ;
1083 [label="gini = 0.3\nsamples = 5\nvalue = [1, 4]"] ;
1079 -> 1083 ;
1084 [label="def_pct_by_state <= 0.2\ngini = 0.1\nsamples = 13\nvalue = [12, 1]"] ;
1078 -> 1084 ;
1085 [label="gini = 0.4\nsamples = 4\nvalue = [3, 1]"] ;
1084 -> 1085 ;
1086 [label="gini = 0.0\nsamples = 9\nvalue = [9, 0]"] ;
1084 -> 1086 ;
1087 [label="gini = 0.0\nsamples = 6\nvalue = [0, 6]"] ;
1077 -> 1087 ;
1088 [label="curr_outstd_ratio <= 0.8\ngini = 0.4\nsamples = 11\nvalue = [3, 8]"] ;
1076 -> 1088 ;
1089 [label="gini = 0.5\nsamples = 6\nvalue = [3, 3]"] ;
1088 -> 1089 ;
1090 [label="gini = 0.0\nsamples = 5\nvalue = [0, 5]"] ;
1088 -> 1090 ;
1091 [label="NO.OF_INQUIRIES <= 0.5\ngini = 0.4\nsamples = 472\nvalue = [355, 117]"] ;
1031 -> 1091 ;
1092 [label="NEW.ACCTS.IN.LAST.SIX.MONTHS <= 0.5\ngini = 0.4\nsamples = 427\nvalue = [328, 99]"] ;
1091 -> 1092 ;
1093 [label="def_pct_by_emp <= 0.2\ngini = 0.4\nsamples = 345\nvalue = [256, 89]"] ;
1092 -> 1093 ;
1094 [label="instalment_health <= 2406.2\ngini = 0.3\nsamples = 211\nvalue = [169, 42]"] ;
1093 -> 1094 ;
1095 [label="Age_when_applying <= 38.7\ngini = 0.3\nsamples = 166\nvalue = [140, 26]"] ;
1094 -> 1095 ;
1096 [label="credit_score <= 817.0\ngini = 0.1\nsamples = 46\nvalue = [44, 2]"] ;
1095 -> 1096 ;
1097 [label="gini = 0.3\nsamples = 12\nvalue = [10, 2]"] ;
1096 -> 1097 ;
1098 [label="gini = 0.0\nsamples = 34\nvalue = [34, 0]"] ;
1096 -> 1098 ;
1099 [label="inst_curr_disb_ratio <= 0.0\ngini = 0.3\nsamples = 120\nvalue = [96, 24]"] ;
1095 -> 1099 ;
1100 [label="gini = 0.4\nsamples = 103\nvalue = [79, 24]"] ;
1099 -> 1100 ;
1101 [label="gini = 0.0\nsamples = 17\nvalue = [17, 0]"] ;
1099 -> 1101 ;
1102 [label="PRI.DISBURSED.AMOUNT <= 62870.5\ngini = 0.5\nsamples = 45\nvalue = [29, 16]"] ;
1094 -> 1102 ;
1103 [label="PRI.CURRENT.BALANCE <= 6322.5\ngini = 0.5\nsamples = 16\nvalue = [7, 9]"] ;
1102 -> 1103 ;
1104 [label="gini = 0.4\nsamples = 10\nvalue = [7, 3]"] ;
1103 -> 1104 ;
1105 [label="gini = 0.0\nsamples = 6\nvalue = [0, 6]"] ;
1103 -> 1105 ;
1106 [label="asset_to_loan_pct <= 1.6\ngini = 0.4\nsamples = 29\nvalue = [22, 7]"] ;
1102 -> 1106 ;
1107 [label="gini = 0.4\nsamples = 22\nvalue = [15, 7]"] ;
1106 -> 1107 ;
1108 [label="gini = 0.0\nsamples = 7\nvalue = [7, 0]"] ;
1106 -> 1108 ;
1109 [label="PRI.CURRENT.BALANCE <= 321938.5\ngini = 0.5\nsamples = 134\nvalue = [87, 47]"] ;
1093 -> 1109 ;
1110 [label="PRI.SANCTIONED.AMOUNT <= 191125.0\ngini = 0.4\nsamples = 130\nvalue = [87, 43]"] ;
1109 -> 1110 ;
1111 [label="PRI.CURRENT.BALANCE <= 16744.5\ngini = 0.5\nsamples = 116\nvalue = [73, 43]"] ;
1110 -> 1111 ;
1112 [label="gini = 0.5\nsamples = 110\nvalue = [72, 38]"] ;
1111 -> 1112 ;
1113 [label="gini = 0.3\nsamples = 6\nvalue = [1, 5]"] ;
1111 -> 1113 ;
1114 [label="gini = 0.0\nsamples = 14\nvalue = [14, 0]"] ;
1110 -> 1114 ;
1115 [label="gini = 0.0\nsamples = 4\nvalue = [0, 4]"] ;
1109 -> 1115 ;
1116 [label="PRIMARY.INSTAL.AMT <= 35059.0\ngini = 0.2\nsamples = 82\nvalue = [72, 10]"] ;
1092 -> 1116 ;
1117 [label="Age_when_applying <= 38.1\ngini = 0.2\nsamples = 78\nvalue = [70, 8]"] ;
1116 -> 1117 ;
1118 [label="instalment_health <= 2460.3\ngini = 0.4\nsamples = 22\nvalue = [17, 5]"] ;
1117 -> 1118 ;
1119 [label="gini = 0.5\nsamples = 6\nvalue = [3, 3]"] ;
1118 -> 1119 ;
1120 [label="Age_when_applying <= 35.9\ngini = 0.2\nsamples = 16\nvalue = [14, 2]"] ;
1118 -> 1120 ;
1121 [label="gini = 0.0\nsamples = 10\nvalue = [10, 0]"] ;
1120 -> 1121 ;
1122 [label="gini = 0.4\nsamples = 6\nvalue = [4, 2]"] ;
1120 -> 1122 ;
1123 [label="PRI.DISBURSED.AMOUNT <= 81941.5\ngini = 0.1\nsamples = 56\nvalue = [53, 3]"] ;
1117 -> 1123 ;
1124 [label="PRI.SANCTIONED.AMOUNT <= 66368.5\ngini = 0.2\nsamples = 33\nvalue = [30, 3]"] ;
1123 -> 1124 ;
1125 [label="gini = 0.1\nsamples = 29\nvalue = [28, 1]"] ;
1124 -> 1125 ;
1126 [label="gini = 0.5\nsamples = 4\nvalue = [2, 2]"] ;
1124 -> 1126 ;
1127 [label="gini = 0.0\nsamples = 23\nvalue = [23, 0]"] ;
1123 -> 1127 ;
1128 [label="gini = 0.5\nsamples = 4\nvalue = [2, 2]"] ;
1116 -> 1128 ;
1129 [label="def_pct_by_supplier <= 0.2\ngini = 0.5\nsamples = 45\nvalue = [27, 18]"] ;
1091 -> 1129 ;
1130 [label="def_pct_by_pin <= 0.2\ngini = 0.4\nsamples = 16\nvalue = [12, 4]"] ;
1129 -> 1130 ;
1131 [label="gini = 0.4\nsamples = 4\nvalue = [1, 3]"] ;
1130 -> 1131 ;
1132 [label="def_pct_by_supplier <= 0.1\ngini = 0.2\nsamples = 12\nvalue = [11, 1]"] ;
1130 -> 1132 ;
1133 [label="gini = 0.4\nsamples = 4\nvalue = [3, 1]"] ;
1132 -> 1133 ;
1134 [label="gini = 0.0\nsamples = 8\nvalue = [8, 0]"] ;
1132 -> 1134 ;
1135 [label="PRI.SANCTIONED.AMOUNT <= 91500.0\ngini = 0.5\nsamples = 29\nvalue = [15, 14]"] ;
1129 -> 1135 ;
1136 [label="PRI.ACTIVE.ACCTS <= 0.5\ngini = 0.5\nsamples = 22\nvalue = [8, 14]"] ;
1135 -> 1136 ;
1137 [label="gini = 0.5\nsamples = 8\nvalue = [5, 3]"] ;
1136 -> 1137 ;
1138 [label="asset_cost <= 65080.0\ngini = 0.3\nsamples = 14\nvalue = [3, 11]"] ;
1136 -> 1138 ;
1139 [label="gini = 0.0\nsamples = 9\nvalue = [0, 9]"] ;
1138 -> 1139 ;
1140 [label="gini = 0.5\nsamples = 5\nvalue = [3, 2]"] ;
1138 -> 1140 ;
1141 [label="gini = 0.0\nsamples = 7\nvalue = [7, 0]"] ;
1135 -> 1141 ;
1142 [label="age_outstd_ratio <= 0.0\ngini = 0.5\nsamples = 105\nvalue = [53, 52]"] ;
1030 -> 1142 ;
1143 [label="avg_acct_age_mnth <= 17.5\ngini = 0.5\nsamples = 48\nvalue = [18, 30]"] ;
1142 -> 1143 ;
1144 [label="def_pct_by_supplier <= 0.3\ngini = 0.4\nsamples = 38\nvalue = [11, 27]"] ;
1143 -> 1144 ;
1145 [label="age_outstd_ratio <= 0.0\ngini = 0.5\nsamples = 17\nvalue = [8, 9]"] ;
1144 -> 1145 ;
1146 [label="ltv <= 60.9\ngini = 0.4\nsamples = 10\nvalue = [7, 3]"] ;
1145 -> 1146 ;
1147 [label="gini = 0.5\nsamples = 4\nvalue = [2, 2]"] ;
1146 -> 1147 ;
1148 [label="gini = 0.3\nsamples = 6\nvalue = [5, 1]"] ;
1146 -> 1148 ;
1149 [label="gini = 0.2\nsamples = 7\nvalue = [1, 6]"] ;
1145 -> 1149 ;
1150 [label="credit_score <= 762.5\ngini = 0.2\nsamples = 21\nvalue = [3, 18]"] ;
1144 -> 1150 ;
1151 [label="gini = 0.5\nsamples = 5\nvalue = [2, 3]"] ;
1150 -> 1151 ;
1152 [label="avg_acct_age_mnth <= 6.5\ngini = 0.1\nsamples = 16\nvalue = [1, 15]"] ;
1150 -> 1152 ;
1153 [label="gini = 0.4\nsamples = 4\nvalue = [1, 3]"] ;
1152 -> 1153 ;
1154 [label="gini = 0.0\nsamples = 12\nvalue = [0, 12]"] ;
1152 -> 1154 ;
1155 [label="PRI.CURRENT.BALANCE <= 7868.0\ngini = 0.4\nsamples = 10\nvalue = [7, 3]"] ;
1143 -> 1155 ;
1156 [label="gini = 0.5\nsamples = 5\nvalue = [2, 3]"] ;
1155 -> 1156 ;
1157 [label="gini = 0.0\nsamples = 5\nvalue = [5, 0]"] ;
1155 -> 1157 ;
1158 [label="PRI.DISBURSED.AMOUNT <= 38131.5\ngini = 0.5\nsamples = 57\nvalue = [35, 22]"] ;
1142 -> 1158 ;
1159 [label="avg_acct_age_mnth <= 24.5\ngini = 0.5\nsamples = 51\nvalue = [29, 22]"] ;
1158 -> 1159 ;
1160 [label="asset_to_loan_pct <= 1.3\ngini = 0.5\nsamples = 43\nvalue = [22, 21]"] ;
1159 -> 1160 ;
1161 [label="gini = 0.3\nsamples = 5\nvalue = [1, 4]"] ;
1160 -> 1161 ;
1162 [label="total_outstanding <= 47211.5\ngini = 0.5\nsamples = 38\nvalue = [21, 17]"] ;
1160 -> 1162 ;
1163 [label="total_outstanding <= 35576.5\ngini = 0.5\nsamples = 28\nvalue = [12, 16]"] ;
1162 -> 1163 ;
1164 [label="gini = 0.2\nsamples = 7\nvalue = [1, 6]"] ;
1163 -> 1164 ;
1165 [label="ltv <= 70.0\ngini = 0.5\nsamples = 21\nvalue = [11, 10]"] ;
1163 -> 1165 ;
1166 [label="gini = 0.3\nsamples = 9\nvalue = [7, 2]"] ;
1165 -> 1166 ;
1167 [label="gini = 0.4\nsamples = 12\nvalue = [4, 8]"] ;
1165 -> 1167 ;
1168 [label="def_pct_by_manufacturer <= 0.2\ngini = 0.2\nsamples = 10\nvalue = [9, 1]"] ;
1162 -> 1168 ;
1169 [label="gini = 0.4\nsamples = 4\nvalue = [3, 1]"] ;
1168 -> 1169 ;
1170 [label="gini = 0.0\nsamples = 6\nvalue = [6, 0]"] ;
1168 -> 1170 ;
1171 [label="gini = 0.2\nsamples = 8\nvalue = [7, 1]"] ;
1159 -> 1171 ;
1172 [label="gini = 0.0\nsamples = 6\nvalue = [6, 0]"] ;
1158 -> 1172 ;
1173 [label="ltv <= 71.1\ngini = 0.3\nsamples = 153\nvalue = [125, 28]"] ;
1029 -> 1173 ;
1174 [label="inst_curr_disb_ratio <= 1.6\ngini = 0.4\nsamples = 94\nvalue = [70, 24]"] ;
1173 -> 1174 ;
1175 [label="PRI.ACTIVE.ACCTS <= 2.5\ngini = 0.3\nsamples = 64\nvalue = [51, 13]"] ;
1174 -> 1175 ;
1176 [label="avg_credit_hist_mnth <= 51.0\ngini = 0.4\nsamples = 27\nvalue = [18, 9]"] ;
1175 -> 1176 ;
1177 [label="def_pct_by_supplier <= 0.2\ngini = 0.2\nsamples = 17\nvalue = [15, 2]"] ;
1176 -> 1177 ;
